      8.1876912476
     -0.5989615975
      0.3595337818
     -3.5676603718
      9.8412170244
     -6.1973417437
     -2.8772324213
     -7.5494259019
     10.3992640830
     -0.1448031530
     -2.3186907802
     -0.1889162274
      4.8415730410
      1.5150727822
     -3.8979909106
     -1.1286820548
     15.2675095756
     -1.2323609004
      7.5978614974
     -0.9801874066
      2.4086731305
      4.3277721075
      1.9478649446
    -12.1912854951
     -0.7583877550
     -3.7172333626
      2.6890652978
     -2.7314756924
      4.2949341735
     -2.6987861580
      0.1306665548
     -9.3654396496
      2.8765366827
     -2.2923496524
     -4.3303888536
      0.4887562524
      0.5629908278
      3.9002160153
     13.4805670710
     -5.0200194431
      0.9953792370
     -5.4850049448
     20.9815008563
    -15.9732490613
     10.9636534040
     -0.5245532021
      0.3993413512
     -8.2450022929
      7.1618840195
      8.3658141731
     20.0960192682
    -14.3108821084
     -3.0198935952
     -9.9119736634
      3.6034385437
     -3.2504626971
     -6.5668580076
     -0.9281414050
     10.2701659036
     12.8900826843
     -6.4088975274
     -4.2017603116
      1.9299011100
      1.9867860522
    -10.0615912460
    -13.4155002728
      5.6497065132
     -0.5622386453
      3.2770531552
     13.5056513107
     -5.2545191898
     -1.1507357217
     -4.7223553564
     10.7361297180
    -19.2713176159
      6.2630690872
     -5.2321161129
      7.9451326174
    -21.6258023622
      2.2373152363
      4.1185783679
      5.2734491755
      2.2168611785
      1.2140806909
     -8.5769602263
    -19.2554232560
      0.5396747232
     -8.5745639928
    -18.4628892249
      0.4671337704
      0.7277292091
     -3.3766486726
     -3.7655084875
     17.5111660913
     -9.1859523075
     11.4342486586
     -4.1579507059
      2.1416050668
     -3.2166363795
      5.8711706245
    -12.4847841806
     14.2553077546
     -7.9340359439
      1.2975045918
     -2.3536789828
    -31.2279935543
     10.6060877605
     -2.7814254295
    -36.4775972430
     -4.9171985488
     25.8505098369
     -1.2453601872
    -26.4477435861
     18.9872593749
    -35.0160191884
     -9.5351133453
    -12.1484247911
     15.7468502442
     -6.6644912574
     10.2560140355
      8.8921148476
     -7.1823936923
     21.1888746567
      3.3349747124
     -4.1733760043
    -19.5699838609
     18.4551757116
     -3.1854200647
     14.0579364165
     -8.3724236986
     -6.3593630656
      7.9594868211
      2.4987722607
    -25.0545937593
     11.1278820756
     23.4448961952
     -5.4063671185
      9.2266712063
     -2.1931685363
    -20.3760803414
     -6.0354423777
     17.3450136905
     -2.9120379461
     -2.3674781212
     -0.1457967155
      0.1963280275
     28.9631618086
    -24.5589315398
     25.9324518341
    -16.6784632070
    -11.8301133226
     -0.5225906657
     -5.4299377965
     -9.1169875881
     -4.3561817162
      8.3950414947
    -30.6766870763
    -17.0331987481
      7.8328417737
     17.2844999391
      8.5747991932
     20.3217427170
    -26.4903970689
    -12.3028780777
     27.8133331859
      6.9296302328
    -10.0903067046
     -0.0082472133
     21.5314971244
     -7.5993533749
     12.5059887263
     -1.0403496726
    -18.8418240587
     -2.8854491399
     17.6968066412
     28.8336716751
    -49.0941933449
      0.4927567331
     -2.7728108578
     -7.9478887565
      5.7598490671
     34.1428673203
     36.9910765318
    -31.4032914968
     37.5718874008
     -0.5502546921
      4.7087508685
      1.7147149692
     -2.5652944012
     31.8371393205
     -2.0692930108
    -25.2094468346
    -39.7106971928
     -0.9307033292
     -0.5706242676
     -0.4944237560
      3.9769115941
      4.0609921741
    -11.2593660407
    -29.0717199987
      4.6175626518
     31.6443866669
     -0.2882334267
    -30.0444705478
     18.1413065576
     16.4844864709
    -11.6445773872
     -4.3185486771
     42.5303788150
     -3.4155594940
     -1.3696722640
     -1.3174357819
     -5.9085146326
     -0.1593771844
     -0.1613106296
     -0.5196211872
     -2.7783223716
      4.4715114147
      5.4347886242
      0.1403421327
      6.3694533912
     -5.0211860821
     -3.4203786250
     -1.1963234280
     -3.1410857125
     -1.0199063601
     -1.0455890091
     -0.8937010294
      0.2472951557
      0.0736417091
     -1.7459759392
      2.7999332691
     -4.3824869111
      1.9498650876
     -1.6865620179
     -3.0352449632
      4.3271058923
     -2.6923560312
      2.6034032640
      4.8794515878
      1.1879560012
     -1.0592999699
      0.3737612741
     -4.2439262541
     -2.9356963064
    -33.6341784492
    -46.8620760629
    -91.3169585546
     15.7533017530
     10.0091109007
     -0.5344820956
    -36.0271414215
    104.9444227317
     91.7437529915
      9.3241617142
    105.5055072826
    -85.7042537684
    -83.8661413770
     -2.6064677680
    -38.7419769275
    -16.9050469326
    -25.6426803595
    -77.5045370305
     27.8696318247
      7.0422402457
    -45.6823108650
     41.1006583443
   -140.4082665958
     70.3288955812
      7.4460466274
    -64.6556516319
     83.5294775531
    -41.8850118704
     62.0255825376
     75.7423156940
     15.0281335102
    -10.3740885127
      5.8572839775
   -166.7955601922
    -32.9098528889
      0.4553982881
     -0.2301448531
      0.6495598855
     -3.5782595254
      1.5762479817
      0.1045664246
      0.5610983633
      0.8156418614
      0.7135725653
     -0.8954061968
      0.0211098222
     -1.1886257603
     -0.4058350061
      3.0099819136
      0.7569498305
     -3.0884696626
     -0.9327500521
      0.0799605781
      1.9883526196
     -1.1325156695
      2.9959928736
     -1.1356170505
      0.3152999133
      0.8579088514
     -0.1518554474
      3.4641510532
     -0.3612662817
     -0.2191348986
     -2.7459316149
      4.1701892435
      1.6796211306
      2.4342976003
     -0.6286442390
     -0.0310370164
     -1.9189867598
      4.8666108023
     -2.9383564773
     -2.2581122117
      2.7242115367
      1.9145309226
     -8.3153605070
     -0.1930814085
     -2.9830953142
     -2.5889945638
      0.0776325987
      0.6750226133
     -1.2790959452
     -1.6056374009
      2.5522399458
     -0.9825563770
     -7.6589274842
      1.2677040220
     -1.4764043786
     -1.5969007067
      0.7055486245
     -0.3139731270
      0.2153785352
     -1.9805002648
      1.0516746843
     -3.4340200473
     -0.0613946758
     -3.1085601320
      1.0311101038
      1.2751966406
     -1.5890112518
     -3.2633318010
      1.9940676352
      0.1183112279
      0.5956686023
      0.1426699591
     -1.4911121631
      0.4629625952
     -0.2919359596
      1.4969814813
     -1.3298270440
      0.9907854610
     -1.9346897772
     -0.0721790126
     -0.2329105502
      0.2003003409
      1.1650502327
      1.4490196329
      2.0372608036
     -3.7691528783
     -1.2124088690
     -2.5154209573
     -4.3052367222
      0.0936088514
     -3.3493984051
      0.6630024302
     -0.5769102064
     -0.2040099532
     -1.0639004632
      1.4788717850
     -2.7082271601
      0.5368755254
     -1.5862697645
     -0.1404786070
     -1.6616035839
      0.8671744552
     -1.5432164129
      1.0957438339
     -0.8552450273
      0.1341876570
     -1.2176635550
      1.0284387124
      0.1260391322
      1.1226601488
     -2.3328542288
     -2.3592636089
     -2.8224683836
     -3.7627962395
      2.8192600926
      0.4374517919
      2.3318395566
      1.6941730701
      3.4811763112
      3.8450964242
     -4.7842240648
      1.7651267404
     12.5431033969
      1.6080702380
      3.5175511668
     -5.9611830423
      2.8488514684
    -10.0913843864
      2.2525487223
      1.9180282070
     -1.1709660422
     -1.8726755097
     -6.9520783329
     -0.7976821796
      0.4847658752
      4.2145307284
     -4.7200622772
      2.3835453772
     -4.9600199621
      2.8616871068
     -2.0357724357
      3.7655227883
      6.7398748057
     -1.4070701003
      2.4637675281
     -5.0519928777
     -0.4566814503
     -4.7767970814
     -2.4308791407
      2.0351712260
     -1.7907716157
      1.2750927657
     -4.9261257689
     -0.9475155931
     -2.8964149978
     -2.8341757857
      2.4324167689
     -4.0613540100
     -1.8446884001
     -4.4183646925
      2.4221572152
      0.1062712107
     -2.3474664641
     -0.4321343542
     -3.0445525726
      3.1773106406
      0.6480146468
     -0.6249953241
     -2.6620822598
      0.1143170298
     -0.1986427455
      0.0409531099
     -0.4783626141
     -7.7196811870
      0.3475938973
      2.1036757909
     -0.8530523684
     -6.2839883115
     -0.0089165784
     -3.2956665398
      3.7692291123
      0.5246695110
      2.9069856643
      7.0918399639
     -1.3667353881
      2.0599488779
     -4.2371206356
      3.3421649108
     -0.9407075248
     -0.6903319578
      5.0912417300
      0.3773507713
      5.2663545869
      1.9319711492
      5.0025295596
      0.6036212160
      0.3424266243
      2.4958538144
      0.8770185398
      3.3611791029
     -6.0054437669
      1.5817857654
      0.5728675803
      4.1741038133
      1.3628397898
      1.3781720886
      0.0207241556
      4.0832834215
      6.9290804406
     -0.1185698050
     -1.4229072803
      3.1995153391
     -1.7831974440
      3.4795417449
     -3.4738049231
      9.8893573973
     -7.4661456521
      7.1599568743
     -6.9873930366
      6.2088483960
      4.2006796179
     11.8066576405
    -11.6207819404
      6.8093166530
     -8.5422590932
     18.1609549963
      5.2491696161
    -10.0821016647
     20.6874006304
     -6.4654473140
     -3.3931145567
     23.5230061192
     -9.1187671213
     -7.7674256676
      0.1366172973
     -4.2982314832
     10.9346147633
      4.7788565095
     20.1763543638
      7.6809970192
    -14.2379668744
      1.3046589868
     17.7159076856
     -0.1086170565
    -13.0500959956
     15.8921936166
     -8.3931500402
     17.5422771253
     19.4696241818
    -10.4990234377
     -3.1703142919
      2.8327684025
    -16.9216448011
     -4.7276607356
    -13.7368782451
    -14.4481633510
    -38.3344573480
     -1.1170617838
      0.6995347445
      0.3285117528
    -16.7874376819
    -25.6167233546
      9.8104883187
    -25.7934620440
     10.7398519386
     -4.6041887090
    -19.5824793638
     30.2806970701
      1.0775126204
      4.6090186484
    -17.5180111551
      6.9076672946
     18.6207399386
    -23.6239555688
     30.1074255261
     54.7096112394
     -3.4984534960
    -21.4308167449
     17.7454949487
     46.6459793483
    -43.5915961483
     16.0003015733
      5.1317741142
     -1.4605359958
      5.3473409202
     -4.2942874442
      9.1630230966
     -3.9823910998
     -4.3536652803
      3.5756920306
      3.9407165970
     10.0290975675
      7.2595042244
      0.2780150010
      1.8048966305
     -5.3596230487
     -4.3557355046
     -2.6160767032
      4.8790990633
      8.9092774178
      8.2002286936
     -1.6230077021
      3.1575128981
     -4.8039830473
      6.8523774475
      7.9270135698
     -4.8813736795
     -3.1103891320
     -9.8875953282
     -5.9880553515
      0.7619473875
     -1.6550177057
     -2.2941914818
      3.7972329146
     -2.3419441949
     -5.4466748104
      1.8607286852
     -4.3201442377
      0.1512590836
     16.1408032562
     -2.7006166373
    -13.9458064976
      9.0106032849
     -8.6598630614
     -5.8733173315
     -6.7822743136
     12.0562478413
      7.4223877349
      0.5032114603
     12.2784107328
      8.1570967682
      7.6346492505
     11.3127810200
    -12.9890626765
    -25.2179259416
     -7.2616971640
      3.6691641831
    -17.1010262632
     12.6997322341
    -17.8813315548
     -9.7205658849
     -7.5073107199
      3.4102728795
     -2.4273550419
      0.8492607771
     -6.3687583646
     15.5754449020
    -19.6701479799
    -14.0379027004
     -0.1521925615
      2.4389574012
     -1.3174327955
      8.1563841684
    -19.8993104096
    -11.2189369436
      1.6006929972
      0.6472897247
     -5.3789572735
     11.2897469289
    -20.2927877968
     25.9929744631
    -18.3052540542
     15.7393762640
     -2.5234477136
     17.3783091267
    -37.8176433036
     -6.5874026032
     -1.8788140914
     20.9489330739
     12.9306308450
     -3.3146763689
     15.4896046414
      4.2882649041
    -34.3518735754
     33.8181021894
     -0.7562627494
    -33.6232848264
    -24.0675573943
     -5.1913142116
    -10.0129505278
     11.7303760446
     24.2029039730
    -27.0085657705
      2.4298354389
      9.3531058926
     11.3248946905
      5.5106415274
     11.6013725744
    -27.2164768370
     18.5640807612
     15.4336343825
     14.0463208905
    -17.6119231744
      0.6714056446
      9.3096434189
    -19.4522517123
    -13.4666136285
     25.5881552309
    -29.3345223500
     -8.8417502137
    -14.6572494983
     26.2586957122
     43.9785505082
    -13.6435210284
     -9.5754218756
    -27.2216558996
    -24.5215642858
     -3.1497120210
     10.0249708711
    -14.0111043994
    -14.1220209238
     20.9741732972
      3.1326540215
      3.2793893084
     11.2357080355
     36.4120778644
     -0.0680849469
     -3.8075313090
     19.3350150550
     -5.2446653576
      9.0442035410
     -3.7409279781
    -10.1557102344
      7.1302267708
    -10.0432052084
      3.5867183888
     14.3333157356
      0.1621264759
    -20.9495076789
     -6.9103688296
    -15.9090505305
     -6.8755601631
     -9.1661564043
      8.5791047288
     -9.2826867030
      0.6030377897
     -7.7311232020
    -18.8548239625
     13.2426916991
     -4.9456522973
     -1.2072903084
     -7.4100018260
     13.0241604125
      6.0985262465
    -16.3386272086
     11.3504923077
     -4.5751685726
      2.7943343108
      0.0834280243
     -0.8723462593
    -33.8847176030
      2.6604546019
    -13.4845874836
    -15.0491135102
     27.2129566072
      9.3813850346
     -8.8607609235
      2.0326895853
    -30.0337162130
      9.3393246572
      8.0892746540
    -13.3765941783
      5.0741293123
    -17.9986610921
      3.2578039475
    -10.9945985901
      8.9526490100
    -38.9819704865
      1.1289154685
    -18.8570382360
      5.8919800849
     -7.1005955433
     -1.1030316187
     -1.9394680483
     -8.7923662267
      2.8229399035
     -5.0631501679
      9.4978133897
      5.9946238513
     12.0591148806
     -2.8492847613
     10.1128751918
     -4.3505634573
     -5.5727512252
      4.0148016321
    -42.4070778023
     -7.6838518748
      1.1598235766
     -5.9595576731
     -2.8168131372
    -58.3191326904
    -10.5789913955
      1.5280683979
     99.0293439942
    -20.3993505931
    -25.5340063293
     37.6899696080
      9.0746607928
     20.3796671522
      7.5210547991
      3.0951169683
    -18.6333667566
     25.9901511061
    -10.5852471659
     31.4715161686
      7.3723875015
     23.7638628638
    -30.1902796283
     -8.0399560666
    -12.2143448571
     -2.0207254186
     12.0821560696
    -18.7811457776
    -35.4385428434
     -7.6639628256
     -1.1282320643
     15.2365822585
     -6.3651357904
     31.1155731680
     -1.0190094025
     46.2708144017
    -14.3363670881
      6.8493087649
    -18.0711247657
    -15.2912527291
     44.5717131800
      9.5304503619
     -1.6723275679
      4.0717677936
     -0.4901747176
     -3.3496728795
      2.2929159282
      2.5316332566
     -5.1163520286
     -0.3663977668
      3.7860383402
     -1.3979987044
     -0.9658395660
     -2.1206878096
     -7.0209466321
     -1.3198250875
     -1.7062361576
     -4.7600135483
      2.0329908724
     -7.0576734415
      2.5759388764
      5.6115341933
     -0.4141491431
     -2.6297315914
      2.7959965118
     -0.2227685679
     -3.9517460088
      0.8164231547
     -0.0134539516
     10.0586334411
     -3.8769028043
      2.8808529425
     -3.7065592720
      2.9558341473
      4.7206989189
      8.4183717183
     -0.8756214303
     -0.2598919155
     -0.6482517523
      3.0877540524
     -2.2206483981
     -4.7217060148
     -0.9369185367
     -0.2796938737
      2.5101194510
      3.2549649602
      4.6694408584
     13.9791697835
    -13.9206040369
      8.2611506959
     -0.3665213297
     -1.1495430370
     -1.8913190612
     -2.6020142444
     -3.3383603888
      3.5216487722
     18.4483036255
     -7.7907507217
     -1.5888200816
      0.8254891705
      2.3511424261
      0.6552698620
      1.3079036447
     24.4828527879
    -11.8371136356
      4.6695034672
     -0.3936932776
    -12.4986452439
    -10.2553923185
    -14.1613488025
    -12.2368956867
      4.6038416352
      5.7654759849
      2.8006121856
     21.5464827278
      4.3899531122
      8.7540313249
     13.4023905508
      5.8552983771
      9.5026081552
     18.6192921517
      4.1784010008
      0.4366328739
      1.3113024184
    -12.3960695731
     11.8637567632
     20.6840133090
      4.1189474284
     36.4353029378
     -4.3613962326
    -32.0946322243
     -2.4892824879
     -5.8136313974
     -1.9157200940
     10.8588346441
     18.3361928515
     -8.6634224043
      9.8476273421
     -2.5561208084
     12.7799756915
     -0.9968451430
     -6.3265476340
     -5.3062372190
     -5.5102170350
      4.4334412220
    -15.6651177544
     11.7285654652
      2.7577033490
      8.8184391709
    -14.4400020585
      5.7211972553
     -7.9934795110
    -15.5861761020
      9.8033629100
     -3.9380968189
     -8.5326359600
    -12.2059580914
     -7.3354582168
      6.6895176242
     -9.8351524293
     -4.2596293791
    -11.8159907044
    -10.2787627633
     13.7165007563
      8.3296071736
    -16.1420510553
      6.1472404314
      0.0171758245
    -16.1281599412
      6.0761082555
     14.1725829989
     -9.2672336555
     40.7850014315
      0.7247327024
     -9.5883954340
     -9.8834996233
    -16.6704726394
     16.9516883509
     -2.5492691509
      4.2676560712
     -3.4375815905
     30.2739089813
      1.2004828819
     -6.3364876851
     13.4716829172
      7.7587454490
      0.8084214079
     -3.6521317227
      2.5674845550
     -5.9315268682
     -8.0435809844
    -15.9326269008
     -2.0902255800
      0.5575535285
     -8.8565068179
     10.0110377124
      2.6617768646
      1.3168304523
     -1.5103519443
      1.0447064540
     -0.3823111531
     -3.5255771787
      6.1240056748
      5.0997910201
     -5.9904145984
     -3.6526001919
     -4.9890583879
     -1.1906426889
     13.7817416472
      3.6316807291
     -0.4371125195
     -0.2553544019
    -13.6062709868
     -1.5488629379
     -8.4394307865
    -10.2762566448
    -11.4557135125
     13.9093339715
      0.7650992262
     -0.7949698845
     -0.1035822581
      7.1175115754
     -1.2591449505
     16.1810897771
      1.1468482639
     -2.9938690848
     -4.3410296652
      2.4836988911
     -5.8382471939
     -2.4022494272
     -7.3154012463
      8.2469104540
      7.2832354785
     22.1088798604
     -0.0954809905
     -8.7666137945
      1.2408751490
     -8.3112079395
      3.7007709082
     -1.3932946551
      8.5734608663
    -14.1745445038
    -16.3892534260
    -24.0623905644
     -2.6671236554
     19.0063777552
     -6.2339211993
     -1.7569561960
      2.9586838704
     -6.5303269206
      0.0204108503
     -1.7692969998
      6.7454265229
     -3.8909745865
      2.8792366429
     -2.5275987614
      2.8798928837
      1.3248022471
     -1.5160083258
      6.0200549952
     14.2084215915
    -10.0021092244
      4.5354834126
      5.5336615633
     15.8577715299
     -5.6918449790
     -7.0906631074
      2.8809564970
      0.1044904427
     -7.6450974739
      3.1132790827
      2.5576934629
     -7.7117926993
     -6.1835762213
     11.9241002905
     -0.5921927279
     -7.0021151734
      3.5926444431
    -11.2840619400
    -13.9517451325
     -4.5424188447
      0.6846026707
    -22.8924024940
      0.1517110850
    -11.5648884364
      3.7106882810
     -8.9838439011
     -1.7889777282
     -4.3740653662
      2.9668946850
     -0.8792872054
     -9.4356494511
     -9.2080094034
     -1.8427176474
      9.6173909199
     19.0941663507
     -1.3139908030
      0.5040957765
    -16.8832493255
     -2.0983396127
      9.2494416928
     -4.9634172642
     -4.9255692140
     12.3123643583
     -6.5716537489
     -4.2335996755
     11.7275080744
    -13.7601313149
     -0.0832781026
     13.5338392814
     -4.8500562203
     15.1569838772
     -1.9583761118
     14.2620363541
     -0.9682297155
      4.2850535409
     10.4086077316
      5.6756384650
     10.1579945253
     -0.7868466880
    -19.6994590666
     15.8445523518
    -20.5179222900
     -6.0614978541
      8.3503725554
     -8.6253096399
      4.1508757258
     -5.3438027289
     -5.3638269989
      4.5639830129
    -19.4474388444
      4.6005405991
      1.1940703159
     -1.7471313684
      6.9174299469
     -3.7336170571
     11.2767983520
     11.2691086766
    -13.6814891557
     -1.6160937323
      6.0235829862
     -1.3505916473
      3.5770212288
     16.3162110228
      0.4956040367
      2.8929154063
     -8.5269031661
    -36.1607311439
     -8.4835261709
      7.5147097571
    -24.4299139753
     -1.4548303230
    -11.1354887408
      4.5011020053
    -10.5497888385
      7.3297845818
    -37.6824568457
     -8.3833753657
     -7.2992457756
     -3.6334008074
      9.8585776501
     18.1886297763
     12.6130627593
      9.8183673081
      0.1141109063
     -0.8864983953
      8.8410764617
    -10.4728886123
     16.9209220753
      6.5665859719
     -1.9378407085
     -0.7677165870
     10.7484999275
    -16.4782198570
      3.1757205723
      5.7435312183
     -4.2765911964
      1.0590579809
     13.1957721898
     -4.3303594664
    -14.0292463477
     -8.6307275912
    -12.9583739454
    -14.2316490707
     15.6237326547
     -2.8185261077
    -15.4238644957
    -11.5788344130
      0.3881922999
     19.4796413123
      3.4250806202
    -19.3426747837
      7.4543149733
      2.0857333529
     -5.6577251021
     -0.0516872780
      2.0148607998
     -8.8932073415
     -7.2733913643
    -16.3513800457
     -1.6624560462
     14.8506071352
     -4.3782815433
     -5.4737700289
      2.9900478953
     -3.8444308854
     -0.8050271074
    -22.1201944807
     -8.0951615736
      3.1353112397
     16.2581550315
     33.7832633653
      6.1204698766
      0.9927422086
     11.8687184884
    -12.9413779603
     13.4259853043
     -6.7531879313
    -10.0289063553
    -10.3255637827
     10.8852074139
      6.0234159674
     -2.3324332664
     12.1949094799
    -13.9638908827
      8.4633886232
     11.1062982279
    -12.7828561045
    -10.4440888076
     -8.4935856732
      8.3739595619
     -3.6832188482
     -3.1533246875
     -7.3720344623
     25.2227480232
    -12.2804660369
      6.0615703477
     14.2768490594
    -13.6299940641
      1.5117935306
    -15.8635997475
     -3.6655417379
     10.0753946489
     -0.3053996991
    -16.2820867494
      6.8751809130
    -10.1063483774
     -6.5203149490
      4.3478404692
    -21.6407030076
    -18.4100381677
      4.4437718641
    -32.2363345282
    -35.9156854099
    -17.6039022678
    -13.3700883887
    -21.6926631147
    -18.1063433426
      2.3441940348
      3.6085368112
     -5.0360329304
    -37.3020660302
     15.1460581852
     14.5746937709
     18.2284165578
     -3.5807083142
     -8.6011239733
      3.9956546413
     -2.2342307007
      1.7150181842
     -2.1472892657
     -5.0974913464
     -1.1002523729
    -13.4221180816
      4.2100635457
     20.3741119111
      9.7635765693
    -11.7532104862
     10.3383711575
      5.1320056695
    -22.2967940862
    -14.0260765197
    -15.5418695083
    -14.4079178462
      4.9719645662
     -3.1156566474
     10.4992660491
      5.9066920521
     17.5980498143
     15.3568643002
     22.4715398915
     28.6373623894
      8.2034010383
      5.8386218513
      5.3220207559
     13.0916106449
     25.2644765864
      7.3834199185
     -3.6451748998
     -8.0950032163
     29.5093157600
     -3.9438747530
      3.9567030085
     16.9087217715
     21.5082897411
     22.2779670728
      7.2682025424
     -9.6841268869
     -7.6267391811
    -12.3892160732
     -0.1231708518
    -14.6644237106
    -11.0971575177
     31.3254686919
     -1.9908094036
    -20.4348370812
     16.5017654780
     -9.1931968195
    -15.7364036048
      5.0743569086
      1.5808679390
      0.1985799016
     10.6449556447
     13.2921392188
     -8.9053510016
     16.9049425912
     22.1906858215
     14.3193544017
      8.1808677046
    -24.2378967975
     10.9883873885
      4.4097185038
      7.1606426435
      2.5034514390
     -0.8281626389
     -3.3084319689
     -3.5422207469
     -2.9680937741
     -2.3820397545
     -2.2074243424
     -1.6730387206
     -6.2317372116
     -2.1506919441
     -3.6505896312
      4.2154206021
      7.3758144665
      2.7072609344
     -6.1027514209
      7.2721938103
     -0.8349431544
     -1.4981514041
     -7.1290283445
     -9.5895817516
     -4.6438784897
     -4.7250406639
     -4.1182303966
     -0.6391849803
      5.2952576294
      1.5079411503
     -1.6744053515
      3.3545478100
      3.9422757429
      6.7575864684
      1.7537573225
     -1.4472773920
     11.8496791364
     -6.4783012676
      6.9589975690
      0.4701064127
      8.2228651414
     10.4966899858
      9.1265309446
     -4.1641560600
     -9.0053443852
     -3.0632469368
     17.5369948954
     13.9407119783
    -11.9143514202
      2.8468590605
     -5.6113055791
     -1.7385971749
      1.8375267037
     -1.9859481226
     16.7302707132
     -0.1053694016
    -21.7897010269
     -2.5663329487
     -2.9570125466
     -4.6594282175
     19.4234119453
     -5.9071195313
    -11.9623385330
     11.1005612182
     -5.7765413668
      1.5963918376
      4.8695239438
      3.7412809168
     -7.3947409904
     11.9187964616
     -9.7131275516
     -0.7665243554
     10.2320164322
    -10.8768969092
      3.1994638337
     -5.0212301926
      7.0437884903
     -7.2175957055
      9.0300691089
     -2.6190457842
     -2.9560726797
      3.3277125187
     10.1165474024
     10.2451807363
     -4.4637605066
     -9.7880754115
     28.7770988125
      2.3059822336
     -0.1645223688
    -13.8237332952
     -7.8267131182
     22.6794510338
      0.3943707628
      7.8377933009
     12.3698163010
    -10.9372943517
     -1.7154485577
     -1.2653220942
    -14.4094167968
     -0.0557358225
      9.3938352480
      7.7920503516
     -2.0251851099
      5.6542613314
      2.1142493452
      1.8916608428
    -18.5436766410
      9.7068683521
     13.7762920092
      1.8875176588
      8.1242124453
      9.7061098017
      2.2559313912
     -0.8953673375
     -1.9857756871
      2.0729141725
     -1.4738534994
      8.2346324512
      3.7119218270
     -7.1555829835
    -15.0132902623
      3.9209293460
      8.7543795027
     -3.2904869371
     -4.2059181223
     -6.0350614252
     -1.7699699190
      1.1136528626
     -3.0371732402
     -3.3239151658
      3.7145079802
      3.1097349533
     -3.8764595915
      5.1957865312
     16.4719996390
     -3.4259046374
     -5.1089479860
     11.4448919605
    -10.8057516193
     -0.2657288072
      3.4024499354
     -4.7033813866
      5.6441487740
    -10.0817152804
     12.7690231713
     22.2699175924
     15.1624048174
      2.4575008591
     10.3332770937
      0.8650100036
     -1.8180930606
      5.8916242388
     -8.9442598178
     -2.1936080023
    -10.8248317136
      4.5022155602
    -21.1420003180
     15.5489775808
      1.0125204416
      9.2875535277
      1.6368080534
    -22.0994270625
     20.0597127993
      2.9171356843
    -16.5171660090
      3.7783746406
     30.8053230325
     11.5282272869
     35.3446053226
     15.5857031925
    -23.3823220593
     19.2690240656
     11.7572861921
    -12.2808551437
     -2.2182821359
    -12.2184005963
     24.6237225695
     17.5067275072
      3.9101267008
    -10.6721064610
      5.7345408345
     22.9988128406
      4.4774716636
     11.4174841913
      0.5408464400
     -7.7491002482
      4.4748652668
      1.9175803059
      0.3219260554
      4.0807468798
     -0.1665371778
    -12.9863785326
     -9.8087750616
      4.6084291816
     -5.0755537545
     -4.6476963028
     -3.8537854335
      0.7741203976
     -2.2971865746
      3.7384228096
      1.0060308710
     -0.5371738077
    -14.5953362736
    -10.0715788168
     11.0385902176
      0.4122540764
     -9.8726193069
      7.4290272457
      1.4537391583
     -1.1415365564
     -2.0533395899
     26.5498626014
    -18.8687366659
     12.8173672098
      5.4305036027
     10.4436569086
      5.3968670633
      5.1643807144
     -4.0045700695
      5.7031435262
     -6.4936970559
     -4.7488285870
     17.0932166379
     -0.5289318489
      3.9613711254
      7.6688179813
      7.9160017195
      3.9735844846
    -15.1881114638
      5.5461497051
     16.0044210323
     10.5445830216
      3.7185487746
      8.3516743629
      0.2004014730
      6.1900339929
     -6.7180299880
     -0.3950150863
     -3.6697368542
      8.1199703013
    -14.6623565586
     -3.9794664112
      9.6310153919
      1.5319547522
      4.3733979500
     -0.6336605079
     10.7740427186
      8.2852638158
     10.2788751164
     13.9076822276
     -4.3896357206
     15.7090938242
    -12.8150920401
     -0.9589539629
     -8.3722602262
    -13.6264448382
     -5.9102567069
      9.5418860773
      8.4234000703
     -5.2890781537
     -6.6083760250
     17.6586993980
      4.4449976554
      5.3862212590
      4.4710869788
      2.5928015305
     -1.9653286550
      0.8316905623
      7.7577739799
      0.8569061294
     12.9928655671
      6.5583415272
      7.8459927625
      6.0399750128
    -11.2859369516
      6.4625325922
    -10.6294301295
      7.5375071987
     -2.9755059464
     -3.3718463305
     13.8514580420
     -4.0357818524
      3.6050657483
     -4.1859257076
     -4.3232446001
     -6.0543365152
     -1.4498753052
     -2.0777831655
      0.8946496281
      5.1124650593
      0.3112018124
    -21.6008882589
    -22.1109855118
     -0.9262254207
     -2.5317264028
     -7.9843766996
    -15.9881268744
      0.5894411888
     -8.1415412645
     -9.8782562731
      5.9535478725
      8.5788402551
     -2.0599940449
      1.5257750467
     12.0274404973
     -5.9077993533
     -9.0814481941
     -7.1410842759
     -5.8196098716
    -16.0690687596
      2.7769740184
     -8.7845615037
    -10.4183264538
     -0.3062242758
    -13.1924417237
     17.3034255043
      3.9542357255
    -21.0655965147
      1.4438847471
     25.3689766981
     -6.7288882541
      7.5287512401
    -17.5275002633
     -9.5723546302
    -12.2433732628
     -3.1873127852
     -1.4545883023
      7.4990010729
     -4.7069236946
    -32.2628467003
    -14.9273903403
     15.0430474844
     -8.0730574185
     -9.3316934397
     22.8725468223
      5.9083638910
      6.6112489984
     -5.0038564959
     -7.2302338639
      8.6908244548
     13.1028994283
      4.5289601885
    -10.6253272628
     13.6284296158
     15.2332940506
     20.3910527501
     18.1138098818
     18.3949663595
      8.9427785635
     -1.1884402577
    -13.8171293358
     -9.0978423660
     44.8758064524
     -5.1131198757
     -5.1952904105
      1.8848441485
     -0.5401047218
      8.1070040636
     11.6968362034
     10.5047018326
     -0.1314268903
    -17.9505931874
     -2.5404846883
     22.0161020217
      1.9297656094
    -21.2209705502
     -0.8341654487
      3.6050100852
      6.2632608321
     -1.8080931303
      8.8945420528
      3.4591980087
     -4.3094127476
      5.8395195378
     15.8469230272
    -21.4027204400
     -8.0155176066
    -14.7379393825
    -13.7730317671
      0.8915995753
     11.8360722638
    -10.6857509123
     -2.9568194000
     -7.2212199451
    -10.8170590769
     -3.0935711227
     -2.9841373517
    -23.1195231564
    -18.8292007698
     -9.2079834107
      4.0880690085
    -12.3790778996
      0.3734968550
    -14.9846521090
      7.5279932528
     31.6525438622
      5.3778019036
    -21.6309177703
     -0.1764251445
     -0.1835037766
     -3.2586933482
    -17.1320558472
     -8.2970513493
      6.0004889871
      6.9665635957
      2.3398486049
     -9.2137476740
      3.6123054178
      2.3457037835
    -24.7598782400
     -5.1638023919
     -8.8891813242
      5.3210136062
     11.9821950869
     -4.9472814096
     -2.1066576008
      6.2792326662
      1.8405711881
     21.2941178205
     -7.1584898875
     15.3564888251
     -5.7894711971
      2.4170820815
     -8.2201940425
      2.7698372611
     -4.0314179824
     -6.1508510491
     -1.4819616356
      4.0070715549
     -2.9990296367
      2.7500737703
     13.2800276200
     -1.3089839449
      5.5630968004
     -4.8473443639
     17.1685458161
     11.1131504535
     -2.2776303814
      2.4578012192
    -14.6559957174
      7.4338842706
     -3.8504370151
    -12.9827236917
     -4.9692771671
     -2.7604830237
      2.0529026728
      1.9905395488
     -4.1875373796
     16.5653810946
      9.8233377574
      8.1112936966
     15.8532559158
      6.1577359259
      5.0890747472
     -9.8976194691
     -0.3623176762
    -22.8627981022
     17.8860932766
      2.9025614648
    -17.7692498710
     -8.6646858646
    -21.4855970445
     -6.5735422911
     -0.7193602765
     -4.5508042420
    -21.0272581308
    -24.9326265126
     28.4904244677
    -11.4543726436
     -2.2264167665
    -10.8882204231
    -24.7735226796
      5.5055568782
     -3.5125790245
      1.9914149553
      6.0039886159
      4.5079782728
     18.3498323221
     -5.1324508892
     13.0255024400
     -5.0240794997
    -15.3592572791
      7.4379540551
    -28.4883992130
     -9.6131428139
    -24.6629637572
    -14.9912767001
      4.5273947724
    -13.1619895592
      8.7745309623
      8.3611504015
      1.7558490417
    -11.0506753698
     -2.6905642389
    -15.3099435625
     -9.3341082364
     -1.4513581158
      2.6198921596
     10.8359871253
     16.0857402300
      6.5552912287
     12.6443077266
    -15.6303274906
    -19.6716422156
      0.0262620560
    -21.5745362408
     -8.8204662033
    -12.2820811156
     15.6279522813
     14.8414858319
    -14.2481763865
    -22.6265279038
      9.4146695631
      1.8357812481
     -9.3544436110
      0.4316123331
      9.6798239325
     20.9810584467
     31.0063873892
      2.8609692044
     13.8614991746
      2.0055946730
    -25.1117838402
     13.0378814053
     -4.0601337298
    -10.5795605154
    -12.8186717495
     14.2347436240
    -29.4576684914
     12.3989334056
    -10.6743479361
      0.3605459747
      4.5063301526
    -11.0892870175
      1.2509745859
     17.1007622740
     11.3100680823
    -13.9734167338
     -0.1967107925
      9.0081415336
      7.4731311169
    -35.3237078508
     -7.0489439012
     14.9709694271
      7.1375068770
     -8.4350654028
     -7.5950028208
    -21.8500167171
     10.6406071164
      2.9057488130
     -6.9570391589
    -17.2343520402
    -26.8556491618
     -9.5911401902
    -21.2030643956
     17.2606574893
      1.1900151317
    -34.6494103190
     -9.3434936126
     -7.1015729449
     21.1384387946
    -14.0136729108
    -24.4926117795
    -13.8305935279
      4.3570936638
      6.9469107064
     -5.6939145224
     -3.5707096053
     -5.8528160121
      1.2364457901
      6.9710207060
     -9.1059012154
    -15.3524197064
      1.6845729619
      0.0095316487
      4.4166107342
     -6.6241831170
      7.4885711513
     -6.2285957789
      1.7161413600
     -2.6283722492
      6.6280959537
     -1.0380738147
     -3.4693197129
      4.8947604382
     -3.1400940639
    -23.0535090501
    -10.5244652845
     -6.9614027844
    -25.9003520788
      4.8559097655
     -0.2553208925
    -11.2226625066
    -14.8489930481
     -9.3036554709
     21.5795544479
      3.0060051526
    -12.7609525892
     14.8944056889
     -1.9993914759
     -3.2834198324
     -2.6806826438
     -1.1503339850
      1.0303964736
      1.5603001660
      7.7850974734
     -2.1487177399
     -1.4098866901
      6.0217112878
     -1.6411975838
     -5.3113095859
      0.4453630308
     -3.8363241751
      5.8895958401
      8.8677717990
     -5.4946713948
     12.3525727095
     -3.7280347113
      3.7694632442
      0.4706056987
     -8.5638021094
      7.6548655537
     -4.4863076657
     -7.1144557636
     -3.0723996285
     -5.0402583352
      4.7175188320
      3.2538834255
     10.0493656969
     -1.5432601700
    -12.4019411351
    -12.0623053727
     -6.5664399710
     -7.3793016220
      8.4623951985
     -4.7380851384
     -1.2443200104
      2.7049537543
     -0.5593581321
      2.1169227103
     -4.8603533428
     10.0824389646
      9.9962010714
      1.9503957474
      6.4442443617
     -3.0234584980
     -2.8540597071
      0.1254350716
      1.0810390381
    -12.9418441861
     -5.0401715010
      2.7938826843
      4.6533557956
      6.9176522963
     -1.1356342113
      2.9817520238
     -3.3344393771
      4.6947293902
     -7.8694298935
      1.5301654216
     16.6771872976
     -1.7036996631
     -2.7190296301
      3.5553404748
      4.0188706952
      0.1074007901
    -14.9929593508
     15.7538992136
      6.7822353814
     -3.3624544393
     12.9644022582
     -1.8260058391
      2.2570959714
     -5.8468157452
     -4.7895298006
      0.4095451808
      2.1355200217
     -6.9406332606
     -7.4927534900
      7.6119756627
     -1.0911100811
    -14.5214997989
     -2.7959982696
     -9.8976915771
     -9.7117914301
      1.3931612240
    -10.1955860837
    -17.4045219233
      8.0797393988
     -8.3619403087
      4.0191449569
     -9.4549103704
     12.2233783937
      1.2587603096
      2.6989092429
     -0.2555377879
    -10.6427266432
      7.2158569475
     -2.5183284749
     -4.3713492789
      4.9743318921
     14.9606437816
     -5.2932363504
     31.0978271352
     17.7806974192
    -35.0633156293
      2.5909345709
    -31.7307648166
      8.4302969106
     -8.9464442469
     21.0110473187
     18.8047120144
     41.1352939029
     -7.6880360496
    -25.1654399752
     -1.3258350466
     17.6203372896
     -1.6299792473
    -18.1056427862
     61.6262729054
      9.0804375212
     23.7812306958
      8.3484886580
     20.2395843575
      7.5875191756
      1.4677063848
     10.4574546453
    -18.9145253146
      8.6865341960
     27.2097981988
    -16.2697011177
     21.1026261784
     30.9039108621
     24.0432984940
     28.7435531101
    -40.1455022232
    -33.0674489610
     22.8208246810
      1.7116385812
      7.6418250339
     -9.6618710388
    -11.3280241999
     -5.5107486184
    -12.0702846721
     -2.5430831973
     -3.9207645554
     -3.2911647791
      3.4378818002
     -6.2270015670
      0.5496772840
      6.6319655175
     -8.6743642563
    -14.4619952401
     -4.0530154607
     12.1444702482
      0.6144028338
    -18.8000041414
      1.4871270579
      2.9542138634
      3.9337057775
     18.1694988646
      3.7769319814
     -3.3774204355
     12.9926299460
      5.1403398425
      2.2727661784
      1.5524847600
     -0.1551913697
    -15.3073896641
      1.3411133755
      1.1053473077
      1.2033125158
      2.0965430704
     -4.2743032793
      5.0961915116
      1.9524261900
     -2.0796921056
      2.3406260608
     -4.3558708867
      3.2312363467
     -8.6488748428
      4.1634139077
     -3.1533199228
      6.0533654412
      2.9335941046
      0.0730696336
     -2.2001157207
      0.3895661708
      4.9981416739
     -9.8185407027
     -4.6727792538
      5.6086536973
      3.8396495374
      1.8133318112
     -1.3521069815
     -6.0073704117
     -1.1067783016
      0.3152387177
     -9.9071359610
     -7.3331480286
     -5.4344427386
      4.3730613928
     -6.2598743311
     -3.0456675826
     -3.8514639856
      3.8604348199
      3.4684546583
     -3.0515461168
      0.1417081439
      3.3450234500
     -1.9779800514
      0.4206893441
      6.4910226631
     -0.0359396126
     -3.2276180641
      1.0531938957
     -1.8436399346
     -3.5194852645
     -1.5522361534
      2.0169379578
      1.1557715893
      1.3093527737
      0.8536411647
      2.1388783972
      0.8818982873
     -3.3832678265
     -2.9901505193
      2.0445731820
      0.6506690871
      4.4481178140
     -1.9143812165
     -3.7095544968
      0.9098762370
     -2.4195009893
      0.0897129687
     -3.4723231487
     -1.9769187794
      2.7450370478
      1.7795840093
     -3.2807269719
      0.6402670403
     -0.3448381435
      1.3146377826
     -3.9958251660
