     -0.8879210619
     -2.2883490300
      0.4162046657
     -1.6189285101
     -0.4868493938
      3.5200902388
     -0.2994749420
      0.0874280589
      1.0735168733
     -5.3853982159
      4.3497250800
     -0.9742779555
     -2.2346842473
      1.5204388707
     -1.9148933135
     -0.6619787188
     -1.4580442748
      1.0912103127
     -0.8993071412
     -1.0748664757
     -3.3290712594
     -3.3198043676
     -0.9108060908
      0.4667035853
      0.8041575670
     -1.0868438316
      3.3704417983
      0.3805264032
     -2.0140901238
      0.6116912271
      1.4159312153
     -0.7066519602
     -3.4124661421
     -0.2977604339
      0.9587117247
     -0.0888177304
      3.1539179477
     -0.0540199272
      2.0961095057
      1.2755014353
     -4.7514177992
      0.5042110821
      0.6232864787
     -1.5573706791
      4.1626367321
     -5.1572791276
      4.6177075037
      1.7607131194
     -2.9643791535
      1.1235511457
      0.3183747857
     -0.7586555050
     -2.5757484759
      0.0544987242
      2.4785157772
      3.5354448041
      4.0373277003
      0.6060659745
     -0.4555316797
     -0.8036604033
      1.7303581147
     -0.9653487322
     -1.8016511992
      2.3830442740
      0.5491399665
     -3.5080558889
     -0.3238471899
      2.9819007830
     -1.8332034628
     -1.6032272035
      0.7215171205
      2.2877214244
      1.7808416365
      0.9583175660
     -0.7086167277
     -3.6687205829
     -0.2170256689
      1.8262944497
     -1.3691725049
      1.9488369853
     -0.6986374963
      2.0287804611
      6.7999187282
     -1.7158828251
      1.1625383169
     -0.1702460463
     -1.5844934772
     -1.5007610993
      1.0935562040
     -1.6786325602
      2.7917927214
     -0.0526597623
      1.5569976840
      0.8218310386
      0.4294364444
      0.8491106491
     -6.8276736514
     -0.1356503366
      1.1198128949
     -1.6849299667
     -1.2579564675
      1.7675122408
      1.9243050966
      0.0423944205
      0.3071804116
      1.4992337826
     -3.2838241015
      0.2686771976
      0.5407856104
     -2.5769124572
      1.3232942080
     -0.3748320529
     -3.1520417860
      1.8536027393
     -2.9871562005
      5.8329432644
     -2.5944877286
     -4.4313774864
      1.9936921702
      1.4375413742
     -1.0471475303
      1.9118082467
      1.2653833455
      1.3424818848
      0.9412045075
      0.1641892344
      1.0499083989
     -2.9390535632
     -0.6363968863
      2.0412095177
     -1.8407628019
      1.2610606038
      3.9880918299
     -2.6383891918
      0.4250060103
      5.5155795060
      2.4946691940
     -2.4576143796
      1.3301827070
     -0.0686989736
      0.1391795459
      0.5297206862
     -1.9794899761
     -1.1199027143
     -0.0062119599
      1.3161262593
     -0.1026037010
     -0.5853821173
     -0.1713878191
     -2.2763686384
      0.3063108843
     -1.6541482991
     -0.0237474842
      1.9345170780
     -0.5590366370
      2.3577546484
     -0.9743907603
     -3.9965416221
     -0.4848447494
     -2.3517591354
     -0.0227703613
     -0.3006544449
     -2.1855181058
     -2.1712022467
     -5.1345304999
      0.2770188872
      0.8162103709
     -2.0598066331
      1.7088587074
      0.4455502127
      0.0132264262
     -0.5700436191
     -0.1238679667
      1.5783084129
     -1.6701858562
     -2.4842389697
      0.1136126844
     -0.3544911890
      1.9957620004
      1.2215335979
      0.6673155640
      1.5284835051
      2.7914867686
      3.6014797348
      2.1029239338
     -2.4047633008
      2.1283385065
      2.6078081137
     -1.5426392829
      0.7985095435
     -0.1819373473
     -1.4373195488
      2.3274605557
      2.4421188724
      0.6337677083
     -1.0809825587
      1.0062724085
     -0.3314197337
      0.3067094211
      1.8829471386
      0.9196762225
      1.3908525537
     -1.3442639951
      1.0515191361
     -0.0374522509
     -0.9332278968
     -2.2291156418
      0.9920066850
     -1.4120030136
      2.2795433769
     -0.0762044091
      0.1536293171
      0.2992449900
     -0.0729454978
     -0.8948304467
     -0.7714979925
      0.5493743400
     -0.5201927827
     -0.4046515613
     -0.6490912140
      1.2857859287
      1.0707993094
     -1.4269231933
      0.4702231928
      0.0078954695
      1.0590453843
     -3.6270675730
      0.6749026219
     -0.4791528514
      0.8383647920
     -1.7248972496
      0.6128422955
     -1.3296766672
     -0.6704051156
     -0.0349224325
      0.1719979000
     -0.6346995603
     -0.4091487303
      0.9580956129
     -0.1004449828
     -0.6785847399
      1.6242732232
      0.8557666049
      0.4837567627
     -0.3725803472
     -0.5043126605
     -0.7889961394
      0.4794673703
     -0.4192954454
      1.0874582862
      0.0792098037
      0.1667488939
      0.3577463669
     -0.6333834991
     -0.0271773453
      1.5412460617
     -0.9888301844
      1.4955854943
      0.6438540132
      0.4699677941
      0.3719590602
     -1.6432787953
      0.4098238285
     -0.3789251723
     -0.8459275832
     -0.4693408035
      0.0611263788
      1.3172200152
      0.3506678471
      0.0646770357
      0.5211793390
      1.0541386099
      0.1707957817
     -0.7090982847
     -1.4532134824
     -1.1178964995
      0.7356073415
      0.7178540767
      0.0184215782
     -0.1213563811
     -0.0495602657
     -0.7910865538
     -0.0031686925
     -1.1462542037
     -0.5194581451
     -0.6800111615
     -0.3295706117
      0.3540337807
      0.3161076051
     -0.1062978069
     -2.3253012562
     -0.5764166101
      1.0037036527
      0.6001569061
      0.0066726104
     -0.0616436818
      2.7464681611
      0.1445255710
      0.3552330568
     -0.7012269236
     -0.3445871435
      0.2792145042
     -0.4826464453
     -0.0320323415
      0.5204228956
     -0.7822126324
     -0.6798371553
     -0.1373347620
     -0.1541031194
      0.5186679629
     -0.5587958745
     -0.6177843409
      0.5738018865
      0.6416597420
      0.4673505836
      1.1331979511
      0.4889635441
      0.0051515855
      0.0902437577
     -0.1309388213
     -0.3559004529
      0.2717104811
     -0.3866130553
     -0.0650444123
      1.2242365098
      0.2227296151
     -0.0983795344
      0.0089994448
      0.2738915333
      0.1520699907
     -0.2016021510
      0.4134293509
     -0.2357531440
      0.0271259024
      0.0149299944
      0.2050520845
     -0.0216000566
     -0.1000950647
     -0.0654501628
     -0.2453688003
      0.1305929371
     -0.9106179300
      0.7675143211
      0.1345400581
      0.9029144533
      1.5032308599
      0.5763374131
      0.1664643427
     -0.2472592622
      0.0788022832
      1.2016375925
      0.8406878317
     -0.8871922171
      1.6821434062
     -1.8623374068
     -0.4094476661
     -0.1075005194
     -1.2876725792
      1.4416243469
      1.2631599635
      2.3977262482
      2.3339055743
     -2.8474751145
     -1.6195900484
     -1.7304633286
     -0.3688807089
     -0.4895980604
     -0.9102678158
      0.2371570924
      1.9423437344
      0.9565730721
     -0.4074680071
     -0.7879375070
     -1.2551074161
      0.9887599385
      0.1349596950
     -0.2042320160
     -0.7456607200
      1.4644932956
      1.2910105071
      2.0224551169
     -1.2002722011
     -1.0703949184
     -1.9516413479
     -0.2686309531
      0.2280798095
      1.1116444546
      0.2577959484
      0.9323142400
     -0.4904005301
     -1.1583600396
     -0.3705669614
      0.2967650017
      0.9639341999
      1.5948693319
      0.2142635423
      1.9584387025
      0.1050970134
     -2.5063649236
      0.4377847350
     -0.0270296897
     -1.4495408534
     -1.8555370594
      0.0684321342
      1.3560460508
      2.3008101695
      0.6393703296
      1.0154250111
     -1.6137378037
     -2.3293166278
      0.8324103090
     -1.3390965978
     -0.9090995055
     -0.2189690439
      1.7408883574
     -0.2976875396
      1.5668792808
      0.6428865636
     -0.2863957579
     -0.3835753153
     -1.3746275087
     -1.3396016062
     -1.7479811161
     -1.8566530204
      0.9588854155
      3.9341266781
     -0.4866195629
      0.1699934682
     -1.1782721424
     -2.9623953358
     -2.3133661548
     -5.8742439301
      0.1246974503
      2.6284411904
     -0.7069507079
      1.0858839858
      0.6478393628
      3.7575150399
     -0.5518880553
     -1.7992934109
     -4.2347012967
      0.1808126831
      0.2615673058
      0.5064334071
      2.3541974174
     -0.6858643485
      2.9433924807
     -0.5239338085
      0.8163708493
     -3.7774488532
     -1.7379565495
     -2.2738859101
      0.7786023442
      1.9707044380
     -0.4902412536
     -0.2912119583
     -2.2780484024
      0.9006347779
     -0.7187157574
     -0.0212662490
      0.3118706425
     -0.0942670808
      0.8012850418
      0.1420944274
      3.1073236543
      1.5193284350
      0.1897469895
     -1.8286458265
      2.1553049816
      7.5013978213
     -3.9290989622
      3.0318639828
      5.2812421957
      1.9055497906
      1.2099778322
     -2.7456411008
      0.9451155535
     -4.2902333165
     -1.2959736843
      0.8357317677
      0.8612512592
     -1.8208396161
      0.6933947487
     -6.4178556439
      0.6237468436
      1.2989374481
      0.2020344242
     -1.1148123725
     -0.2756874724
      0.6910551148
     -0.5946192898
      2.9383951137
     -0.7379204053
     -1.0554323674
     -2.1479086682
     -0.1466442008
     -1.6036465366
     -0.1839525467
     -4.7881644455
     -1.4927737392
     -6.2408680453
     -3.1700106191
      3.6567698496
     -1.2667692048
     -1.5345694035
      2.0767063535
      1.5160117871
     -4.6316356384
     -2.5128335514
     -2.6824418687
      1.4688813151
     -0.5231615601
      3.9293808786
      2.2941558842
     -4.8835393037
      0.0633090745
     -0.3103142641
     -2.0492850426
      2.0409542391
      0.5812755841
     -3.8340602541
      1.2758263827
      1.3017487293
      0.5629242461
      0.0640160341
      1.1077655689
      1.9908634470
     -0.6353440869
      0.6775086153
      2.1083914559
      2.3201686393
      2.3690745215
     -1.7018723706
      2.0564051710
      2.5389711777
      3.3894676868
      0.8155850047
     -8.9011386437
      1.2871990766
     -2.4711604689
     -0.6455586375
      4.4751733195
      1.6989956069
     -4.1227802550
      3.5662543571
     -0.1167503553
     -3.0683567289
      3.9723466091
      3.1301285455
      2.5313887522
     -0.9116559056
      3.1425534038
      4.4086119558
      1.5895067359
     -3.3626128761
      0.6760265969
     -1.1500781679
     -1.8420860351
      0.1929159270
      2.2532647848
     -0.1249840277
     -0.6432789070
      0.4149248441
      0.1881591422
     -0.5495738516
     -1.6499208742
      0.1728759032
     -0.0607881848
     -0.5643281034
     -0.3900227444
     -1.2573613246
      2.4911397748
      0.8446489738
     -1.1013234092
     -1.8930472525
      0.9253435228
     -3.3725154228
     -1.9139803748
      0.8232291402
      0.0839402217
      0.9710472628
     -0.0391147639
     -3.9442257328
     -0.6965878428
     -1.1956609106
      0.2064349761
     -2.6591672069
     -1.8013716653
      1.0522070019
      2.3073265604
      0.4351395505
      0.6750611168
      0.0069437354
     -1.1115880720
     -1.3342114619
     -1.0490396017
      0.2879542858
      0.2753156303
      1.1383159117
      0.3403404694
      0.3841746860
      1.6855352578
     -2.1351667289
     -0.9886050899
     -0.4603102102
     -0.9164781972
     -0.6012127504
      0.3856214702
     -2.2408192701
     -0.7727301473
      1.0371213210
     -4.0503495960
     -1.4129024749
     -0.7610409624
     -2.0372365748
     -0.0781898577
      0.5254462054
      1.5654817867
     -2.3603003644
      0.8307059789
      0.8116152550
     -1.4404170486
     -2.1401357124
      2.3473891978
     -0.9682865143
      0.3472888715
     -0.6352639460
      1.0731149744
     -0.7751535155
      1.9293864657
      1.6626359892
      0.7932015173
      0.9463930115
      0.1231931323
     -0.7120520963
     -0.5105779716
      0.5639701079
      1.1963995784
      0.6744453435
     -1.0992613478
      0.7557868383
      0.8161484051
     -0.3374367544
      2.2661910809
     -4.4477169918
      0.1495225385
      1.7990461766
     -0.0576728850
     -0.3286781521
      3.3216136353
      0.4709745710
     -1.1504273741
      0.3383760611
     -0.7822663968
      0.4378080364
      0.5592075955
      2.6891406958
      1.4227980205
      0.9066660678
     -0.2306883291
      0.5008914034
      0.3501806260
      0.2602598297
      0.5445755758
     -1.3003195623
      0.1941958101
     -2.0773827272
      0.2686674130
     -0.8196508852
      0.1606140358
     -2.4706234852
     -3.6496288627
      1.2130991082
      0.1068241499
     -1.4987625951
     -1.0246203776
      0.9437590347
      4.0602031466
     -1.7759190612
      2.5033157092
     -1.4999620081
      1.1992676639
      0.7616736818
      2.4570866256
     -1.5808237635
      0.5381820506
      1.4392339183
     -0.3621247767
     -0.1944107310
     -0.3794532158
     -1.8646001392
     -0.8938124820
      0.2290105659
     -1.5382462293
     -0.5203088032
      0.8438408541
      0.7285271461
     -0.4933071880
      0.3957413732
     -2.2856107794
     -0.4231006088
      0.6450977463
     -0.1105542680
     -0.4160597876
      0.7658366398
      0.6626137894
     -0.1831348013
      0.7370829131
      0.2677302391
      0.4079158106
      1.0247468558
      0.0598322804
      0.0092859586
      0.4732983427
      0.8979579254
     -0.0606666288
     -0.1162140866
      0.0317678946
     -0.4170848537
      0.4319113036
      0.3497097068
     -0.6276558078
     -0.2201691159
     -1.0694431110
     -0.2525950231
     -0.9946461744
      0.8738317688
      0.2118797656
     -0.5867370485
      1.3267943712
      0.0777387624
     -0.0176298901
     -0.5195353664
     -0.0140231531
      0.4119424073
      0.2681812061
     -0.6138822418
      0.1942090312
     -0.0658083198
     -0.5301524424
      0.7162507357
     -0.3993342788
     -0.3178506138
      0.6620732073
      1.0544447296
     -0.1810911543
     -2.2949174598
     -2.4550580355
      1.3394411375
      0.5706905417
     -0.1028465882
     -1.6400984972
      0.2896664778
      0.0473549079
     -1.6197968441
     -0.8650872985
     -0.1169389257
     -0.1734593535
     -0.8536853765
      1.4288620439
      2.7257881321
      0.4322479011
      0.6723026506
     -0.1822591498
      0.4638242096
      0.4107317908
     -0.0457587841
     -0.4157338546
     -0.2661790174
      0.3296232870
     -0.0890416198
     -0.8550942776
      0.0756377627
     -0.5987139270
     -1.6481575268
     -1.1657305619
      0.2257813498
     -0.2943931128
     -0.8116324150
      1.6762460463
     -2.0724290527
     -1.0314532441
     -1.9725570844
      1.3432944766
      1.0258197706
      0.0325270058
     -2.5110333937
      0.8563565650
      0.1317423144
     -1.1156172862
     -0.5240092344
      1.4746013552
     -1.0657402742
     -1.1628184350
      1.5261417719
      1.3533285913
      1.5152672907
      0.0355401496
     -0.6026157829
     -1.8486004437
      0.8986576668
      0.7372290934
      0.8418329193
     -0.4461045091
     -0.4534710191
      1.9585870488
     -0.0732573962
      0.6345028327
      1.7800903944
      0.2361606592
      1.9360090267
      0.9062783608
      2.4798593083
      0.4448550745
      1.0578417965
      0.7341266042
      0.3960226887
     -0.7870574073
     -0.2415198182
      1.2513080592
     -0.4082500438
     -2.4581104199
      0.2455370895
      0.4593675436
      0.2897112057
      0.6700841555
      1.3471460117
     -0.0000718796
      0.7779124131
     -0.3827339189
     -0.7097841873
      0.0115424833
     -0.6396123279
     -0.4585447431
     -0.0538693798
      1.9556832403
     -3.6938179486
      0.7594362776
     -1.6703402421
      0.1677708746
     -0.8606308873
     -0.7627360590
      0.5667897316
     -1.8001945703
     -1.1517897502
     -1.9897201621
     -2.7352472013
     -0.3481946039
     -0.1176427985
     -0.4054153610
      1.9308642045
      0.3461847507
     -0.4705163718
     -1.1391882431
      2.6683023563
     -0.4099590858
     -0.6301215747
     -0.6185514454
     -0.0793460279
      0.3349256552
     -1.4311611464
      0.2510280864
     -1.0526568955
     -0.7252128365
      0.0556978761
     -1.0743547433
     -0.9009926801
      1.5808291038
      0.3657638457
     -0.6563874671
     -0.4592877754
     -1.3754201359
     -0.5354838090
      0.7075639164
      0.6355544388
     -1.3072544123
      0.4657940661
     -0.2790575352
     -1.6834890941
     -0.7211030751
      1.4855371837
      1.0397567298
     -3.2428106064
      1.9968450336
      0.8901478678
     -0.9144410721
     -0.5736115032
     -0.1823018043
      0.1362200195
      2.5655027746
      0.7115044820
      0.2332106693
      0.7180239837
     -0.5318568157
     -0.0832031062
     -1.6330496863
     -0.0248249219
     -0.3600467125
     -0.1747812787
      1.3550909042
      0.7329187231
     -0.0262280056
      1.7931678015
     -0.1193405020
     -0.4763182042
      0.5664237454
     -1.0500974412
     -3.3266671356
     -0.5473350911
     -0.2114232331
      0.2033368921
      1.5043634972
      0.6530871092
      0.0027670652
      1.1276405573
      1.1244807548
     -0.1103631607
      1.5013349088
      1.0899609881
      1.0840007561
      0.0040382664
      1.1327661442
     -0.2887600767
      0.6072084440
     -1.0202511053
     -0.1726773161
      1.1901566401
      1.7920298284
     -0.2387676275
      0.2148695473
      0.3286942649
     -0.1167872471
     -0.2110838084
      1.2689941673
     -0.0433137134
      0.3704812423
      0.2654091291
     -1.5101386370
     -0.1251111655
      0.7139769562
     -0.5340721789
     -0.5741447268
     -4.3107003788
      0.3406261371
     -0.4049997146
      2.4502390770
      2.4051544424
      0.9237810824
      0.9919402700
     -1.1771736118
     -2.0695960680
     -3.0849223740
     -0.7338383460
      4.7395708171
     -4.3995324916
      0.9667815459
      5.0950983204
      1.8914028732
     -0.4919944827
     -4.1379505931
     -0.6435323714
      0.7650807583
     -1.3847898133
      0.4909640899
     -0.2028909799
     -2.7523136315
     -1.7897779120
     -2.3736363931
     -3.0389133496
     -2.2770486908
      1.6133923074
     -1.5909351040
     -1.1893346140
     -1.8416982731
     -0.4973897588
      0.7255560655
      1.4844974642
      3.1618580725
     -1.9706924314
      1.2528602601
     -0.6715003826
     -1.1560216906
     -1.3891274744
      3.6273770107
      0.2835818889
      3.6365210253
      1.4665752864
     -3.2370092280
      2.3253395588
      0.8442021483
      1.1455912751
     -2.3275499084
      0.9638940529
      0.6464225399
      1.0838964784
     -0.1999479128
      2.0490231470
     -0.4027694242
     -0.6748292796
     -1.4940802706
      5.9222823817
      0.3257074078
     -0.8609268942
     -1.2562134661
      0.9345215262
      1.1002328711
      3.2091676432
      1.8136873657
     -1.4895808894
     -0.8373624708
      1.4014507742
      1.5318676995
      1.5204054046
      0.0058881392
      0.2245106131
      0.3259020878
     -1.2593029660
     -0.0803817497
      1.7159760040
      0.2459378058
     -0.8980414994
     -1.3246711303
     -0.7023778348
     -1.5052497202
     -0.9648513668
     -0.6713953659
     -0.9391199868
      0.5793214433
      1.2055956651
     -3.1821080658
      0.2233667729
      0.9045208147
     -1.4477649169
     -0.0333618304
      0.2637455479
      0.1410016284
     -0.6209463378
      0.9610739480
     -0.8929906242
     -0.9358719618
      0.9125060107
      0.3054207947
     -1.1127715403
      0.1694188520
      0.1108262909
     -0.7407229887
      1.5181712966
     -1.0623102343
     -1.8612608690
      0.7494918584
     -0.0250948853
     -0.9317454323
      0.1198609629
      1.5226702178
      0.4131947639
      1.0130875448
     -1.3955506673
      0.9480629269
     -0.6916849038
      0.9446525815
     -1.0296551309
      0.6396129251
      0.5773830198
      0.0502957380
     -1.6015045531
      0.6407821680
     -0.3667745618
     -0.7730931827
      0.1622864261
      0.0110525577
     -0.1248448932
     -0.4312777054
      1.5272845141
      0.9020442668
      0.4649620938
      0.4262858646
      1.2642395620
      0.4840642607
     -0.3014068051
     -0.2860513813
      0.7812194336
     -0.7224607878
     -2.6242787751
     -0.0425079112
     -0.9074409125
     -0.6882902354
     -0.0555768682
      0.3215914452
     -0.1180414065
      0.3048986586
      0.3446471002
     -0.8814953977
     -0.5292399478
      1.0431777179
     -0.5804128289
     -0.1732060493
     -0.5753465878
     -0.4296968914
      2.9828575688
     -2.4827219423
     -0.7444725471
      0.7891370200
     -0.4519780848
     -0.1896494266
      0.1181855552
      0.2347927503
     -0.5335472563
     -0.2614404763
     -1.4909961517
     -0.4599159205
      0.4792598737
     -0.8610420302
      0.9329494559
     -0.2680835744
      0.0275090744
     -0.9760831875
      1.1394091891
     -0.2043799222
     -0.6582674663
      0.8677771548
     -2.2635565673
      0.3576496315
     -0.6836604967
     -1.6594125716
     -0.7904082143
     -0.6788857903
      0.2569710253
     -2.7176601809
     -0.6063540377
     -2.7713457389
     -3.9070346268
      1.4594615735
      1.0472514930
     -0.2862509930
     -5.3737455329
      0.2264652214
      0.4073433706
     -1.3202881084
     -0.1319346145
      1.6232248972
     -2.1924310885
      0.4193691087
     -0.5095699869
     -1.4397054586
     -3.4628254288
      0.5995930073
     -0.9300081384
      0.3546877326
     -0.3673083520
     -2.1814480052
      0.0776631513
      5.1435411548
      3.3827340205
      2.1955727099
     -0.1603108249
      2.5319623385
      0.3239514239
     -0.0651487706
     -1.6034731197
      1.3338440465
     -2.1825319646
     -0.0876623717
     -2.3281373004
     -1.6475447710
     -0.6669743055
     -4.2114865384
      2.7122455821
      0.1794476241
     -0.2425901641
     -7.2734514808
     -0.5619811452
      2.0715484710
      1.5980648117
      0.4241619480
      0.1954982283
     -1.0506497526
     -2.1046585080
     -2.2201857808
     -1.8075234728
     -2.0226488321
      0.2671605802
     -1.8075485494
     -4.5920361574
      0.0090999513
     -1.1952617032
     -0.5074952394
      2.2041820798
     -3.6448001927
      2.8485460590
     -0.7707728941
      0.8829012516
     -1.4365284414
      0.8943105077
     -1.6080308593
      0.3131274079
      0.4858839431
      1.4309531540
     -0.0205269372
     -0.0242034845
      0.7780125559
      3.1510594468
      0.7711320138
      0.4737831213
      0.5589343798
     -1.4619656388
     -0.1225104769
     -0.1497892069
     -1.0973317473
      0.1033350324
     -0.2102145130
      0.7351753705
     -0.0917862212
      0.1828621667
      0.1932686540
     -1.0690343286
      0.2305336783
      0.2946011013
     -0.4445674013
      0.2766671468
      0.3286274235
     -0.0846748697
     -0.8880303444
      0.2761215620
      0.5268003952
      0.3153269644
     -2.0610311894
      1.1092868493
     -1.0699210593
     -0.5803299516
     -0.6083279619
     -0.0920082484
     -3.9240178555
     -0.3165950277
      0.4352836456
      1.1083691543
     -2.7405050846
      0.7777537025
     -0.9374187063
     -0.6984973227
     -2.1513789471
     -0.5530447893
     -0.1846795590
      0.5951301217
      0.1735865293
     -0.5046393726
      1.2826532182
     -1.5556925047
     -0.9776025048
     -1.6312987352
     -0.3751869836
     -0.2784863320
     -0.9683397569
      0.4439826620
      1.0080206721
     -0.0229608154
     -0.8654967031
      0.9991816045
      8.0233555732
      1.1858658617
     -1.0084109461
      1.7077746086
     -0.8301017057
      0.8210966761
     -0.0012909635
      0.1132652540
      0.6958260658
     -2.1499322213
     -1.9089516406
      5.4931694952
     -0.1673022248
      0.3627130814
      0.2169703938
      0.4961581188
      1.6223617752
      2.3973120683
     -1.3708855157
     -0.1927792806
     -0.7848796125
     -0.8541342433
      0.0116548553
      1.4919078316
      0.9497487544
     -2.8807948080
      3.5291842841
      1.1524113033
     -0.4063972522
     -2.4056449930
      0.2888385894
     -1.7683799332
     -0.6723901284
     -1.8836522529
     -3.3253843485
      1.1297204788
      1.0061829914
      0.1530946982
     -0.0452410081
      0.4568213870
     -0.3162409862
      1.8289647773
     -0.5390241569
     -0.9691231457
      0.6641972346
     -0.1037846587
      0.9597290730
     -0.4260505201
     -1.2748456585
     -2.4540652758
      0.3665981213
      2.3484573697
     -3.0100949893
      0.1930825425
     -1.4170281192
     -0.1589866764
      0.4067521131
     -0.3816110403
      1.1631289538
      0.1403058130
     -0.6416792010
     -2.5891459764
      0.8384495743
      0.8468143087
      0.6013498144
     -0.0780760630
     -1.1759128774
     -0.1882491627
      1.5018065386
     -0.3985547172
      1.8831192670
     -2.4359150042
      0.8631253920
     -0.6239824117
     -0.0902440312
      0.6079470396
     -3.4271616335
      0.1532323544
     -0.3037588156
     -0.3856061804
      1.3576704359
      2.6578108062
      0.5727926000
      0.2741714291
     -1.3241498333
     -0.9240947270
      0.6554914765
      7.7921727846
     -0.4500183269
     -2.0890049508
      1.5442821836
     -0.2050594121
     -0.2625319762
     -1.4522571842
      2.2637982494
     -0.1143835624
     -0.0203866187
      0.7198339695
     -1.2197359813
     -0.8469444720
      1.1844543859
      0.8143321707
     -0.2479046851
      0.7010485279
     -2.4106022100
      5.0679813396
      0.0895494013
      0.9035523040
     -1.3305151160
      1.2941402281
     -1.1806641239
     -0.5636527882
      1.2700932658
     -1.6514004517
      2.1832484845
      5.1974125993
      1.9456174384
     -1.1792076208
      5.2823442542
      0.9304920116
      2.1371869870
     -0.5430865251
     -4.7063549562
      1.7892839076
     -3.1653893040
     -1.2142643453
      2.2102438006
     -0.3152063173
     -0.2585380180
      4.4552870451
      3.3051193408
      2.4901510298
     -0.2840366343
     -0.0624755752
     -2.4469732793
      5.2557702303
     -0.3123964487
     -1.1564977470
      1.3235441562
     -2.7249461024
      2.2471004067
     -2.2421297806
     -0.8789418793
     -0.3476043670
      1.3291078832
      0.6923466214
      1.9134121903
     -0.2228438445
      4.4614159239
      1.0020449267
      0.0348800562
      2.1712679122
      0.5560812129
      1.7048009051
      2.2098319617
     -0.5164609422
      0.1356607695
     -6.4754190817
      0.5279219454
      0.2200977793
      1.8257003904
      0.3319316731
      0.2008718100
      1.1040718928
     -0.5930194500
     -0.9017760734
     -0.7498542273
      0.8536003265
      0.5780921509
     -0.1116142690
     -1.0449380254
      0.9730344963
     -0.5326446432
      0.9201345544
     -1.0114020641
     -0.3886498988
     -0.3933985848
     -1.0181547231
      0.4951167740
     -1.7366888589
      0.8626636578
      0.0114720135
     -0.4170820291
     -1.8209465193
     -1.4495255900
     -0.6252889188
      0.3127825751
     -0.5939973987
     -0.1791633426
      0.4141425685
      0.2430936968
     -0.7743922692
      2.2503146982
     -0.7036872443
      0.0606854642
      0.5406851451
     -0.6868016307
     -0.2217060777
     -2.2299869164
      0.2405171491
     -0.1032830638
      0.9782390184
      0.3014683763
     -0.2769709585
     -0.1804536069
      0.4091472805
      1.2831955348
     -0.3613909293
     -1.0341673178
     -1.4314415545
      0.6413891723
      0.2605983409
      0.6214797425
      0.1240899703
      1.1407404243
      0.2510057455
      0.9911347649
     -0.2319616046
     -1.9447075861
      0.9068750514
      0.2671381451
      1.3951295291
     -0.1389591210
     -1.6964830413
      0.2142603240
      0.0344654996
     -1.4056449182
      2.1935642272
      0.0853362148
     -0.9969207803
      1.5117523774
      0.4467340588
     -0.0167275433
     -0.4325131031
     -1.5493470255
      0.7449810994
      1.1248777588
      1.6101788231
     -0.3872392980
     -0.8393268589
     -0.4605594365
      1.6841646897
     -1.0386604733
     -0.5306153120
     -0.6577365296
      1.0998404418
      1.6117519075
     -0.3471678204
     -0.3189653780
      0.4461426625
     -0.5750401785
      1.7461178397
     -0.5063056340
      3.1835799568
      1.9648428246
     -2.2846439472
     -0.2262021192
     -0.6425626982
      1.3759163565
     -0.2184213462
     -0.6001701068
      0.7696888963
     -0.5499144306
      0.0706109113
     -1.2971390051
      0.6742611846
     -0.3837169435
     -0.2942888825
      0.4582107520
      1.7416757692
     -0.1471467340
      0.1207999089
      1.4948920477
      0.3213697481
     -0.9143340071
     -0.3170410146
      0.0387812719
     -0.7910912599
      1.5838333459
     -0.3544734345
      2.6011371754
     -1.1416272207
     -0.6531358055
      1.6690604848
     -0.1644887538
     -1.0864319283
     -0.5527566161
     -0.3837285118
      1.7367040915
      1.4139548473
     -1.9866763622
      0.8709773861
     -1.7140192217
      0.8683665030
      0.6224225703
      1.0376126927
      0.2745212694
      1.1677871827
     -0.9929075115
     -0.3095513517
     -2.9334174338
      0.2346139796
      0.6658068988
      3.3277682281
     -0.4366999829
     -1.5419364891
     -0.6691746197
     -0.3502654939
      0.2018741856
     -0.2168945129
      1.4601956222
     -4.2738067955
     -0.7444483428
      4.7044705468
     -0.1610178781
      0.0620330100
      0.6127375273
      0.4427588146
      0.9973252056
      1.5085620466
      0.5413081507
      0.5475536389
      0.6420419192
      0.2655528393
     -1.9528931838
      1.1056533854
      1.4420168758
     -0.9003590789
     -1.8051243759
     -0.2698969747
      0.8589339558
      1.7491707358
     -0.0902717479
     -0.1205763634
      0.0654588153
      0.6672396997
      0.8115919372
      0.4709064144
      2.0398617324
      0.5565439021
      0.8556587866
      1.2870648554
      0.9635250005
     -0.3296125264
      0.3075630451
     -1.5048749473
     -1.3201083260
     -1.7001560960
     -1.0888535597
     -2.0506360729
     -1.9293691827
      0.7067815801
      1.4643761827
     -1.2016405387
      0.6092509781
     -0.2740197616
      0.5218028618
     -1.0723770263
     -0.9165335366
     -2.7262551656
      1.4672128152
     -4.0980149256
      2.5476660259
     -0.2376464613
     -1.0793144552
     -0.6983884197
      2.5752915871
      0.4351320542
      0.1324093707
     -1.4021441850
     -2.0064035355
      0.9509217512
      0.0640722348
     -1.6363109667
      0.3027098839
      0.7659840096
     -0.1508118964
      0.5505110712
     -0.6381133816
      0.8871501102
      0.2540033170
      0.3129707166
     -0.6201778240
     -0.2254256040
     -0.4129176638
     -0.5390507961
      0.8739049031
      0.0147889838
     -1.5380033939
     -0.7731704307
      0.3029797467
      0.4624441788
     -1.3179745242
     -0.2124073034
     -5.4525449397
      2.9332699620
      0.7330697060
     -1.7745283473
      0.0218847555
      0.1968602891
      0.4695341882
     -0.7695654552
     -0.9012201976
      1.0391617980
      0.7825924675
     -1.2389466483
      1.0815271282
     -0.5301414189
     -0.1803765340
      2.5358443943
      0.0495380101
     -0.7462393243
     -0.5002299687
     -0.3697898769
     -0.7592639799
     -0.3110172371
      0.1277351320
      0.4370538268
     -1.8467605277
     -0.9371546653
      1.1414627800
     -0.3598689561
     -0.9123377029
      0.6977303828
      2.8063816165
      0.9164244285
     -3.5916004485
     -0.5539841086
     -1.1298423210
      0.6054901708
      1.4803405947
     -0.0998538691
      0.9318451556
      2.9405265126
      0.1034791121
     -0.1690121499
      2.7195732369
      2.3906949439
     -0.2664253754
     -2.6787610452
     -0.9015781254
      1.1975085655
      0.3698512164
     -1.4975567471
      1.9812927457
      3.2136576071
      2.7508694081
      0.9644991915
      1.3586172858
     -0.4460304407
     -3.3074879517
      0.2099725976
     -1.4415908803
     -0.5675085507
      1.3948686483
     -4.7309975192
     -2.8280790710
     -0.0484770032
      0.2437015709
     -1.1117596977
      0.7340832856
      0.7734760957
     -0.5123847992
      0.8921354307
      0.4364723870
     -0.1827661201
     -0.4333981726
     -1.4540641221
      3.6739596182
     -0.1279706878
      0.9629797626
      0.0778102784
     -1.9158127182
      0.0000936516
     -0.6612391247
      0.7084042268
     -1.5410183898
      0.4006305071
      2.1962101741
     -0.3369456949
      0.6241870924
      1.5786891821
      0.1306256155
     -0.3698551002
     -1.6633939799
     -1.1763128099
      0.4127610060
     -0.1227461069
      1.4136281190
     -2.1648432363
      1.0134603825
     -1.1929598083
      1.1359199411
      0.5532121764
      0.7520037752
     -0.2375373294
     -1.0960660458
      0.6904990346
      0.9883695186
     -0.5221851052
      0.0704452081
      0.3443191148
     -0.3247464134
     -0.9576768008
     -0.6590180933
      0.2511283217
      0.0516464052
      0.8153129060
     -0.3336342965
     -0.9231429385
      0.6402884078
     -0.2482021317
      0.5343597275
      1.5379214946
     -0.9577167434
      0.2124459085
      0.3454076800
     -0.3108123199
     -0.6468912857
     -0.1256837218
      1.0802493835
      0.0621533737
     -1.2963965177
      0.1915819143
     -0.1075517642
      2.9064028380
      1.8226094684
      0.7052518132
     -0.5772529147
      0.3377587702
      0.1559913817
      0.4792221226
     -0.9544721036
      3.2080661322
      0.1324780453
     -0.1260752933
      2.7289625089
     -0.6919759019
     -0.4798576050
     -0.6201952085
      0.9761759539
      0.7972044002
     -2.0045192929
      0.8159706333
     -0.1348315117
      0.1309805724
     -0.3057112564
      0.2973126418
      1.7622914572
      0.2688966468
     -0.4230082474
      0.2296340129
      0.4186361530
      0.7070161740
     -0.3515186629
     -1.5008653338
     -0.4421653464
     -1.2314952451
      0.8081493254
     -0.1303685634
     -0.4917602426
     -0.7567725818
     -0.4403734328
     -2.4479383390
     -4.0303208474
      1.2421325161
     -1.5808711534
     -1.5807835406
     -0.5440814151
     -0.3664103521
     -1.3930855866
      1.8546548578
     -2.6779018159
      4.2520666847
     -1.7320172491
     -1.4172264475
     -1.8496184131
      5.0601834777
     -1.6724568608
      1.9689202852
      0.8582199705
     -2.2902675590
     -0.8930712086
      4.2389936482
      2.1662289994
     -0.7623346853
      1.6293670355
      1.7156957081
     -0.8815044739
      1.8243914078
     -2.6897651012
     -0.2058478758
      1.0667967874
      2.3667428615
      1.5175515446
      0.5072672045
      0.1587684830
      0.8693253199
     -0.3955620200
      0.5518497016
     -0.9662571473
     -1.1522684124
     -0.2655158249
     -1.8078511838
     -1.2429608739
      2.0215736479
     -4.0555664667
      0.2265598485
      0.0603705439
     -0.1389490454
      0.5718793588
     -0.7147759751
     -4.1440452186
      0.9239813951
     -0.0736117240
     -0.2641980757
     -0.0961031489
     -0.7052155924
     -1.6959478050
     -0.9125837470
      1.5722673902
      0.1086788245
      0.0184473169
      0.8575035382
      1.0319190018
     -0.0148980484
      1.1281041687
      0.7330236612
      1.3598167873
      2.9081577839
     -3.3459372463
      0.1474234345
     -0.2419732348
     -0.7049360177
     -0.5957875632
      0.8532587368
      1.0192535647
      0.3796579830
     -0.5155287500
     -2.8560463541
      2.2117254623
      1.4071903599
      1.4186120584
      0.4418102276
      1.8167611611
     -0.0042834442
     -1.7898333091
     -2.3325524163
     -0.8168847981
      1.0938719093
      0.2308660364
      0.4431926894
      0.6656887221
     -0.4298440150
     -1.2439270111
     -0.3852777103
     -1.1937236851
     -0.3160613526
     -0.7828281484
     -0.1650633781
      1.9033432560
      0.8356901814
     -0.1551134004
     -1.4789958419
      0.2641346595
      5.4854774060
     -0.3302722108
      0.3487878517
     -0.3912167817
      0.2718513861
     -0.0319609972
     -0.9667557769
      1.3635550869
      0.2252956552
      0.7294539048
     -1.0318548967
     -0.4417901220
     -1.0830117605
      1.7767434533
      0.9412929374
     -0.8811586772
      0.9697938026
     -3.8760635960
     -0.6205078460
      0.5166114303
      0.4202765295
     -0.1987488764
     -1.0119096722
     -0.2669078272
      0.2127302574
     -0.5369168029
      0.4048945612
      0.1363833173
      1.2773881178
      0.4055331257
      1.9093138416
      0.9991571769
      0.8555766074
      1.9916006468
      5.1426371892
     -2.1838177903
      0.1053890219
     -0.8482173785
     -0.3069176914
     -1.1779299195
      0.6793909082
     -2.2506839337
     -0.3734576134
     -2.0732820488
      0.0979524437
      0.4101139139
     -1.9977954452
     -1.2988644686
      0.8860850163
      0.3446741324
     -0.3271291945
      0.2133643712
     -0.3999185166
      0.2457034726
      0.1475571552
     -0.4723810215
     -0.0383568396
     -0.0029004008
     -0.2021072331
      0.5040828598
      0.8233520423
      1.1268849343
     -0.4004663782
     -0.0091936054
     -0.3470459359
     -0.3778314232
     -0.0438368473
      1.3696270281
      0.0170236971
      1.3038232224
     -4.5820189880
     -0.2961633248
      0.1479486673
      1.6395348462
      1.1419138111
      0.3329833202
     -0.9940458606
      0.2046051435
      1.1354706342
      1.8945814171
      2.9581250825
      1.9760285967
      0.9952599841
     -0.1614276501
      0.5581495635
      0.0437366196
     -1.8173527859
     -1.3683672245
     -0.5805370555
     -0.9676162555
      1.6176981427
      0.4558211568
      0.2161504745
     -0.3237830123
     -0.1388733855
      0.0209189338
      0.0684058678
     -0.3416935829
     -0.3021720130
     -0.4743396053
     -0.3779146243
     -0.1756869773
     -0.1155611019
      0.4520439937
     -0.0092676590
     -0.0566169032
     -0.6975758441
     -0.6898710915
      0.2934931766
     -2.0252213051
      0.6703640762
     -1.8454700452
      2.8082511748
     -0.3263545172
      1.2891841113
      0.5209277064
      6.1758102770
      2.0708905773
      3.1318553728
      1.7567441996
     -1.1617988580
     -3.6767628238
      5.6817813472
     -0.8506251783
      0.2009935968
      3.8197394219
      0.5434661308
     -3.8862978987
      6.5652081543
     -0.6545777395
     -1.2086574607
      0.0250063336
      0.8874463120
     -1.3246877624
      1.7980805744
     -1.1172516584
      1.6107890942
     -1.5712377669
      1.0249187029
     -3.3239409666
     -1.4197681877
      4.7330693623
      0.6571781095
      0.0132101309
      0.2068005589
      0.0452017981
     -0.2414408501
      0.0694824158
     -0.3353643407
     -0.0276096165
     -0.0076000710
      0.0061276628
      0.0178595726
      0.0525470736
      0.0169397120
     -0.0568882923
     -0.0111326669
     -0.0292534098
      0.0819986031
     -0.0909654006
     -0.0134585472
     -0.0506204937
     -0.0820670095
      0.0126242127
     -0.0153834739
     -0.0169751750
     -0.1021892433
     -0.0292827677
     -0.1338596418
     -0.0207512916
      0.0058559826
     -0.0226876000
     -0.0305018081
     -0.1458230424
      0.0048537281
     -0.1079949905
     -0.0199388094
      0.0378926885
      0.1720031819
