     -3.9289294866
      0.6727490280
     -1.5806525304
     -2.3715162893
     -1.2361160488
      3.0389934695
     -0.0565990603
      2.3677325433
     -1.2386615695
     -1.2553312436
      0.0713611408
     -0.7297393532
     -1.0209754594
     -0.0695002665
      1.4669910782
      1.0621233649
      5.9755287687
      1.0839617001
     -1.7196490588
     -3.0613454382
      2.4918169871
     -1.1338717015
     -2.7417570170
      0.2434668632
     -2.1072550116
      1.4449155158
     -1.5906715198
     -0.5518117746
     -0.7164150505
      0.6740747849
     -1.0370001926
     -1.9794819246
      1.2668392364
     -3.5030136121
     -2.7393740490
     -0.0885801510
      0.1277024794
     -2.8020595823
      3.9138263875
      0.5095364493
     -2.8170183225
      1.2890699855
     -1.9909705207
     -3.8358417934
     -1.2779496164
      0.5789857481
      2.5080054127
      3.0286227662
     -2.8181528520
     -0.7404496471
     -0.0995979677
     -3.1868362704
     -1.8581686409
      1.2229639352
      0.2900204065
     -0.7429854191
      3.2795194354
      3.0394622126
     -0.3795047508
     -1.1734882813
      1.7853063007
      1.2243069105
      0.8348957519
     -0.4288617969
     -0.1539921806
      0.2021580234
      2.9262555157
      0.2847952375
      4.5115183373
      3.5416827325
      1.3540310093
     -3.4943758188
      4.1933917065
      2.6472866340
     -2.2347552383
     -1.6243892942
      1.3990644353
     -3.7192681414
     -1.3067592702
      3.6031221614
      3.0141590577
      0.9520105021
      0.8852557992
      0.0759125057
     -1.8499873090
      0.6604348872
     -6.8865740636
     -0.9528445591
      1.7514873203
      5.7553629529
     -3.3800320136
     -0.8320021311
      2.0522421820
      0.4191771901
      2.5491647259
     -0.9902842577
      1.1277347758
     -1.9339567566
      2.3701302063
     -0.6884520005
      3.2125080347
     -1.2398116580
     -4.6859190915
      3.4659554218
      0.2921215732
      3.8179380657
      0.6848149639
     -1.7304998163
     -3.8151837229
      3.2152153528
      2.2010659501
     -2.5170549159
      3.4951210341
      5.1157805893
     -0.6573654751
     -0.6825093537
     -1.7672714694
     -5.3454117699
      5.5999600994
      0.6966198369
     -1.9999245651
      1.1504634538
      2.0988934533
      1.4226425504
     -0.1631641586
      2.8774249893
     -0.2538062650
     -0.2219332625
     -1.9702777160
     -1.8344684627
     -0.3832758670
     -3.3016533614
      2.1486197226
      0.7998384854
     -0.6147616940
     -1.9455994237
     -1.8425486905
      3.2576746915
     -1.7371963825
     -2.2083065491
      2.9514811066
      2.9367158966
     -1.2342203219
     -4.1987347473
     -4.1458614695
     -0.0907558977
      1.8325723917
      1.1727331297
      4.4597967062
     -3.4536100419
     -1.2864878126
     -0.7710735474
      6.3475834880
      3.8576685725
      1.6310525573
     -2.0818902069
     -5.7243907757
      0.7073056601
      2.9993173862
     -3.5096618103
     -1.6092165150
     -3.2723799674
      0.8053918504
     -0.1552101632
     -1.6716180198
     -1.3790899155
      0.1937830859
      1.3089540593
      0.8033768418
     -2.1537819990
      0.1078454097
     -2.3046111156
      2.8224445100
     -2.9564572683
     -1.2084532361
     -4.9066670608
     -1.7113098869
      3.5375970552
      1.8800632861
      0.3143499671
      0.5966430796
      0.0477285441
     -0.6465887925
     -1.4557121940
      1.8385502670
      1.9223916870
      2.0873428028
     -4.0115635336
    -10.6479882276
     -1.3438524387
      1.9577529749
      2.1962314601
      1.7157783600
     -2.5596519036
      0.1804422966
      1.2402203337
      5.3431725272
     -0.7261941002
      3.9543009797
     -0.6835405063
      2.9225786696
     -0.7169987019
      0.8608423111
     -3.1127528033
     -1.5822233445
     -0.8852399825
      2.3027157893
      0.5039257640
     -3.3621279208
      0.8781200299
     -1.5427341549
     -0.0920398180
      0.6406043435
      0.7211810489
      0.9849321841
     -0.4404175474
     -0.5476704895
     -0.4960756947
     -1.3528422519
      0.0994390417
      0.8892371926
     -0.3891539201
     -0.9512333278
      3.1611692193
     -0.4547589365
      0.1273330446
     -1.8402806514
     -0.5276072184
      0.4503339584
      1.3637572637
     -0.3485597397
     -0.6529618442
     -0.5544347091
     -0.8042425620
     -0.5778635511
     -0.0748819314
     -0.1382006628
     -0.3545155193
      1.8074001060
     -0.1269752418
      0.2560434428
      0.1431850553
      0.7860462596
     -0.1580158769
     -0.3314610769
     -0.9402975129
      0.8579677635
      2.5920797147
      0.6624302485
      1.1149522487
      1.1870235271
     -0.0800066563
     -1.1243069611
      0.4619498641
     -0.8587467397
     -0.8253414502
     -0.3311119165
      0.3941233889
     -2.5293511794
      0.8762156772
      0.6309930380
      0.8910636939
     -0.3980754123
      4.2002368206
      0.4557328934
      0.6313451823
      1.5894283222
      0.0183466104
      1.8556750112
     -2.4543808986
      1.5274188515
      0.9568669114
     -0.3828797583
      0.6640370900
      0.2775204534
      0.2372084367
      1.0628559679
     -2.0695727635
     -3.5912039926
     -0.7032614613
      2.0891625699
     -0.3568916344
     -2.8213670238
     -0.4465639873
      0.0730746600
     -1.5489668169
     -0.4365813455
      0.9982455150
     -0.6942858422
      0.3631376636
      0.1153426891
      0.1286972848
     -1.6201002573
      0.8160926939
     -0.0207287226
     -0.6465678704
     -0.0219327935
     -0.5868193211
     -2.1310776684
      0.5349415007
     -0.9644778071
     -2.5423230748
     -1.3535849128
     -1.5744162305
      0.7266382287
      0.9418218985
      0.0631448305
     -0.4485266021
      0.1142053873
      0.4237720711
      0.3644807989
     -0.1989218834
      0.6370545994
      1.6738367619
      0.6158785504
      4.6960806816
     -3.4441677317
      3.4498811773
     -2.8656251267
      0.3379259660
      0.7563077437
      0.5404400939
      1.3568108184
      6.4292927233
      2.6793228607
     -2.0244882261
     -3.4282128920
     -1.1221481713
     -0.0646729918
     -0.8010857813
     -0.0271757755
      1.9312137497
      1.7204186848
     -7.1391580297
     -1.7214466771
     -3.7280112316
     -3.3003008828
     -2.4769085814
      1.8086777015
      6.9184678300
     -4.3269056154
      2.0668546128
     -1.3206605822
     -1.6629084633
     -1.2495948648
      1.4748288388
      0.3595450253
     -2.0675188196
      1.0218011843
      1.4005517742
     -1.6965141073
      1.7420064371
     -0.0094549614
      1.9867367703
      0.1121241827
     -0.7223270169
     -0.0214622448
     -1.2091031920
     -0.8961889750
     -0.7433857072
      0.1569754582
      2.0508753204
      0.0867391652
      0.8306931210
     -0.1941213667
     -0.3610049742
     -0.9395512475
     -0.4150707595
      4.9220364338
      1.4326587908
      2.4468794520
      2.2545926601
      2.4307730889
     -1.3651216108
     -4.2564941187
      2.2864988008
     -1.5561969800
      0.3808285001
      1.7724556393
      0.5278480918
     -0.9878285997
     -0.9655797279
      1.1408518913
     -0.5716638574
     -0.5586417404
     -1.6246730138
     -0.4103239786
      0.7277769004
      0.0078927204
      0.5778825113
     -0.4942446678
     -0.7247298329
      0.6783065101
      0.7774973574
      0.8569259646
     -0.0106803329
     -1.0563441719
     -1.6867208104
      1.6651665829
     -1.6177480255
      0.0208513758
     -1.3125623112
      0.4968411834
      0.9946485909
     -0.5075432662
     -0.3464240810
     -0.3865050766
      0.1690347062
     -2.2415267652
      0.3720034061
     -1.1334545846
     -1.1275429743
      0.0663236209
     -0.1027662151
      0.0862829762
     -1.1605419625
     -0.0275848401
      1.0431777651
      2.1433101009
     -0.2141565928
     -4.1916023192
      2.6778276688
     -1.7718981241
      1.4228861928
     -0.5145061314
     -1.4282729665
     -1.7558903104
     -1.1567107742
     -1.4831054226
     -2.0010767380
      1.3838122486
      1.0393825988
      2.9903852141
     -2.4283303623
      1.9359682113
     -0.2390108497
     -0.0408233796
     -1.5050671428
      3.7873585724
      1.0527333182
      1.2151823421
      1.6261066956
      1.0587683558
      0.4787966974
     -1.0712619918
      0.3486175062
      1.0785913280
     -0.1180147316
     -0.9316752209
      0.9253042999
     -1.1081296633
     -0.0432923824
      1.0211093378
     -0.5419071216
     -1.1972476613
     -3.2532565601
     -2.6782804982
      1.0232237845
      1.9509625218
      3.3436367234
      0.3458796951
     -5.3715970029
     -0.2681038765
     -4.0385305859
      0.7317923835
      2.2918795946
      3.8606873040
     -2.2010233535
     -0.2578114703
      2.0669430271
      2.7254209049
      2.1405083792
      2.1176462531
     -2.4347117707
      2.5635302876
      2.2290295022
      3.2642754468
     -1.4171099278
      1.7573688972
      0.8746148037
      3.0467017551
     -0.5908693973
      2.2916659913
     -3.5453867187
      1.8191154324
     -4.7474146261
      3.7025214923
     -1.2178578773
     -0.1185739663
      1.8262690761
      3.0129166436
      0.4233862183
     -3.7254192989
      0.1934970782
     -5.0729402723
     -1.5986920052
      5.9729048057
      2.9119448493
      1.5849723134
     -2.9707927796
     -5.7937758538
     -5.5565938940
      1.1465475259
     10.8600190876
     -0.7460724375
     -2.8097066763
      0.8240082251
     -3.4590275603
      2.2824980161
     -2.1635927862
     -4.5415668944
     -5.8841475030
     -2.7039014958
     -1.0271492425
      2.3046464999
     -1.5606157719
      4.2589802779
      0.1665116509
      2.9658365395
      1.0103907865
      3.1047998504
     -0.8208664008
     -0.8109991104
      6.3471633343
     -1.8989197741
     -3.6568770363
      1.0054049231
      2.7952271288
      0.0401799468
      1.8192753618
      0.6529760743
     -3.8229416994
     -0.3134637236
      0.1826059660
     -0.7206346529
      2.7747128195
      1.3580819361
      0.3085550922
     -3.7067411026
      0.5289881413
      1.4748109492
     -1.3269291027
      2.3903318209
      2.8878950619
      0.2966538403
     -0.0169866912
     -1.8280232775
      0.6263128265
     -0.1949933043
     -2.3562439313
      0.5436226928
     -1.8917759884
      0.1235000437
     -0.3708338331
     -2.6264641994
     -1.3237957261
      0.5135194353
      0.6350125441
     -1.5227978768
      0.2158045799
     -0.3865031142
      1.1786339091
      5.0732302646
      1.8508657081
      1.7813161023
      2.5663399914
      1.3264071992
      2.3655182587
     -0.5313605026
     -0.2802345683
     -0.4790081556
     -0.5117668794
     -7.2187310452
     -3.6421681245
     -2.9959983121
     -1.5151211178
      4.6935899202
      1.5047967753
      0.1579773162
     -2.0783881284
      2.2011655222
      1.7338435168
     -1.6667010291
      0.0710644293
     -2.7137220283
      2.0964462756
     -3.3132174844
      2.0574215543
      0.7987304254
     -2.0776535279
     -0.2393482536
      1.7887691734
      3.4665727579
     -4.2398571581
      3.0854179817
      5.4047462879
     -3.1709027493
     -3.2711521505
      0.2550083230
     -1.2844309824
     -0.3145927156
     -1.6151497078
     -5.6984019871
     -3.7575912200
      1.9245902000
     -1.3562444549
      0.6102370644
      8.4230858889
      8.2045724479
      2.9012288803
      0.2123259804
      0.3317228119
     -1.9405103471
     -4.9613017887
      4.1226444625
     -0.1435279684
     -1.0886230552
      3.8882051640
     -0.0399925061
      1.5416306317
     -2.3837273940
      2.0455448653
     -2.3947105276
      3.9325492428
      2.5124885697
      1.9031626521
     -2.4684153259
     -1.5090733976
      5.7517319540
      1.3996955855
     -0.5256774932
      0.2298780288
     -1.4342036441
     -0.8567455091
     -0.4692006705
     -0.0326256251
      1.7522254785
     -0.1389553445
      1.1898623254
      1.2142382429
     -0.5748452097
     -0.4356000751
     -0.6928127288
      0.3618815602
     -0.7023445854
     -0.2223800109
     -1.0594437639
     -0.2860083262
     -1.6366014372
     -0.8123539010
      0.0245270012
      2.0652422592
     -0.4128985879
     -0.7029570035
      0.6027336125
     -1.0854254938
      0.9785908579
     -1.3514633265
     -0.7972710290
      1.4611347258
      0.8909909390
     -0.7211071039
     -0.2901552204
     -1.5781992901
     -0.6897139925
      2.2334923207
      0.8561718033
     -0.8039909696
     -0.2638254955
      1.9701616546
      0.1491371351
      1.2431961113
      1.4889605996
      0.9401113243
     -0.5246671055
     -1.3387578277
     -0.8278485749
      0.8551888105
     -2.6214496139
     -0.9707568766
     -0.5467262490
      2.6590043606
     -0.2913348169
     -1.6609708933
     -0.0077493442
     -0.1930461088
      0.3080702536
      0.2629400089
      0.3578622595
     -0.1791045456
      0.2092358108
      0.7588253530
      0.3136224602
      0.1995799640
     -0.5867656989
      0.8496086583
     -1.8458505510
      0.3300552426
     -0.7242480755
      1.1088637791
     -2.2764480894
     -0.4992391003
      0.1447150893
     -0.0986741905
      0.3208020106
     -1.2202348747
     -0.4741065867
     -0.3543762372
     -0.6419360484
      2.0974093591
      1.4915076290
     -0.6769552559
     -1.3099863653
      0.0557345768
      0.8523970654
      1.3256047421
     -1.8760254110
     -1.3267454499
      1.3923601930
     -0.3291253441
     -0.6440441525
      0.0739319126
     -0.3645101823
     -0.3347585577
      0.9790941388
     -0.6912572261
     -0.3344202847
     -0.5882713170
     -0.3335484219
      0.9980302722
      0.1265597357
      1.1625456133
     -0.8588214695
      1.5789193281
     -2.1781866915
     -1.8659174584
      0.4582113703
      2.1045199258
     -0.1152190726
      1.5683321418
      0.6070009016
      1.0838617399
     -1.1506471141
      1.5458200416
      0.7836095599
      1.5436951119
     -0.1219623185
     -1.1744216165
      1.9247795103
     -0.3985553739
     -0.4575806437
     -1.7193348027
      0.6804599580
      2.1645624834
     -1.6939672139
     -0.0124093929
      1.5320247497
     -1.0013293805
     -1.0668502014
     -1.5538242544
      0.8916768514
     -0.4562569687
      1.1320647529
      0.3939258887
     -0.2471318876
     -0.5401900219
     -0.6157725584
     -1.1194552795
      0.3582590494
     -0.7004617705
      0.1977044221
      0.1158997834
     -0.9453287469
     -0.3824027578
      1.2108800948
     -1.5254947498
      0.4256173486
     -0.3719637019
      0.9679929163
     -0.8985173165
      2.8722741472
      3.4623109578
     -0.6010066814
      0.2399214268
     -0.2200864499
     -1.3123582683
     -1.1690876306
      4.8225942353
      2.0508474291
      2.6259681650
      1.9662557961
     -2.4257905623
      5.4615238674
     -4.8842176851
      0.0770363328
     -0.0205015285
     -0.1527826781
      2.7678459404
     -0.2922105568
     -3.0681024235
     -0.4675984345
      1.0282723347
      2.0261381971
     -5.6979925401
      0.9659642588
     -0.4921350494
     -0.2149955459
      0.2155288020
      2.6123504126
     -1.0913647216
     -1.5802526103
     -0.4670441475
      0.4310419367
      0.2024734417
      0.0874974172
      0.0066752105
     -1.2956935989
      0.4696299192
     -0.6399272022
     -0.8473760146
      0.5336407862
     -0.5518204236
     -3.4182928458
     -1.2417688516
      0.9540258200
      0.3351865440
      0.5402126688
     -3.8264216248
     -1.1051741620
     -0.1182980383
     -0.0538667331
      0.0411453005
      0.5150396134
      0.7779713971
     -0.7352210802
     -2.3271690604
      1.2290815311
     -0.5768805533
      1.3933049417
      0.3681098672
      1.2557601123
      1.2680435069
      2.8899379902
      1.0078602542
      1.8984667869
      0.0620108370
     -1.1656641609
     -4.1258638378
     -2.4968969301
     -1.4018330428
      4.0133612064
      2.1790141710
     -3.4490901022
     -2.0861412272
      1.9854577689
      3.0774555068
     -0.8030230047
      0.9803247269
      3.1335180479
      1.5247843122
     -0.5554719888
      2.2355553604
      1.8237253134
     -3.6352275568
     -0.6312332034
     -1.7167919045
     -1.5022954110
      2.8915256835
      0.0729715400
     -0.0102717965
     -1.6531190364
     -3.2431910592
      1.1481483614
     -5.4096041503
     -0.0640911995
     -0.8247806127
     -1.4418292121
      1.0912386189
     -1.9947855441
      1.1294086515
     -0.8339432648
      0.7156468282
      1.1877285180
     -0.9310486791
      0.0833911997
     -4.0495551098
     -0.0532129527
     -0.6494893251
     -1.1084925806
      0.4848751985
      0.9811940494
      0.1373571986
      0.1228926920
      0.9071180180
      0.0655926557
      0.7327797944
     -0.2435198104
     -1.8355023367
     -1.5751394843
      0.4254271873
      0.5157893730
      0.2415348806
      2.6024777464
      0.5271352255
     -0.2963343135
     -1.1055947527
     -3.5474812294
      0.0726171944
     -2.8410963710
      0.5198208303
      0.2648249277
      1.3336846028
      0.2523062007
      1.0556380906
      2.1067979816
     -1.6980449848
     -0.5982235505
     -0.4524651249
      2.0574589539
     -0.4150613008
     -2.0736900810
      0.9432531099
     -2.0872942323
      0.6978973654
      1.5794050553
     -3.7422112811
      0.7525248156
      1.2131221032
     -0.0462656553
     -1.0916842834
     -0.2973595982
     -0.1643873588
      3.2293426471
     -3.8990444586
      0.6851177097
     -0.7849661953
     -1.6185608983
      3.4821077445
     -3.4819675847
     -0.7641375764
      1.3440941955
      0.6954476606
     -0.3931013264
     -1.4936031789
      1.7347921347
     -0.7564447105
     -0.8107667777
     -0.7653958833
     -0.2527487105
      0.1866880862
     -0.8976201027
     -0.1249225916
      1.4267945680
      0.3865970047
     -0.7418424041
      2.2734863815
     -1.4919253771
      0.2090458457
     -0.2937457322
     -0.5253743721
      0.4810159263
     -0.5262975795
     -4.6039412111
     -1.1796285921
      0.3344021882
      0.2970968870
     -0.8296062974
      3.2540927463
      2.8577004380
     -0.0266911810
     -0.6077997890
      0.6997518731
     -0.9368752243
     -1.1394513830
     -1.1087581572
     -4.3782277358
      0.5352806715
     -0.6387600765
     -3.8958801924
      0.0645910240
      0.0494129152
      0.2710961954
     -0.0318010800
     -0.6491832991
      0.8267259608
     -0.9049213646
      0.1067556844
     -3.2894609740
      1.9787038488
     -0.2307725513
     -2.7407114785
     -0.2088717613
     -0.2793156733
     -0.0142700927
     -1.0740821992
      0.8609232691
      0.4199662079
     -0.5903928614
     -1.0196012408
      1.1687676027
     -0.1730405624
     -0.2563854044
      8.6593308799
      0.4732973479
     -0.5717055550
      0.0388240955
      0.1040246059
      1.3368561940
     -0.1826692018
      0.2002873891
     -0.5012741201
      2.3341507448
     -0.3782177569
     -4.6890459384
      2.1489732585
      0.3166323218
      0.2957254990
      1.3652835898
      0.7235984656
     -0.1852721820
     -0.8231731983
     -1.0067844457
     -0.9411182864
     -2.1606702736
      0.6649193085
     -1.6762200184
      1.3580791796
      1.2707253819
     -0.4858516409
      0.2128828269
      0.3760541936
      1.8842599806
     -4.1530922010
      0.2647412235
     -0.6689239751
     -0.1611977611
      0.8803327442
      3.5542019697
      0.3492951082
      0.6127910980
      1.6712453653
      2.1696385300
      5.5445311600
      0.6309253496
     -0.5388145364
     -3.2351226066
     -0.1575241111
     -1.0613446841
     -2.2827605607
     -0.0824360856
     -1.6058581080
     -0.9219802741
     -0.8413504392
      2.1456870338
      0.4563417975
      0.2885479396
      1.1098440733
      0.1623137311
     -0.5355237642
     -1.0006494388
      0.7393869976
     -3.7607756405
     -0.8681560987
      1.0679827082
      0.3623404007
     -2.7804188145
     -0.2935245582
      1.4971718171
      0.3118977003
      0.0450844355
     -0.8148215966
     -0.3619654571
      2.7967556651
     -0.0005841464
     -0.5761757654
     -0.2139139062
      0.7157790062
     -2.2987708442
     -0.5209580270
     -1.3976907407
      0.2709874485
      0.3011151515
     -0.8882934930
      3.5298204644
     -0.5906102824
      1.5037952588
     -1.7224988215
      0.4333961210
     -1.0453812280
      0.1415922038
     -0.2868263037
      2.0212615114
      0.6785665363
     -0.0016845016
      0.7922407518
      1.7579057357
      3.1142711005
     -0.3649761686
      1.2012936833
     -0.2752768966
      0.9951437775
      2.0291590776
      0.7488478316
      0.0548346970
      0.2032834237
     -0.9126619072
      0.7245230001
     -0.3771115448
      0.5245323532
      0.1456133030
     -0.1620220130
      1.0189442493
      0.9429380090
     -0.5224618003
     -0.4859710023
      0.4803004299
     -0.7778852516
      0.9192209196
      2.8155492771
     -0.4501719647
      1.5466617802
      0.8951682995
     -0.5164759124
      0.7429026474
     -1.0354579123
     -2.5015653110
     -1.3355010391
      0.5487660991
     -0.4810455041
     -0.2898048415
      0.1015543522
     -3.6501093301
      0.5206922271
     -0.6912169412
     -0.4698335214
     -3.7731797322
      0.5981064140
      0.2984418679
      0.0823153964
      1.7488262066
      0.4101780173
     -1.4190421371
      3.1609279138
     -0.2067031778
     -0.4319563994
     -0.2006672219
      0.1284790475
     -4.4477613957
      0.9768532627
     -1.1161565207
     -3.6630149849
     -3.1902478538
      0.8169765092
      1.4557655922
     -0.6383066466
     -0.0074680168
     -1.4260108997
      0.1505180478
      2.0154831493
      0.7905012317
     -0.0021402270
      0.6237030595
     -1.9770968190
     -0.7056271556
     -0.5392044445
     -0.5712991341
      2.2731070858
      1.3401041135
      0.2205904045
     -0.7654171355
      0.1510849684
      0.4040122685
      1.1685762795
      0.0063859221
     -0.1494840023
     -0.0253381218
      0.3608300558
      5.5432655720
      4.8959903919
     -0.1618375539
      0.0012937156
     -0.1869980459
     -0.9268028351
     -1.2906593926
      0.1368849085
      0.0107236690
      2.9748927743
     -0.1525518923
      1.3008782936
      0.1072184723
      1.8251176202
      2.7780477207
      0.2855102212
     -0.8737311535
      0.1149539366
     -0.1222389280
      0.9600603141
      2.2701531754
     -0.4706915602
      0.4575264973
      0.5956155014
     -0.6557032809
      0.3075109915
      3.4736157749
     -0.6947441036
     -0.4743560782
      0.9514793527
      1.0725189232
     -0.5876854306
     -0.1430191414
     -0.3034992159
     -0.7729685687
      2.2210435099
     -0.7096406341
     -0.1176798903
      0.5694560327
     -1.0858923417
      4.1961133594
     -1.4771387087
     -0.4826735385
     -2.1674553260
     -2.3121427380
     -1.4159174286
     -3.8872800248
     -0.0201814079
     -0.5215658433
     -3.5216814568
     -0.6078013783
      0.6532398387
      0.4036152777
      2.1824182852
      0.2413962867
     -1.6264372188
      1.3459095108
     -0.3447239867
      1.2612880570
      3.4252973068
     -1.0967331237
      0.9741130386
      0.0587733741
     -1.4927511209
     -0.2359445861
     -0.5067355155
      0.3309894463
     -1.6069669930
     -0.5872256448
     -0.9161257766
     -0.4378040671
      2.5511106419
     -0.2805064021
      1.0682678213
      1.2446932994
      2.5482325537
      1.1542041561
      0.9533243989
      2.9313359193
      3.3322835135
      0.2316697995
      0.2013383725
      1.1783069939
      0.3196501105
      0.5745346497
      0.6113490271
      0.0458229405
     -0.8808560105
      0.2848322264
     -0.4645102107
     -1.8013629306
      2.4895476692
      0.6010648632
      2.2696675298
     -0.4702856673
     -1.2698042764
     -1.0797290253
     -1.4070678164
     -0.5263114487
     -0.4255866499
     -2.3505700461
     -0.4829710618
     -0.7362262076
     -1.1910149266
     -1.1514372639
     -4.5317762834
     -2.9866734358
     -0.7930916988
     -0.9451198108
      0.6249851198
      2.7248241501
     -0.1347911657
     -0.5301550232
      1.5286124390
      0.9596890694
     -0.8731311657
     -0.8100462449
      1.0409999403
      0.3607175416
      0.7074255946
      0.3380461957
     -1.6054709620
      0.9423904631
      0.9317213444
      0.6182557195
     -0.3549104978
      0.0917897196
     -0.0186033852
     -1.4779613767
      1.7499267828
     -0.1276699155
     -1.0285364542
     -0.9948426175
      2.0241317793
     -0.6149183841
      1.5209481385
      0.9450390534
      0.6668782757
     -1.2307512938
     -0.1388441420
      2.0692104666
     -2.1921857624
      0.2785479710
     -0.0342094034
     -1.3849227915
      1.2404303327
      0.8308978653
      0.7386258311
      5.1355840528
      1.3962782429
      0.6022398780
      0.1803474881
      0.8453159212
      0.9716142119
     -2.6395439250
     -0.8384171050
      0.0972900367
      1.3959271175
      0.3299292824
      1.2176170908
      0.9882119310
     -1.9937977409
      0.9896903293
     -0.2237237618
     -0.7972257943
     -0.3078672169
      3.0278527070
     -0.3510974479
     -2.9784769558
      1.5840180965
     -8.4663180348
      0.0333866608
     -0.8645240237
     -1.0963901498
     -0.9402757272
     -2.9506266206
      4.3412193549
      0.0316503987
      0.3370112665
     -0.4338461054
      1.5849346082
     -0.3292072432
      0.1669965146
     -3.3449351874
      2.9905420967
      1.0909139601
     -5.0115524714
      0.8630527272
      0.4056267244
     -0.9187421276
      0.9469569588
     -0.0858278567
     -0.4057280818
     -0.7683281018
     -0.1371399697
     -0.4244800242
     -0.6979119534
     -0.2624760129
     -0.1422749707
      3.7273739671
     -0.8528396817
      0.8376408608
     -1.9071980823
     -1.6763107401
      1.6598941961
     -3.0907545848
      0.4611193754
     -1.2923010847
      1.1953972508
      0.0770631317
     -2.9656890493
      1.9209738259
     -0.1473239235
      0.9332249724
     -1.8388096047
      8.4539423388
     -0.9719198446
     -0.2336175767
     -0.2906569805
      3.6140588651
     -0.4652077965
     -1.4631410131
      0.8199493709
     -0.8511725601
      3.0320955824
     -0.6642667786
      0.7046486967
     -1.4170135492
      0.3406552652
      5.1702119195
     -2.9217273662
      0.7002490505
     -0.4499431688
     -1.6333535795
      1.8717246615
     -2.3830741931
     -0.5797263609
     -0.8946689692
      0.8252891271
      1.7658453140
     -0.2535703819
      2.0349252830
      1.9968610466
      1.1125849542
     -2.7747677404
      5.5309765321
      2.4471562306
     -0.3477364224
      0.8988041799
     -2.9413387933
      3.1474318761
     -2.0885693435
     -1.8240927007
     -4.3623576512
      0.4978935543
      0.5365920308
     -3.0232256477
      0.9005365763
     -0.1796913684
     -0.3641060949
     -0.1379492596
     -0.1055606076
     -0.2317471978
     -1.1948909871
      0.0315572616
     -2.7411849019
     -0.3648137433
     -0.8226272082
     -0.5188072457
     -0.2062594641
     -0.3019754410
     -0.0712509414
     -0.9333761294
     -2.6032555346
      1.1508570675
     -3.0898352721
     -2.7196490232
      2.9153325921
      0.0543438310
     -1.0631697883
      0.9984003327
     -0.5940078318
     -0.9319684390
     -0.6086661591
     -2.5453335397
      2.2294031571
      0.8969593107
      1.1386807627
     -2.3409596410
     -0.8235945121
     -2.1959216162
     -2.5258269558
      1.1532636265
      0.1142332305
      1.2151059730
     -0.0938749923
      1.8665388830
     -0.7709971937
      0.0356596155
     -1.0467212574
     -0.4953217522
     -2.3103910476
      0.3453384227
      1.3919279166
     -0.7349151389
     -0.7316758252
     -0.1007044875
      0.3951596048
     -0.2201186360
      0.3037205443
     -0.3575408847
     -0.8716038357
     -0.6031749246
     -0.2290316569
      0.0794366746
      3.6218953202
     -1.1474603619
     -0.2173436585
     -0.6582652932
      0.5335677002
     -1.5887425138
     -0.3441156658
     -0.2216541545
      1.3411606428
      0.4771587387
      0.9772722525
     -0.3556211090
     -0.5262172325
      1.0654205494
      1.6472918796
     -1.4915132517
     -0.3671102435
     -1.8202820449
      4.6061410536
      0.6132969848
      1.6059667035
     -0.7252479186
     -0.1991094436
      0.0879973415
      2.1085794845
      0.0773026634
      1.8853677948
      0.0997085535
      1.1000056298
     -0.0072292572
      0.6359534081
     -0.4555561829
      0.1579303686
     -0.7190548456
      1.1775053309
     -9.2810622112
     -4.5153890084
      0.2361700501
      1.2532681223
      0.2285272802
     -1.5165186564
      0.5008664607
      0.8700149943
     -1.3610752348
      2.8192333771
     -2.1360140422
      0.0727939471
     -0.2033676355
     -0.2015554792
     -0.1923870583
     -0.7812218315
     -1.8981777758
     -0.3149891104
      0.4471887139
     -2.9766600253
     -0.4119398883
      4.9262230952
     -0.0168167253
      3.4823128568
     -0.6166986193
     -0.8317009839
     -1.8934989729
     -0.4165371672
      0.5887431510
     -0.0596599360
     -0.5240646595
      1.8607314974
     -0.6566106872
     -0.0771832169
      0.6002592234
     -2.3419011226
     -1.2780533042
      0.3000091715
     -0.0044857557
     -0.1208420709
     -1.7243674809
      1.1250213121
     -0.7854023993
     -0.0529733629
     -1.2859282165
     -0.4748146263
      1.3072015392
     -0.0252008425
     -0.7358486622
     -1.3326567845
     -0.3900002457
      0.4658060017
      0.4035858852
     -0.3426121359
     -0.7974160874
      0.0728876179
     -0.6253259932
     -0.8885019873
      0.2901223973
     -0.6161640391
      1.5161416600
     -1.9040373924
     -0.0457374638
     -0.7091105774
     -1.7518417039
     -0.7570594516
     -1.7058933880
      0.3853514618
      0.7146059939
     -0.5652545619
      4.6896289866
      0.0013356560
     -0.0390584639
     -0.8847651198
     -0.3750766955
      3.3763459870
     -1.0738222481
     -0.9837022857
     -1.1855467069
     -3.0147253159
     -0.0852469238
      2.7249996462
     -1.0251117015
     -2.1340891246
      4.4104842411
     -0.3071513538
     -0.5714278717
      2.9092603794
     -0.0950569725
     -0.0050010694
     -1.3489457712
      1.7061144009
     -1.9664963127
      1.2063649676
     -3.7135253822
     -2.4267951477
      1.0267949622
     -1.8310893236
      0.0544470120
      0.9622040666
      6.2236188359
      3.0867226143
      0.7571051921
      1.1251457259
      0.3346974298
      4.3221293351
      1.4619029902
     -0.5095060369
     -0.1894453212
      0.2953080840
     -5.2987117119
      1.5788743258
      0.6583016752
      2.5731282446
     -4.2122042593
      2.0320644138
     -6.2421963916
      1.6876033812
     -1.1595136160
     -0.3822421989
      0.7591520088
      1.6704604464
     -0.3425487083
     -0.3844764145
      0.0388881785
      1.0312080941
      1.5687673321
     -0.1181075238
     -2.4598183340
     -1.0574949950
      0.4287379823
     -0.0176244363
     -0.7466659697
      1.7110003437
     -0.9953234712
      1.3226723844
     -1.3663285525
      2.5622799746
      0.1837486462
      0.9197187677
     -5.1676877275
     -1.4887599550
      0.0702196011
      0.1676408934
     -1.6502057153
     -1.2159943055
     -0.3325904806
     -0.3208935934
     -0.6707049168
     -2.9048412462
     -0.7754098308
      1.1633035351
      0.4274001709
     -0.7780948925
      1.0429130816
     -0.3737258472
     -0.7536638396
      1.6412365302
     -0.4203286642
     -1.3050088806
      0.1539027802
     -0.7414765224
     -0.6436257751
      4.2087606681
     -0.4700061807
      0.8949261269
     -1.7989136007
      0.6406446671
      1.6223046425
      0.4794085227
     -0.9397430249
     -1.0911079856
     -0.0454213914
     -0.1543368365
      0.7752594537
     -5.2226537210
      1.5920812984
      0.2584868176
      0.2423336477
      0.2252295678
     -2.0581984870
     -0.4737641419
     -0.7716287526
      1.4590348098
     -0.8891264289
      0.3700847114
     -0.6758552115
      0.1761117664
     -1.1198478592
     -0.0627819292
     -0.3221662921
      1.7810050525
      0.5410748211
     -0.3587741243
     -0.0384367187
      0.9626277415
     -1.0996744905
      0.4302293112
     -0.7060634170
     -0.0420144369
     -0.0599220471
     -2.0007868974
      0.7483338079
      0.3400028476
      0.2445112828
      2.1898673085
      0.7651946357
      0.1478872874
     -0.6380370063
     -0.0243121518
      3.4406343556
     -3.1318161304
      0.6384018607
     -0.4824127601
     -0.8727829379
      3.8217242492
      0.3105973178
      0.2459351670
      2.8579643237
      2.3599268930
      2.1868812937
     -0.7525374038
      0.4762827458
     -0.6429202843
      0.5721651958
     -1.1213330845
     -0.2587178721
      0.0436072072
      0.5517129705
     -0.4409422122
      0.3472893103
     -0.2118771158
     -0.7974173616
      1.9328951593
     -1.8830288561
      0.9847250161
      1.8638146875
     -1.6181292026
     -0.9511755003
      0.6967393382
     -1.4815048074
     -0.1218468721
     -0.1697522666
     -0.3649785325
     -0.3687591247
      1.2024241392
      1.1169401876
      0.0626256635
      0.2591997854
     -0.1980351167
      3.0876073070
     -0.9561786561
     -0.4769569450
     -1.7990671736
      4.4171816295
     -1.4719092421
     -1.3275127774
      0.4058447462
      0.7662489702
     -1.3647289789
     -0.5796132107
      0.5212597914
      0.2766750314
      1.7071588246
      0.8399264241
      1.7393524346
     -0.3745740246
     -0.2821887681
      0.7658984851
      1.6776839723
      0.3283645429
     -1.4438562989
     -0.4116598260
     -0.1523191129
     -0.3078535447
     -1.3325221724
     -0.1014986778
      0.2092599213
     -0.0769969580
     -0.2359940094
     -3.1625610854
     -3.2257028894
     -0.3339524350
     -0.7581910697
     -0.0601329910
      5.9412616196
     -2.2331713899
     -0.3697701261
     -0.3741302561
      1.6683844322
     -1.1036986276
      1.8737838255
     -0.7795731615
      1.1033487208
     -0.0526330054
      0.5011273060
     -1.2781371460
     -1.0095839420
     -0.7437923920
     -0.5113489656
      0.1219708595
     -2.1157724819
      0.1464043623
      0.9168788714
      2.7459053173
     -0.7381586989
     -0.7649098689
      0.8422486623
     -0.1297317447
      1.8205478844
      0.2943225629
     -0.6141404071
      0.5589044170
     -0.0003975184
     -0.1677263542
      3.6898492398
      1.7821158776
      0.0528828042
      0.0348768354
     -1.8026193174
      4.8364207402
      1.0261986058
      0.8080076374
      0.7392090744
     -3.9273624101
     -0.7328650991
     -2.7764445890
      1.1769500184
     -0.3391146721
     -1.6033080528
     -0.1704741311
     -0.7988826879
     -0.2770668720
      0.1797328245
     -1.7507651402
      0.0246371175
      1.1017220680
     -0.4659127432
      0.3582751049
     -2.1182316491
     -1.1518953509
      1.1505794901
     -0.7016619330
     -1.3415326081
      0.9560903542
      0.7739366780
      1.9480160809
     -2.6656573997
     -0.3887905339
      0.4929763218
      2.3546630067
      3.1011786701
     -0.0507535978
      1.1057728954
      0.2577788750
      3.0959218362
     -0.5045961681
     -0.8837888426
     -3.1950794607
      2.4538096950
     -0.9802752468
     -0.6580013460
      0.5813754889
      0.7097965226
      0.3132132484
     -0.2703066291
     -3.1265477909
     -1.0075060380
     -0.8512471700
      1.3967118453
     -0.3540015391
     -1.4657849488
     -0.0974782474
      0.9276390875
      0.2501391918
      0.6947552897
      1.2327461340
     -0.2695252116
      0.2243355467
     -0.2449247694
      0.8599012347
      0.2435982314
     -0.0451893306
     -0.4052266424
      0.9975005147
     -2.2099891032
      0.9446694044
      0.2572348193
      0.4430307568
      0.6545388860
     -2.1500148862
      0.4675316418
      0.4467673239
     -1.0665267919
      3.7806097808
      1.2767024081
      3.4933822185
     -0.0475881330
      0.4068737739
     -0.6587815580
      0.4733793726
     -1.4914711832
     -0.2227790544
     -0.9942652669
     -0.9135237884
     -0.9812612668
     -0.1414316297
     -0.1002839537
      1.4204864099
     -0.2853523132
      0.3822503473
     -1.0714322562
      0.4030394521
     -0.2551199128
     -0.4903761409
     -1.0273539092
     -0.9378899818
     -0.0063952498
      0.0304164926
     -0.1595380298
      3.3358502925
     -0.2966934517
     -0.4398283581
     -0.2071931542
      0.2239553034
      3.1852896430
      1.0781879287
     -0.2997044670
      0.0772569430
     -1.2093679683
     -0.4454852701
     -1.7835040941
      0.3906954301
      0.9589727465
     -0.2903975173
     -0.3422285944
     -0.8420340916
     -1.2441880172
      0.7380988497
      2.3853162055
     -0.1109083005
      2.0875403995
      0.1502444860
      0.3800020700
     -0.2806411970
     -1.0643794519
     -0.7493012491
     -0.2739175013
      0.7875876106
     -0.9069460562
      2.5050322343
      0.7293034656
      0.3522959881
      0.0004412534
     -0.3189926609
      2.5640269032
      1.7497966469
      0.1054607064
     -0.5173258397
      0.7414924257
     -7.1540689818
     -0.6943876935
      0.0398664289
      0.9761874182
     -1.0899347495
     -0.1710280388
      0.5370677128
     -0.0714278053
      4.2387046380
      3.3370518706
     -1.9614675416
      2.0709317384
     -0.6663327936
     -4.1648605429
     -2.7384687484
      1.5312588838
      2.5820654018
      2.5911593645
      6.3621194997
     -3.5052639310
      5.9793885770
      2.4339014441
     -4.4835528414
     -1.4828973389
     -0.1388094704
     -3.8200803532
     -1.3687554323
     -0.7152443204
      2.6256953109
     -1.0222167746
     -5.5584010915
      3.2896449471
      0.0223088979
      1.8178587696
      0.3556193413
     -0.2031873781
      4.0249865405
      1.5518588456
     -0.0805017432
     -5.9109363846
     -1.2688970088
     -9.3923898469
      0.6028954670
      0.2012097439
     -0.0249204592
      0.0555228168
     -1.9649017489
      0.3603987100
     -0.0355063482
      0.0271938082
     -0.0579711203
     -0.0424943464
     -0.1112484541
      0.0007158839
     -0.0054200385
      0.0084289700
     -0.0146708506
     -0.0206620136
     -0.0152444580
     -0.0166898485
      0.0086257355
     -0.0239499227
     -0.0202666543
     -0.0429653801
     -0.0284539775
      0.2106793698
     -0.4682756767
      0.1259046924
      0.0738263598
     -0.2739888120
     -0.0209795941
      0.0133636987
      0.0249807805
     -0.0085209637
     -0.0090125364
      0.1098789220
     -0.0016151217
     -0.0450989914
      1.6005330319
