     -1.4381200652
     -2.6360955446
     -0.1057719493
     -0.4121906400
     -1.9315303217
      3.8242231440
     -0.1144505703
     -1.7090572668
      1.9445199881
      4.7493819158
     -0.9621284444
     -1.0238279079
     -0.3186750372
      0.9996362976
      0.9112601841
      2.9320380940
      1.5262738214
      1.0698125152
      0.8498231393
     -1.4406050935
      0.4712428211
     -1.5903020594
      0.9902303480
      5.1736575976
     -2.6116664481
      1.0210089193
      1.2900831540
     -2.7489072951
     -1.2543555655
     -1.4973897403
      0.3948171666
     -1.9809907421
     -0.3046477330
      1.1955542152
      1.6072980566
      0.7273703768
      2.5672718832
      0.3748185025
      0.2668274582
      3.1409460108
     -2.5961027173
      0.2709731698
      1.1366265660
     -0.9047775405
     -6.7980530822
      0.4552624747
      0.9027109196
     -0.1524613033
     -4.0562205939
     -0.8881222610
     -2.9459987685
     -4.8619040071
      1.1316196385
     -1.2571339489
      4.0999805436
     -0.4703741699
      2.5937362752
     -0.0525533346
     -6.0986845719
      2.1649235737
     -4.4468775607
      1.9750702145
      0.9476533714
      2.8509642427
     -0.6054658161
     -0.3562344458
      1.6909489708
      0.9613645920
     -2.0342247242
     -1.5775438823
      1.4969226962
      2.3259734828
     -0.8497982374
      1.7600117370
      3.1975834791
     -2.8646398140
     -0.2532859711
      0.3239803006
     -0.8508608417
     -2.2890548509
     -0.5120543195
      4.0060637452
      1.2057300001
      1.1450020223
      0.3595992876
     -2.8071162837
     -7.0868616627
      0.7349622593
      1.0067520731
     -0.1127588602
      3.1663611394
      1.1948503611
     -2.3877402410
     -3.3098511253
      5.0204841225
     -0.4151312392
      1.8283807665
      3.3867650733
      1.1082055580
      1.5763503492
      1.1998508109
      2.0886138304
      0.3400114223
      0.0904884509
     -1.1043368850
      0.9700834763
     -1.9632086924
     -0.9446398455
     -3.1410096150
     -3.6606780048
      1.7293787142
     -0.4003671966
     -0.3671993309
     -1.4936369204
      3.2387453440
      3.6217073236
      0.4846416548
     -0.3684532593
     -1.9803859462
      1.2431449814
      2.2621099219
     10.1863183528
     -4.7274192113
     -1.4222820329
     -3.9862867577
     -2.2627039252
     -2.7101483649
      1.3081282422
      4.8913436840
     -0.9563342898
      2.7297958674
     -3.6205956180
      2.9823025630
     -1.7919713257
      4.5808519878
      2.8269810181
      0.2122481496
      0.5641058298
      2.5331644719
     -2.0141682782
     -0.5788265552
     -0.6972653572
      2.0181938346
     -3.5307529065
     -2.6658258730
      0.8865952921
      0.8354659287
     -0.6524804797
      1.8734477783
      5.1021716663
      0.9748006277
     -6.4811625012
     -0.0615863911
      3.3277898071
     -1.3971442300
      2.0696248618
      0.6271537378
     -0.3259361588
     -1.6287469080
     -0.3708786947
      0.3090821979
      0.0559525951
     -2.6425849828
     -2.4576865447
     -1.9707163816
      2.7657016877
     -0.2039681504
     -0.4984053491
      0.0317749909
     -2.6064789187
      0.6557995648
     -0.4937852442
     -1.9685189967
     -2.0970688548
     -0.9826996025
     -1.6977139511
      2.2879447150
      0.0155438879
      5.2020494230
      2.0408087744
      4.9102541551
     -0.3339223400
      3.3538039059
      1.3112800424
      1.1353867647
     -1.9951280420
      1.4840993297
      1.3905119312
     -0.0820297858
      0.1307790808
     -0.3679512976
     -2.6539403685
      1.2145145601
      3.7826442406
      0.8439822245
      0.5245601153
      4.6423131107
     -2.1677688744
     -1.8850593003
     -1.9992337873
     -2.3677395165
      0.9401232427
     -4.0625027166
      1.1557114672
     -5.7531120591
      0.9943758751
     -1.0028849188
      2.2150542382
     -0.6915325499
      2.4300918405
      0.6849933652
      0.2038625493
      0.8032332249
     -0.8191727700
     -0.7605686212
     -0.3513397932
      0.9987722299
     -1.4846381113
      0.3891965339
     -0.6571337617
     -1.4050051775
      0.8197826481
     -4.2843882130
      1.6809368970
      0.3533400627
      0.8596091183
     -0.8839450538
      0.1453746204
      1.6381297953
     -0.1533223465
     -0.6298139304
     -0.2871120771
     -0.6030554995
      0.2183709788
      0.2072594284
     -0.5139232116
     -1.4216076623
      0.4107475498
     -0.1986891266
      1.2910233415
      0.1705364978
      0.6790566849
     -0.0008335540
     -0.5347231997
      1.1494397208
     -1.5010429838
     -0.6921031446
      1.2985214960
     -0.1037102609
      1.1693659831
      0.7921249719
      0.3562705473
      0.8047690101
      0.2862036013
     -0.1532779643
      1.1793796389
     -0.4256993708
      0.1484003299
      1.1251227390
      0.7993486165
      0.7843257883
      2.9798985272
      0.7374693591
      0.4283915111
     -0.9433424956
      1.4618927908
      0.0582048408
      0.9315576817
     -0.0996602663
     -0.6646504218
     -1.3557022225
     -0.5531073852
     -0.5031532409
     -1.3182050011
      0.8578820928
     -0.1714046116
      0.5467491633
     -0.6392061605
      0.2090653663
      0.1293367832
      0.4762883173
      0.3830576455
     -0.5424679740
      1.1326557971
     -1.2765323925
     -0.4668159231
     -0.0032503724
     -0.2089566766
      0.4070816906
      1.7783031441
     -0.7086688716
      0.1018777049
      0.4382184920
      1.0608500352
     -0.7183460474
      0.2679009004
     -1.8251278031
      0.3083022354
      0.5361628503
     -0.4551405908
     -0.1364323424
     -0.8020103225
     -1.0929494085
      0.3594443390
      2.3250891077
      2.8632464281
      0.2724331802
      0.3286242586
      0.1142022280
      0.7516876820
     -1.2191088492
     -0.9187197028
      1.2644796744
     -0.1049500784
      0.7190424076
      1.1710171165
      0.4321081099
     -1.2028850384
     -0.6608184654
      0.3320166287
     -0.2829237894
     -0.0621981930
      0.3426332542
     -0.1817363809
     -1.7451737888
      0.8637236883
      0.6843556167
      0.3239402987
      0.4478142992
      0.1859189564
     -0.3990474271
      0.0380522214
     -1.5082593799
     -0.5287898957
      0.4654690470
     -0.5434312248
     -0.5753592457
     -0.0703300209
      0.0167272792
      0.2606803607
      2.5281996855
     -1.1655892258
      0.9476042783
      0.2004359419
      1.9773860525
      0.5590362214
      0.6451867383
     -0.1164436517
      0.7689372343
     -0.3419408747
      2.0877327073
      0.5030654701
     -0.9418142442
     -0.2439087514
     -0.9607391879
     -0.5245157987
      0.0661181049
      0.1449484622
      0.0105632893
     -1.6704483915
     -0.9940135010
      0.0984844156
     -0.2032145239
     -0.6764452142
     -1.4110642201
     -1.5623234825
      0.9020417639
     -0.9860261326
     -0.3859568335
      2.2042689491
     -1.5019587875
     -0.9202691058
      0.8702923231
     -0.3356787921
      0.0733715695
      0.3684229100
      0.1289223980
     -1.3270214957
      1.2334689148
      1.8125588348
      1.0465559050
     -0.5152525271
      0.0313857446
     -0.6147255075
     -0.1150974956
      0.3903828329
     -0.0239046254
      0.7096675203
     -0.4630446149
     -0.4317111944
      1.1623957996
      0.9656505067
      0.4616023539
     -0.1832302486
      1.5982611466
      1.4943453117
      1.2836267565
     -0.9490204691
     -0.0150017177
     -1.0638057154
     -0.5634875061
     -4.3617920470
      0.4720000874
     -0.5761254687
      0.7714340274
     -0.6715315850
     -0.0889063666
     -0.1467414762
     -0.9661889718
     -0.2565243145
      0.6671652420
      0.4443628722
      0.6229487276
     -0.0119065917
      0.4264486518
      2.0172196154
      1.4490114032
      1.1802190314
     -0.8682486347
     -1.8546000166
     -3.2891228065
     -0.2156401700
      1.4051389113
      1.6738526003
      0.9767637693
     -1.7471482645
     -1.3686688599
     -0.1924815683
      0.4484108036
     -1.0679925322
     -4.0488644795
     -4.7871851392
     -0.0928420031
      0.0786685934
      1.2138248783
      1.8267155308
      5.6527550435
      0.6050973291
      1.0421059745
     -2.0041188179
     -0.5411457558
      1.5909575327
      0.1633844353
      0.8398027802
     -1.5890975748
     -2.5173434746
     -0.8733499211
     -2.1883181181
     -1.8265135760
     -3.4899078963
     -4.7807821282
     -3.4128129785
     -2.0181493217
     -0.5090358129
      3.4751556136
      1.8442637824
     -0.5692275725
     -0.9748162888
      4.1447899538
      0.7105241596
      2.1154980414
     -1.1238296714
      2.4146974097
     -2.0148916288
      1.4990407833
      3.2772978814
      2.8342029259
      0.5233261093
     -3.7042363668
      3.9443858672
      0.9867017877
     -0.3673492546
      1.8423541888
      1.4810786490
     -5.1188248311
     -1.5586432280
      3.8203874284
     -4.9392253191
      2.6803537565
     -1.4582295685
     -3.6398093553
      0.5712901061
      1.6275732169
      1.4280250794
     -1.8655196528
      1.3807567618
      0.9988991469
      4.2735377477
      4.7981590247
      2.3005705354
     -3.0553152555
     -1.7657768641
      1.5287532105
     -4.4071761620
     -1.8253397392
     -3.7843867421
      0.2096058314
     -2.8058026225
      3.2455021407
     -1.9046429363
     -5.5610806187
     -1.7927709786
     -0.3728338861
      2.1089960264
      0.7736210022
      0.0985047738
     -4.8777082319
      0.4280158534
     -3.0707022031
      3.2028780059
      2.4093465468
     -0.6076582069
      2.2638741985
      1.4918220784
      1.7522137134
      1.2796932684
      0.7842985121
      2.3952839282
     -0.5909524629
      3.3793474257
     -3.3125235098
      0.3273978028
     -3.7763160041
     -2.4891473596
     -0.3154377696
      1.4573131986
     -0.3853847190
     -3.2387770477
      1.5279677484
     -4.7471696270
     -4.2558266452
     -0.7721897825
     -4.2620672416
     -2.2501251616
     -4.1672038252
      3.2430686693
      2.0206635495
      0.1320097914
      2.6301307847
     -1.5116445239
     -2.1150656403
      7.5422349715
     -1.7212767292
      1.8595963562
      4.6510406832
     -0.1817938455
     -2.0383883958
      6.7161237153
      2.0170374081
      1.1205911446
      1.4072721706
     -7.3569297113
     -2.3531671623
      0.7136659893
     -0.7550279114
     -1.6150340318
      1.7163608008
     -0.0685949648
      1.4782469170
     -0.6376402333
      1.7009888006
      0.8386659002
      0.1939445538
     -1.3099727087
     -0.1244082559
      1.2944046766
      1.4176536751
      1.5319393543
      0.2218165667
      4.8178592789
     -2.3026736162
     -0.0634858165
     -1.0460059020
      0.1623585359
     -1.4874972174
     -0.5133851882
     -5.5706425043
      0.4047827158
     -1.2753283204
     -1.1162061912
     -0.0081364878
     -1.4486956423
     -1.8249620049
     -2.1767324876
      1.2640870758
      2.1539309460
      2.0922930371
     -0.2486805502
      0.3496106882
     -2.8407296036
      1.3936967299
     -0.4724993884
      0.1614373659
     -1.7045896121
     -2.0076155625
      0.2561162775
     -0.1877309856
     -0.6077971395
     -0.6218344249
     -0.6369423020
      0.1214510012
      1.0173363857
      0.4872722257
      2.7782190523
     -0.0160628172
     -0.6694240411
     -2.9073393101
     -0.6304118440
      1.0001652858
      0.4077771571
      0.0950115271
     -0.3587570536
     -0.1633154853
      0.2486297107
     -1.6187440413
     -0.4114524683
     -0.1453420408
     -0.6775686702
     -0.4889033738
      3.5877107268
     -1.9713501252
     -0.5975720456
     -1.2149747513
     -0.2862097673
      1.0911954253
     -1.9123308641
     -1.7013756414
      1.2099714623
     -0.2892756508
      1.7093747795
     -0.2418573199
      1.0194426015
      2.2008467889
      0.3227161559
      1.6261425303
     -0.9264566477
     -0.9340671842
     -0.4767687551
     -2.1800111904
     -1.5037801619
     -0.8376247405
      0.6172928838
     -1.2343476073
     -0.8346817460
     -2.1489348035
     -1.2904327811
      1.3263130904
     -0.1768452744
     -0.6121254242
      3.9626337357
      0.3836935121
     -1.9585875601
      2.0800258169
     -3.9229124083
     -4.1987446921
      1.9331233838
     -1.2661544440
     -0.6965031418
     -1.5567880508
     -0.7353496528
      0.8188856805
      0.2895957061
     -2.3754950228
     -1.6402226336
     -1.4179165562
      0.3735283842
     -0.0582437849
     -1.1216333201
     -0.5813691022
      4.2996440708
     -2.1495055816
     -0.5430734738
      1.4179831524
     -1.0502758119
     -4.1024823091
      0.5738661663
      2.7710068868
      2.0606349894
     -2.9370832267
      0.8804555495
      0.6325835109
     -0.1578915990
      0.2959181114
      0.9233204802
     -2.8824646355
     -1.6730658214
     -0.7805458028
     -0.6931719905
      3.3942862350
     -0.7482613586
     -1.9265032476
      3.8857611845
      2.1157418088
      1.5852276388
      2.7981087787
      2.1772657955
      0.0548599157
      1.8523290798
      1.1817603942
      0.1541172266
     -0.1800861290
      0.1643407088
      0.0422310065
      0.0854542253
     -0.1722680320
      0.4515278824
     -0.0787325530
      0.3165562622
     -0.6665142341
     -0.4192194218
      0.4804293597
     -1.9581357843
      0.3349012211
     -0.5918067201
      0.2104741665
      0.1093416139
     -0.2268179579
     -0.0564765707
      0.0036776012
     -1.1083598816
      0.3639598255
      1.3244929301
     -0.7422653112
      1.3490980303
      1.3686834550
      0.0907485554
      0.8374472720
     -0.0785253616
     -0.3784972064
     -2.1738759656
      0.9428011887
      0.8188368739
      0.0495160574
      0.0117134855
     -0.4547418540
     -0.1100477363
     -2.0066465554
     -0.4489583430
     -0.1546659173
     -1.6345710622
      1.1820742500
     -0.1714806352
     -0.5364065833
      0.5754480191
      1.6687919539
     -0.5311361446
     -1.6129871413
     -1.7671497324
      0.9625653298
      0.5874151464
      1.2500088381
     -0.9065362729
     -0.7858396551
      0.9028858380
     -1.1522324094
     -0.0918034546
      0.0943075431
     -1.5683318192
     -2.7698270798
      0.4236909083
      1.2265153934
     -0.8118357632
      0.5191048883
      0.0969465832
      0.1067758108
     -1.0748962515
     -0.0568187575
     -0.4225067544
      0.7473428836
     -0.4027195780
     -0.1584716303
     -0.8196831014
      0.2150925561
     -0.4875877741
     -1.8172953038
     -1.9119087930
      0.1872982199
     -0.3745826978
     -1.0411762188
      1.8077847478
     -2.1685569766
     -1.2092390475
     -1.5994826823
      1.5037507714
      1.2201525090
      0.0252205872
     -2.0591117649
      0.7948865191
      0.0427173715
     -1.5764419940
     -0.7320024593
      1.5087306129
     -1.3497563843
     -1.3749250565
      1.9683935396
      1.6120068248
      1.6597765510
     -0.1179997434
     -0.6102907920
     -2.0996331027
      1.2993039735
      0.8119385204
      1.3907909995
     -0.3876586968
     -0.6634127184
      0.8798405227
      1.9740901339
      0.5897109093
      3.1576533999
      1.1810606571
      0.7393151643
     -0.3742319973
      0.5778552791
      0.8074418354
      0.2737285204
      0.4081555137
     -0.1657692123
     -0.7342298394
     -1.0716127537
      0.2436724566
      0.4098087344
      1.1279577304
     -1.6229869162
      0.8895551337
      0.5984830968
      0.0629002187
     -0.7531996930
     -0.0776951483
     -0.0223508662
      0.2613267142
     -0.5925980845
     -1.1483090303
      0.5522645200
     -1.5103566519
      0.0907748164
     -0.6655913685
      0.5887017589
     -2.7102253914
     -0.9907042931
     -2.1609301481
      0.6747793606
      1.8103423268
      0.3903803905
      1.1136706418
      0.5297677416
      3.2653443702
      0.1328169492
      1.1689388337
     -1.5108371048
      0.1047491663
      1.9897275333
      0.4163502528
      0.1053896474
     -1.0653322434
     -1.7389352505
     -1.3311425432
     -1.1135431648
     -0.2285203689
     -0.4972593738
      0.5294736678
     -0.3213852508
      0.1278428495
     -0.6704021930
      0.1715246571
      0.2981674777
     -0.6235736983
      0.2021300387
     -1.0034691100
      3.3907550144
     -0.4397775513
     -1.3182575544
      0.4710716875
     -2.2418447020
     -0.3720124110
      0.2202817844
      0.5161132427
      0.2227437375
      0.5861756704
      0.9849843775
     -1.1289684279
      0.7132135961
     -0.0877056266
      1.3835323137
     -1.3322783480
     -0.6412464996
     -1.0178113251
      0.5197739479
     -0.1156877031
     -0.1399650912
     -0.3142329224
     -0.2061103827
      0.2334444043
     -1.0255687648
     -0.2410122215
      0.1354976488
      1.2814903498
      0.0159367169
      0.2588853019
      0.4529323020
      0.8393481708
      0.1777596225
     -0.5642749626
      0.2767867725
      0.4152672777
     -0.9441692309
     -1.4290402976
      0.9356842337
      2.8471737903
     -0.1270615145
      2.8470818405
     -0.0695281837
      0.6107118278
     -0.2435151809
     -2.5595364269
     -0.1297183060
      1.0908431543
     -1.2993550529
      0.6402780520
     -1.0170844173
     -0.7301542328
      0.2845233816
      1.2887031055
     -0.2285612624
      1.5152903682
      0.1357520009
      0.1527373863
      0.5811921565
      0.1557169846
      0.5121893980
     -0.5084018340
      1.4837116521
     -0.8306724665
      0.1458132390
     -0.7306025260
     -1.1030395487
     -0.0089927887
     -1.3170228631
     -1.6965748134
     -1.4642950116
      0.4693749544
     -1.7632326560
      0.2534019605
     -2.0860085682
      0.3220449439
     -2.4649971038
     -0.7432122657
     -0.1873458257
      0.6953303230
     -0.5484937808
     -0.4045333424
     -0.8729827203
     -2.0064207923
     -5.3792133062
      1.9466781337
     -2.8232630093
      0.3290858558
     -0.6693512472
     -0.1244292852
     -0.3013499150
     -4.3487722227
     -4.6076530966
     -1.5913226137
     -0.3102674899
      0.2964837979
      0.9559778547
     -2.7762475087
      0.6596854999
      1.9634999641
     -1.9116649789
      2.8724995943
     -0.4719043137
      0.8365718476
     -1.3026456023
      0.2338065533
     -3.6010806271
      4.6746654335
      2.1195673566
      2.5758772431
      0.5267714214
      2.8645207689
      1.6147900195
      2.2557831052
     -0.4940354435
      0.4691236471
      1.1653255982
     -5.4602054110
      1.4532681715
      0.5001838485
     -0.8960208624
      0.2110222929
     -0.1678560718
      3.3370161832
      0.4161263287
     -1.1077157093
      0.3123775931
     -0.7446767849
      0.1568762367
      0.0496258612
     -1.3752393439
      1.5830949372
     -3.0208735597
     -1.2348693823
      1.1412874658
      2.8017926728
     -2.3690412668
     -0.7310971152
      2.6132593168
      1.2936069137
      2.0539508343
      0.7313948734
      1.8574001894
     -0.5422489545
     -2.7136407916
      0.7257975475
      1.5891352673
      0.5116487569
     -1.1815373379
      0.1989370036
     -3.5166695178
      0.1270657388
     -0.2107865996
      0.6159536767
     -2.1525585810
     -0.8783723489
     -0.0371795238
     -1.3101944366
      1.8137431272
      0.7131997159
     -0.0102583944
     -0.3958931018
      0.8725290405
     -1.1831963141
      3.0186542195
     -2.0785814794
      0.2673915617
      0.1667344014
      1.7554255926
     -0.6835056175
     -1.2701398698
      0.1653384398
      0.6307850310
      0.6129636440
      0.1058666279
      1.5430388595
      1.9730724844
     -0.0665998549
      0.3937130192
     -0.3868534044
     -0.0737451373
      2.1697109828
      1.3192430264
      0.7449284691
      0.1223758353
     -2.5774416320
      0.3176422672
      1.1933868200
     -0.8275217539
     -0.2151320038
      0.5487003662
      0.7016835277
      0.9541943430
      0.2436785594
     -0.6945342662
     -1.3305231486
     -0.4654132536
     -0.4854266923
      0.0872648398
     -1.5618254345
      0.7215125889
     -0.0745226829
     -0.7083914985
      2.2221282754
      0.3542609996
      0.0189259272
     -0.6932446173
      0.1725600890
      0.0324377365
     -0.9541707758
      0.2734204488
      0.8732258540
     -1.4351665832
     -0.8869410870
     -2.1937641893
      0.5893582170
     -0.2098196023
      0.1087581391
     -1.3157124873
     -1.1196251710
      3.3501348666
      0.6116397691
     -1.3281635637
      1.2145699885
     -0.1643256144
     -0.6183863638
     -0.0151763085
      0.9168472581
     -0.9062274299
     -0.1729047076
     -1.7082247904
     -0.5505667550
      1.4975708638
      0.5172597880
     -0.3214417296
     -1.5534204143
      1.3828511072
     -0.3482078349
     -1.0174749962
     -0.5466037753
      0.2464721382
     -1.3155519610
     -0.1149399716
      0.6211145773
     -0.7544248574
      1.1103658608
      0.8511862878
      0.9137543751
      0.7871754142
      2.1384293242
     -0.3541426913
      1.4878123847
      0.8142148450
      3.2142532890
     -0.9740233305
     -1.8213555730
     -0.3336557939
     -0.6960314230
     -1.1426997382
      0.0363348790
      0.8033605619
     -0.4875208149
      1.8318134781
     -4.2336318655
     -0.6852926534
      0.2862535789
     -0.2681063661
     -0.1370229986
      0.4418068379
      0.0914109546
      0.1974853471
     -0.2741266244
     -0.7021751630
      0.2103368858
      0.1045848446
      0.1344036907
     -1.4721613665
     -0.7121621746
      0.2267693327
     -0.6857163664
      1.6976976038
     -2.0011666487
     -4.4825371789
      0.4613307731
      0.7642606090
      1.4486734492
     -2.2873213758
      2.0753457409
     -0.5276432692
     -1.2383677508
      0.1736420097
     -4.7624619856
     -0.9080195603
     -0.9671605935
      0.8204088293
      1.2041804622
     -0.5889411917
     -2.9947042986
      8.3532054613
     -1.7119163231
      2.0335728487
     -1.3834373987
      2.4494644614
     -1.8172930070
      6.0646545201
      1.8617722121
     -0.3829075066
      3.9963464384
      1.3669232575
      2.1922107218
     -0.0243688260
     -2.2589727980
     -1.4461832831
     -2.3713230963
     -5.9833687786
      4.7875193078
      1.9315712193
     -1.7246669109
     -0.4832476934
      1.1522557660
      1.8513988470
     -3.2241792092
      1.6545900510
     -0.2802489936
      0.2842269466
      2.3856383505
      0.2824677930
      3.6237205536
     -0.3493590607
      1.4597999610
      0.2668901660
      0.4914639290
      2.7921803412
     -2.6335778120
     -1.6126104991
      0.2084627419
      2.7617331239
     -0.9126851229
      0.4127202908
     -2.4337065004
     -0.3245683341
     -1.4386730418
     -1.7787485191
     -0.1722156040
     -0.4943855338
     -0.4448482012
     -2.3001663729
      0.3754413638
     -1.3310999802
      2.4616500431
     -0.0730668379
     -0.2509608157
     -5.1951156030
     -0.5768952623
      1.7305858892
      0.0496772408
      3.4882633288
     -0.4648488153
     -3.2214981210
      0.2477416290
     -1.1822252217
      0.2622337060
     -0.0147485996
     -0.4964000604
      1.7049923644
     -0.5166110036
     -0.3373391706
      1.1299845340
     -3.2479400299
      1.6308966527
      2.2088431203
     -1.3504039487
      1.3231311798
      3.0124342058
     -1.4281934413
     -0.1776461981
     -0.1771297766
     -0.8570602532
     -1.6307387809
      0.8966342504
     -0.7311078511
     -0.9622271782
     -0.8485960479
      1.5950384955
     -3.0273326104
     -1.0839849987
     -0.2583580104
      0.7408953394
     -0.0116842964
     -0.9645670263
     -0.3504408890
     -4.4542328068
     -0.8361472977
      1.0018779657
     -0.0526881768
     -4.1336685091
     -0.3508183404
     -2.1605683989
      1.8382524527
      0.0003872266
     -3.7891157077
     -0.1143658654
      1.3460590153
     -0.4069791861
     -0.1984099462
      0.6356200874
      1.6032436039
      0.4745668024
     -1.5926823517
      1.8134468421
      0.5224519317
      1.2298549033
      5.2152167275
      2.6659498500
     -0.1662565701
      4.5977495636
     -2.0321439635
      0.1754238065
     -0.2343404434
      3.8906478693
      0.7530293421
      0.8728588940
      1.1710433622
      0.2966267043
     -2.3483498935
     -0.1715243432
      3.9779042799
      0.4207512830
     -0.9949607240
      0.2292830050
      0.7053722151
     -2.3992325559
     -1.8141611889
     -3.7295636175
     -1.0426434695
     -1.0080107465
     -0.8592221222
      0.6293231139
      2.7467831224
     -1.7194237280
      1.4947518472
      0.4742882658
      1.9508867240
     -0.7354612595
      4.8658788217
      1.2316815979
     -1.2835568864
      2.5506003652
     -0.7677209122
      0.5087242624
     -2.0244574614
      4.1125665737
      1.0492032624
     -1.0707662490
     -0.7618520382
      3.4527389316
      1.7658474894
     -1.6034176095
      1.4596221314
      0.4099570890
      1.8762118171
      0.9645644327
     -0.6169927290
      1.0812640650
      0.6474708262
      1.7951772859
      0.2683164711
     -4.6749308908
     -1.0367556314
      0.5333752243
      0.3578684980
      0.3103934754
      0.3893559162
      0.6968578919
      0.6662831232
      0.6048212805
     -1.0665618728
     -1.3936838908
     -0.5376528822
     -0.8417462546
     -0.1214290597
      0.2946759162
      0.2321012928
      0.6195649154
     -0.7942600416
      1.0158427010
     -0.1733496312
     -0.2452959184
     -1.4511126823
     -0.1022170574
      0.5357543442
     -0.8879990745
     -0.5167652523
     -0.6203957214
      1.8995318659
     -1.1573116840
      1.1658037751
     -1.9373619184
      5.4838260793
     -1.5999287278
      0.4625324443
      0.8450929934
     -3.1730293403
      1.5900208019
     -1.5097689910
      1.1803658371
      1.3273642545
     -1.4310785540
     -2.6660212258
      0.4555522567
     -0.8353275694
      2.6605339180
      0.7792607728
      0.5137781602
      2.8079108204
     -0.8228303780
      1.3602133348
     -2.2187264223
     -0.6559987617
     -3.6781808599
     -1.9141330682
     -2.3719934726
     -0.0082266126
     -0.6721771832
     -2.1505190304
     -3.1161224117
      0.0892920126
      0.1068139252
     -0.4689315118
      1.4293252072
     -0.8458480258
      0.0372585408
      0.0238744085
      0.7940534514
      0.4725699612
     -1.0763038354
      1.7443860841
      2.4166966876
      1.1450292658
      0.3785905351
      0.8258794135
      1.9587116161
      2.6935943458
      0.4731732810
      0.3757783448
     -1.7939486510
      0.0480494207
      0.1748797480
      0.8738331182
      0.3847552209
      0.6268416617
      0.9774901395
      0.0769458189
      0.2481306370
     -0.4761127825
     -0.1282381721
      1.6284336936
     -0.4397168582
      1.2913784764
     -3.7058901645
     -1.0421867417
      0.4095924989
     -0.9411416987
     -0.3403297914
      4.3002030325
     -0.0656176572
      0.5299985751
      0.6586564608
      0.1080644715
     -0.5020268772
     -0.7321171892
      0.2754272553
      3.7160894039
      0.2591453206
      0.8121853010
      1.5855769121
     -0.4327691784
     -0.0781311304
     -0.4681874495
     -0.5028434026
     -0.4378825229
     -0.8057818069
      0.1710755617
     -0.4047578711
      0.6122094193
     -1.1154037545
     -0.4791539754
     -0.9507937707
      0.2689137812
      0.8926130618
     -1.0875264417
     -0.4387737540
     -0.0734930528
      0.7940240225
      0.2708983505
     -0.8205170653
      0.5458114632
      2.0208250906
      0.5760986605
     -0.8786585540
      0.4822603342
      0.0888113802
     -2.2978098230
      2.9552873466
     -0.7463527689
      0.4133175763
     -2.6368722738
     -0.2943380130
     -1.1529190228
     -0.4471364717
      0.8448300288
     -0.1718399903
     -2.4137764419
     -1.2803473383
      1.5068017892
      0.5413539394
      2.1909589354
     -0.3994785553
     -1.1563977400
      2.2832584147
     -0.4958934203
      0.5815565257
      0.0144498323
      3.3993433169
      0.2901145219
      0.4096434906
     -1.5351153712
     -0.1700171716
     -1.3983996385
     -0.7832578005
     -1.5695414744
     -0.6496471583
     -0.3496068573
     -0.2213824475
      1.3177950492
      0.6676466886
      1.4033022332
     -0.4056395855
      0.7231772506
     -0.5233388463
      0.6791625195
      0.3509128259
      2.3819699738
     -0.2143993214
      0.6979876389
     -0.2635645638
     -0.6430200983
      2.2470070598
      0.7274286602
     -0.2332485584
     -0.1976200267
     -0.2599101854
     -0.3821690682
     -1.0419353185
     -1.9779248833
      1.1295067297
     -0.0190108938
     -2.3960274403
      0.2729369580
      0.4061967730
      0.8011168965
      0.2824124022
      0.2309871125
     -0.2622451805
      0.7811001980
     -0.6457448489
     -1.0206696356
      0.7389874461
     -0.3037576980
     -0.4495853267
     -0.2451602622
     -2.0340986339
      2.8475590413
     -0.0014743555
      1.0724493728
     -0.4184198673
      0.6689758855
      5.2793130060
      1.8489119960
      0.8513464850
      1.6176403734
      3.6806767872
      1.6477808485
     -3.2830885776
     -0.0925776446
      0.1258862084
     -3.4767349549
     -1.1083811228
      2.8560946364
      0.9178284427
      0.7133436854
      1.3865319469
     -2.1025649941
      1.0778126949
     -1.1972398225
      3.5674119903
      1.1826001566
     -0.6654867664
     -0.8706080174
      2.7917959308
     -0.4677628624
     -0.2880564706
      2.0656784151
      0.0857935608
     -0.8295699920
     -1.8141644462
     -4.8716440060
     -0.6360007084
      3.5786274499
     -0.9067605283
      1.8428973722
      0.0496926193
      0.5822194365
     -0.3299166808
      2.8122689936
     -2.7568795310
     -0.5977694758
      2.1572800606
     -2.7632949723
      0.8846514553
      1.5832684105
     -2.1994570759
      3.7397158737
      0.3386351039
      1.8915092229
      1.0800856213
      0.2066490477
      4.2242850314
     -0.8963559680
      0.2212989926
      2.7397156723
     -0.7418640122
     -0.6263053516
      1.1136082716
      5.5607131650
      1.4573063943
      1.5495479668
     -0.2000029041
      1.2473033694
     -0.5788585359
      0.0282985005
     -3.8689191763
     -0.2216393680
      1.9762476192
      0.7899014249
      0.5211724145
     -0.7387185300
      0.1997514944
      0.0527318752
      0.3353110646
      2.7193990642
      0.8512640762
     -2.5341194672
      4.2125259462
     -0.3139787350
     -0.9344626507
      1.6980927163
     -1.8673462399
      1.7115968011
      2.1274155855
      0.5382319720
      2.0392264568
      0.1899770005
      0.9173087921
     -0.6141083823
     -0.7447919607
      0.8177422825
     -1.0685451506
     -0.4287925771
     -4.0401946719
     -1.6095435999
      0.5413581362
      2.4472668030
     -0.9265915173
      1.2816459611
     -1.0881688266
      0.2328294953
     -0.8824095617
      1.8607032193
     -0.1684093231
      1.5669431770
     -2.2461966753
      1.9937416692
     -0.3813764053
     -0.1172304914
      0.1383214349
     -0.6534409538
     -0.8955523769
     -1.7565111880
      0.8789015929
      0.6476700385
     -0.3650297957
     -1.1714553420
      0.4429032529
     -5.7507681549
      2.4396191395
      0.3321332281
      0.8594804189
      0.6509734767
      0.4321768617
     -0.9615344175
     -1.5462399851
     -0.9556250445
     -0.7233795986
     -1.8551426532
     -3.7656234856
     -1.5504008672
      0.3904937033
      0.3364293766
     -1.3223267846
      0.0320824486
      0.6492274717
     -0.6058414262
     -1.3974447721
     -0.4214035723
     -0.8385404021
      1.4650533398
      4.0988101482
      1.7478319163
      3.2576974556
      1.5046602740
      0.7261025849
     -0.4201551061
      1.9799298772
      0.6581544571
     -0.9761293696
     -0.2525519824
      0.3714673629
     -0.2013583600
     -0.7987957051
      0.3509224516
     -1.4332079956
     -1.6734286226
     -0.3337972202
      1.2441778422
     -1.5547609030
      2.0451938928
      0.7890815049
     -0.1345148709
     -0.8579025763
      0.7689519007
     -1.8432341111
     -0.0770271881
     -0.8033004114
     -1.5837352326
      0.6141548412
     -3.9992669371
     -0.0722528651
      3.4584682761
     -0.5876985428
     -0.3105443138
      1.5057680094
     -3.1218302259
      0.9277480773
     -1.8481410107
     -0.5292598140
     -0.1820550971
     -2.0808503070
     -0.0938189162
     -0.2223170218
      0.0958810947
      0.2792078964
      1.7686391889
      0.7569971236
      0.0117028820
     -0.6773966545
     -0.2519878221
     -0.6610234680
     -1.1026583536
     -0.4988620850
     -2.5164108118
     -1.5016004093
     -0.4456688960
     -0.4625631358
      0.7853044904
      0.4252876519
      1.1830883885
     -1.4504663065
      0.6508356199
     -2.0600190764
     -0.0336968428
     -0.1652606468
     -0.2801364695
     -0.4141909590
     -0.3971717933
     -1.6261744904
      0.9359709573
     -0.3768700709
     -0.1632197898
      0.0856821299
     -0.2770673627
      0.2991271093
      2.3244035952
     -0.2844966271
      0.0254574443
     -1.1230889892
      1.1622411962
     -0.2006820406
      0.2140023599
     -1.0165918977
     -0.4682558483
      0.0626841353
     -0.5767480716
     -0.0887776182
      0.4831554638
      0.7640344273
      0.1495268176
     -0.4446475371
      0.7967537975
     -0.8213800208
     -0.8491301394
      0.2661714722
     -1.1054364512
      0.8075185679
     -2.1790372609
      0.9217600890
      0.4734650614
     -0.5326182022
     -0.0855622006
      0.4108081045
     -0.7430119108
      0.0571785197
      0.3759377215
     -0.0319298637
     -0.1458568257
     -0.9617188884
      0.8108943697
     -0.5806941325
      1.6269363114
      1.1150102216
      0.1486524110
     -0.9614431167
     -0.0087409349
     -0.5428973036
      0.7570719009
     -0.5057354517
      0.9331881177
      1.1538278013
      0.8369284760
     -0.6470710951
      0.2144953429
     -0.4278425818
      0.4959618629
     -0.4738484853
     -0.1226263181
      0.6128373462
     -0.5027825220
      0.5731861084
     -0.6301112701
      0.7255268230
     -0.1093362683
      2.6814474223
      0.2816634159
     -1.8950202710
      1.0854958399
      2.9227347791
      1.3360854651
     -0.5477043862
     -1.1214904812
     -2.0516033180
      0.1066487045
      2.2859942299
      4.2299742564
     -1.5046140731
     -0.9811827925
     -0.4632333512
     -0.8769057168
     -1.9378654405
      0.9232989635
     -4.7735899681
      2.1429971489
     -0.2527082386
      2.3728895977
     -0.4211636952
     -1.3271217749
      1.5129571134
      1.2951569420
     -0.6149589022
     -1.0424214765
      0.1576028932
     -0.4120155267
     -1.4769798679
      3.3962462401
      0.5992717026
      2.1709486899
      1.6539796254
     -0.4169487809
     -0.3279923282
     -0.6762571511
     -0.0149468531
      2.7071543507
     -1.1898098727
     -3.8505017982
     -2.0886455247
     -1.8709370130
     -1.9363983814
     -1.7426363365
      2.4434962756
      0.0639826644
     -0.0566757978
      1.0444977013
      0.9767703360
     -0.4221901928
     -0.0939645287
     -2.4445089473
      1.1427563310
      1.6006618717
      1.1166263219
     -0.4064527147
      0.6600859355
      0.7914192496
     -1.4491729403
      0.1244064770
      0.3868915288
      2.0614551772
      3.7320720187
     -0.1556226394
      0.5080540985
     -0.4299333142
      3.9678187678
     -0.0963623413
      2.1406610642
     -0.9606616302
      2.7449451063
     -1.5369012947
      2.7372635974
     -0.0860378101
      1.5651575833
      0.1679561480
      1.2030789444
      2.5124239179
      0.3280110652
     -0.3651428810
      2.0210725448
      0.1878469765
     -0.3208190150
      0.0617715090
     -0.0016383732
      1.7211701988
      1.2446003914
     -1.0182432930
     -0.2078387916
     -0.3898899770
     -0.7221104225
     -1.2198376889
     -2.3445225975
     -3.2438101711
     -1.4110464531
      0.2323427415
     -4.9918694129
      0.2196484002
      0.6256037973
      2.8832946945
     -0.1025905801
     -2.9092123200
      0.2811892015
     -0.5950351880
     -0.3667140796
      0.4439329955
     -0.4704917893
      2.8386176800
      0.6897732340
     -0.7804652951
     -0.0028735626
     -4.5587336542
      1.1274504695
      0.0417421338
     -1.0568577988
      2.9622832599
     -0.3772143450
     -1.6631142885
      3.3978177515
      0.0865507475
     -1.6996156313
      2.6135637709
     -1.9866525579
     -0.0847468532
     -6.1103838695
      0.5322676588
     -1.8868016450
      0.1511580169
     -3.1410869134
      1.3382222793
     -0.8658341234
     -1.2631775571
     -0.2455802218
      1.6666599448
      3.6074511041
     -0.9778340451
      1.5763517313
      0.4934011903
      0.0342545262
      1.4027402128
      1.9105537152
      0.7239783454
     -0.3630389458
     -1.9319906348
     -0.5999550952
      1.8168740682
     -1.3764213713
     -0.3448232709
      0.0282783839
      0.1912389237
      0.3300809213
     -0.1333820627
     -1.6658887948
      0.3413724074
     -0.4775313950
     -0.0221976166
      1.7912344683
     -1.3564202536
      0.6901501980
     -1.1122632658
      0.7944438582
     -1.6864679211
     -0.7463920606
     -1.0468543447
      0.6004299735
      0.0984093668
     -1.0482699231
      2.1335817676
      0.1166602750
      0.8252113923
     -0.3929987201
     -0.3688094830
     -0.4310036259
     -0.6251332383
      0.0810844311
     -2.6380596808
      0.2295102190
     -2.6423292904
     -0.4352648849
     -1.6148757665
     -1.1039545717
     -0.6643916111
     -1.3899244130
     -0.1292233008
     -0.8835737514
      0.7205322257
     -0.2630153114
      0.3472833664
     -0.3185720972
     -0.3987325133
     -1.1752946478
     -1.4436119483
     -1.2553554566
     -0.9171572244
     -2.1034853955
     -0.4116920870
     -0.1459586028
     -0.6179255929
     -0.1059867356
      0.4626312730
      0.1749245453
      1.8715134395
      0.3391211775
     -0.0353919265
     -1.9763292686
     -0.7539704731
     -1.0740836278
      0.2970426868
     -0.9156538629
      1.0329283737
     -2.3028692928
      0.6277242342
     -0.6621184895
     -0.3102524757
      0.0771378513
     -0.3280005452
      0.3773330015
      1.7338243354
      0.1162711743
      1.9291639630
      3.2087915281
      0.5533933040
     -1.2783963006
     -2.0156008228
     -4.2682269533
     -3.7184882473
     -0.1979583673
     -3.0731291478
      3.6532245617
      1.4231624499
     -0.8343807591
      0.5279919898
      3.9622045990
     -2.7384718751
     -3.4474686640
      2.1887137660
     -5.6541260197
      0.1573821284
     -1.6548337268
      7.2124682997
      0.4620706367
     -0.6838173737
      1.0330313437
      0.9231146989
     -0.0457773998
      0.1687477485
      0.0677887244
      1.2311744049
      0.1956167014
     -0.1320592840
     -0.1816051416
      0.0081544851
     -0.0084219838
     -0.0592767097
      0.0192245622
      0.0104010614
     -0.0318879664
     -0.0297734901
      0.0514700364
      0.0233307979
     -0.1980315715
      0.0140212866
     -0.0160419855
     -0.0208877112
      0.0329639231
      0.0151065040
     -0.0210961718
     -0.1897805516
     -0.0127890192
     -0.1002683431
      0.0316143453
      0.0032884032
     -0.0068460999
     -0.0313485452
      0.0622588627
      0.0382989718
      0.0632920023
     -0.0432255888
      0.0024911497
      1.4387233142
