      4.0799205175
      2.8434090486
      0.5149675716
     -5.6594869030
      7.1091333373
     -1.3959903070
     -2.5564789110
    -13.0953203577
      1.9428426196
      1.7213847029
      1.4942002426
     14.8719954089
      5.5556254887
     -3.7107425638
     -4.7258667148
     -2.5850557933
      4.2986244702
     10.3992278259
     -0.5096345564
      7.3204634276
     -7.0399045719
    -16.2119566431
      5.2536459504
      8.5803987017
     -1.0327170611
     -3.2914622694
      2.8510418559
      9.7672604459
      0.9601088349
      6.5059987324
    -11.1876581988
      3.0976556007
    -11.0811003094
      5.1216930804
     -9.5336161391
     -7.1605614336
     -8.4532478421
      5.6396288392
     14.7544973922
     -7.0387738638
     -0.4208219880
      5.6564879522
     23.2907391196
      3.1581015912
      9.1359945632
      7.3532086600
    -15.7432577909
    -10.7590193908
     10.1900420250
      8.9819920392
      3.8589401257
      5.4019084991
      0.2375038147
     -7.4455856166
     -1.7028039290
     12.0093815085
     14.5404817078
      1.3751487831
    -16.6236730675
     -1.9907357929
    -13.2968136314
     -3.1494995369
    -11.2929814159
      8.5459373335
     -4.5770824187
     10.7105133882
    -17.2861150580
      1.6175840723
     -0.7899387876
     -4.2750821692
     11.5061961581
     -9.8073561188
      0.1915639361
     -4.8279881561
    -13.5453037213
      4.2564302701
      9.5414558841
    -13.0362157142
     -2.9458636022
     22.1363136931
     13.6590458603
    -18.5650007373
     -3.9840418079
     -5.1132710933
     20.3492349135
     -3.0932089625
      7.6250714648
    -10.9399233339
     12.5237541247
     13.8832048511
     -0.1395768068
      7.4536473838
     20.4264657494
     10.5339059210
     -0.4444298071
     -0.5686621914
      0.2749712352
    -21.7499274173
     13.2690539832
     -3.8176043223
     -8.0527510676
     12.8927553306
     -4.0762352168
     11.3961835274
      2.2284401251
     -6.1212559459
     -0.4050187656
    -23.8799790523
      0.1891993839
      8.6707138297
     13.2050554046
     10.5585252818
    -16.8696319916
     31.5136979851
     -4.1890645320
      6.8003118738
     33.9787354659
      1.1553300467
     -7.4529872399
    -23.4960100170
    -28.3749759678
    -19.2583335332
     16.6050249364
     20.1531700357
     -6.1360482748
    -23.2078835595
      9.2979891933
    -16.3130494476
     -7.4858728376
     11.5352221689
     22.0104919436
     -2.3621194988
     59.1190325577
     11.9150084306
      7.9943257672
      6.0448814716
     12.2001759168
     19.6700144400
    -16.5794233873
     -1.5168423811
      8.1084662278
      4.5501657982
      1.2356827124
      2.6498752491
     -4.0106274420
     19.7311477663
      8.5394245446
     16.7932480930
     -5.1173402977
     10.4701393150
    -15.4670254622
      9.2953155606
      6.2817125744
     -0.9457506335
     26.2455774799
      7.0136308089
     25.4310405386
     11.2338384076
     14.7574953396
    -22.7654718067
     16.4634203918
      1.2200847214
     -2.9951965252
     -3.4996601138
     16.4541300706
     16.8544802349
     -9.1877673827
    -19.5272552242
     38.9905203916
     11.2917191569
    -17.6213283253
    -16.4578616634
     36.9037122448
     -1.2149517966
    -15.1615079279
     -5.1127663889
      2.1713848089
      6.7833937277
      0.3692999161
    -17.2609422966
    -10.9941074276
    -17.2988830407
    -43.5054374494
     19.5689051020
    -12.8606067902
      8.6705946363
    -48.0734744481
     11.7159863148
     14.3506938910
      1.3644729646
     -6.5791194349
      1.0898371769
    -23.6360286390
      7.7017322119
    -25.4524340752
     11.8895211532
    -21.7507937886
     -0.7002048495
     24.9589619803
      4.2979164293
    -37.9133058124
     -0.7148617850
    -31.1800299476
    -16.6488893225
    -27.3196605255
      4.7426045067
     -9.0638298216
    -56.8998882435
    -21.0098813833
    -11.8033956851
      5.0643829853
     29.8958476748
    -15.6209586726
     64.6956972192
     -9.9755765841
      7.0289538138
    -12.5371099483
     -0.9458402606
      8.2241364767
     -1.1242074554
     -2.7845747153
    -97.5314478498
     -5.6462033553
     42.5299030070
      6.2860133666
    -40.0438493362
    -11.6988787469
     -0.3717042185
    -10.2769245508
     13.2393934579
     19.7966009411
    -12.0033488042
     -6.4295210236
     -9.5772108779
      9.9282933104
      7.1792201870
    -42.5780751817
     75.1806650994
    -18.9769553386
    -23.4650364848
     -7.1978276934
     -4.4401515545
   -117.8558951374
      5.4455916813
      8.5241695736
      1.8411717880
      4.7775507608
     -6.1539833224
     -5.0529809653
     -2.0204833381
     -2.3753522018
     -2.1563849002
      5.2001499490
      4.3439126502
      1.1782579878
     -4.8185817096
     -6.6744116780
      3.5067137253
      1.5545908087
     -0.3436212669
     -1.4792310189
     -3.4065495499
     -5.0294462676
      2.3347576296
      1.3419366131
      0.8350172172
     -6.9499286434
     -1.7741729826
      2.7527768718
     -0.1658689872
      6.8300017719
      2.3064345722
     -4.6204509811
      4.1055871845
      1.7059203911
      8.6975297960
     -0.7522616304
      5.3251778399
     11.6773255335
      0.2806536584
     -0.2773179625
     -8.0550267188
      5.8599931951
      2.9494326475
      0.8803689141
      5.3165335286
     -6.8961113041
    -15.8423997297
     -7.1744349092
     -4.0709013988
      5.5086336668
     14.3465668104
      7.7804119367
     -1.2823329621
     -3.3014944744
      4.1930985031
      5.9671927236
      7.1308188716
     -0.0589400707
     -4.1946370190
     -7.6338063547
      4.1821010380
     13.2166470986
      7.5401810152
      5.1611355885
    -14.5578422676
      4.3870220057
     11.4435119038
     -5.7299250307
     14.1785971661
    -12.6866606862
     -1.9992793419
    -11.3550481549
    -16.1149584466
      6.3290211380
     -1.1374661550
     -0.4209395515
      2.3560848872
      1.5706229928
     -2.1461171046
      5.2517998745
      1.5446218045
     -0.6746439291
     -0.3715234347
      1.2742094726
      0.1678391961
      0.5297647503
      0.6610004898
     -0.7306560230
      1.0777784202
      0.2270776371
     -3.8670084973
     -1.7228269816
     -1.0414992200
     -0.8705078971
      0.0533541043
      3.2751119198
     -0.6393215927
     -1.6960566453
     -0.3638604495
      0.0218176021
     -0.3688327555
      0.5953600755
     -5.3623548093
     -0.5437167517
     -0.3255252898
      1.9349455440
      1.6627838218
     -1.4892421484
     -1.5339774388
      7.9112119914
      3.8592760197
     -4.0497229411
     -5.1797496037
      2.5517383648
    -19.4327155074
     -3.9877343137
      3.2987778272
     -1.9506787968
     -5.4846961426
     -3.4385526326
     -2.4778836068
     -3.5894276910
      1.7992938628
     -3.7793812918
      3.0607460634
     12.0895014029
      0.0792712538
      6.2037322920
     -5.2331208383
     -1.0007959281
     -5.2439613597
      1.3651052850
      4.6771120689
      0.6240202508
      3.3361335168
     -2.5357019773
     -1.7432694786
     19.7094837788
      0.3887591085
     -1.6548805737
     -8.2658772158
     -6.2530073123
      2.9234763385
      2.7744238822
    -15.8656498023
      2.4689653171
      7.2140853918
      8.1828332445
     -5.1692910509
      1.8282994594
     10.4783907118
      0.1402008727
    -11.8825261561
      2.5090894864
     11.9008620055
      8.4402739556
     -4.8344741503
      4.0844902972
      7.7369603766
     -0.1827676098
     -6.4571663192
     -0.7076369665
     -2.6444959387
     -4.5685973006
      2.9114873166
      7.4675660309
     -9.2867893675
      0.9216860498
      4.7434743331
     -8.1161640590
     -3.2802089433
      6.7928072594
     -7.7921327851
      4.4507132162
      0.9791801029
      0.3176656470
     -4.5667439311
    -16.8096858891
     -4.9475150437
      1.8482180731
     -3.5346600831
     -5.1702952991
     -3.7386733618
      7.2154728400
     -7.4749762628
     -4.5347626909
      4.8203247218
     -0.0804902037
     -7.2770661530
      1.7342269692
     -2.7704073538
    -10.4172401619
     -1.5919897977
     -4.5471131076
     -1.0495608379
      7.9529858185
      4.9137459477
     -4.3529468667
      5.9256798176
      4.3764320056
      0.3763054458
     -6.9570427008
     -2.9138892936
     -0.1444259309
     -1.7246510244
      0.3124537577
     -3.6563806658
      1.6292258881
     -2.3295337266
     -0.3113481113
     -4.8360755854
      0.2074791035
     -3.6706996105
      5.0436132650
     -4.9033568005
      8.0536800034
     12.4104307585
     -1.9287043393
      9.8766064209
    -14.2522835909
     -3.4401164693
     -2.9158678498
      9.1619984683
    -24.7186004491
      2.6507602522
     -5.9906194289
     -8.2002744808
    -15.7583790167
    -17.6976053557
     15.9487951092
     -6.1116850562
     -0.9292914617
    -11.0939386491
      3.4851975895
     -2.5334546628
      2.8012563471
     -3.9465745113
    -25.6566687533
     13.8614779951
     10.0958850979
      8.3632180666
     14.8452523606
      0.5217456656
      9.3954086080
      0.4146512455
    -10.2953261785
    -17.8709529405
     -8.4018868945
      4.4418948094
      6.6376281945
     -5.1756467437
     14.9807665032
     22.8030404845
      1.7616657449
     -5.8557187821
     11.2680703457
      5.0460893746
    -11.5917495695
    -18.6146380752
      4.4656235628
     -7.8958849039
      8.1453497837
     16.0828734263
     15.5251742818
    -15.4128259964
      2.0807765118
     -9.3573088087
      7.6998604887
     -3.1415444006
     -5.7910246813
    -10.1814574929
     -3.7886703817
     -3.6643493077
    -10.7666932022
     -5.4046858467
    -10.4573695144
    -35.6196232258
     -4.8184140126
      5.9998279095
    -17.4543286157
    -11.9641019749
     22.5192407494
      1.5126811516
    -17.4775375029
    -21.3087946719
    -26.3335774668
      0.4319112156
    -15.8980495230
    -11.2265878185
     -7.4313911782
      3.1701155799
      8.5881142067
      9.9553954770
      6.9977271273
      1.7637335311
     -8.8858340872
     -0.8211047285
    -16.6201226041
      5.5494909251
    -11.3949947021
      2.8385422255
     11.5313222391
    -27.2503706320
      2.1913894527
      4.0588104651
     38.6136711231
      9.5574178446
    -16.2216227032
     -6.0948263402
     34.0569578973
      6.1120073852
     50.4202520074
     15.9672000093
      4.4806737562
      7.1056405149
     13.8094804733
    -16.2486045133
      4.3411978338
     -3.4766076721
    -14.6209974506
     12.5186580362
    -17.4794568283
      6.1820116312
      4.7802499601
     14.4513292670
      1.1632220618
      5.6924475595
      4.0172736347
      6.7664052945
     -5.6971913676
      3.1678278979
      8.5854612690
      9.7875361747
      7.2455144591
     -4.5496247358
    -11.6459475457
      9.1427112508
     15.5712777840
     -1.5872708111
    -10.0469580171
    -12.7076660009
     -5.8420502151
     17.0885442349
     -9.0878661123
      0.3455849844
      1.7855491903
     14.3784633256
     -6.1010023185
      5.1635751556
     16.8600790825
      6.0545448093
      2.7090785654
     12.5555431060
     -3.1413719610
     13.7181408854
     -0.8363371213
     12.6924778943
     -5.3224472547
    -10.0617581291
     -2.1292014927
     -9.4671859652
     -4.5766990917
      0.6303835410
     14.0843645510
     -6.1815467805
      0.9633099866
      5.8251788335
     -6.4539222420
      2.8321277290
     13.7565990231
     -7.7129202227
     -0.6287584167
    -13.1026665572
      0.7325213851
      2.8467132791
      1.9772040026
     18.3044465801
     -7.0145176287
     -1.2256566397
      0.9160789313
      5.5321869227
     -8.1541989156
      1.3995441764
    -11.0120895284
     -4.2340806297
     -0.5976277987
     -0.7063432447
     -6.9196125593
      7.8055473259
     29.8931278013
     -2.5417331121
     -9.1192035470
     -7.2361684245
     13.8740699141
      8.4299333295
     11.8195619000
     10.6912489073
    -17.9655017440
      6.8853422148
     -7.4401403455
     20.1917028771
     -9.0315264705
     24.0031779540
    -21.4431641272
      5.4235322838
      7.4750689131
      7.2795958252
     21.0794360235
     -9.3482473982
     -2.3879316798
    -13.6759452720
    -25.8624581687
     19.6732933696
     15.2133514568
    -20.8010597801
    -28.1984908635
     -7.2887468221
      6.9306385072
     -8.9118839408
      7.3104884711
     -5.5339433434
     -7.5324057844
     -8.7957247378
      3.8394649952
     16.9912426375
     -1.2037329895
     -7.9292211224
     -8.6792407738
     -1.5628458436
     35.8508382939
    -15.9513681687
     11.2583940632
    -14.6847896670
     30.1597798791
      4.0731737554
     10.1213186946
     10.9330282822
      2.6833086141
    -11.3382809673
      2.9128736533
      4.0300273697
      0.1364107168
      5.7842716604
     -0.3269096305
     27.9520317353
     12.8317676594
      5.0803488770
     18.8507709379
    -21.9276023793
    -35.3432240776
    -34.8845358070
      5.7836586425
    -10.0254312122
    -33.2236373740
      6.8312992851
     21.9025784756
     11.3214829590
     18.0540270505
      7.6615196161
    -62.1454097082
     11.0016776505
     36.8074385749
     -4.3271325767
      4.9378076832
    -48.8672729744
    -18.5825723017
    -22.0708147797
      4.4899450913
    -19.8093303144
      0.0398517110
      9.7378879578
      9.0844471081
     -3.6834238346
     -0.8649710240
      5.8370150334
     -6.4674478868
    -10.7746110167
    -34.9741096137
    -18.7628888559
     -7.9311791622
     15.6593812201
     -8.6941978544
    -23.3615307151
      8.6686806326
     -5.4533449422
      8.7022046206
     -7.5570826888
    -12.8870288724
     27.9558868217
      8.1614145143
     -5.4242051584
    -26.6902006229
     12.6902908460
      2.7511440322
     -6.6247569685
      5.4209107217
     -5.8697765248
      5.9359318528
      0.8449274049
     -8.8845258967
      2.3106189933
     10.9852507144
     -0.5580303131
      7.8953661830
      2.8943235121
      2.2376020653
     -0.4369089772
      8.2653835408
      5.7710544449
     -4.9693371050
     -9.7184786245
      4.3900517279
      0.7047682041
     -2.0927422487
      2.3273308141
      3.3159533261
      0.2629184463
      1.1743928409
     -2.1018410158
     -3.7987303018
      6.2063669214
     -1.9096090768
     -6.2234855378
      2.9099510913
     -3.0445669501
     -7.2475664389
     -1.6070962185
     -0.0314817869
     10.0728613801
     -4.0604049126
     -1.6745692896
     -2.8707764794
      6.0306417365
     -6.8361985465
      1.2955940926
     18.1484381097
      8.8973887940
      3.5161151189
     15.4145022811
      9.7304107289
     -6.7427406278
     -8.8324377676
     11.7608969258
     -4.3927238643
    -14.6912722244
     -6.3958250665
    -10.5796280975
    -15.7187480078
     -5.9841354354
      3.1961357913
     -7.9270531389
      0.7729759710
     -7.3803054395
      8.0304487677
     -2.4786755668
     17.0651650377
     -2.5931735852
     13.6871409981
      7.9405827654
     10.5296408813
     10.9094684183
    -12.4490633854
      3.2671286490
     -0.4748341045
     -9.1211479778
    -10.8220734001
    -12.0615302059
      6.4676893569
      1.8792683148
     12.6058751691
      7.9745742878
     11.8755845900
      9.6059133097
      0.8236699366
     -3.9738957072
    -14.8292140037
     -7.7022464205
     -8.1190514772
      3.0097623267
     -3.0422261344
      7.8074341819
      5.4646311880
     -6.1559954650
     -9.9273780357
     13.1082798029
      2.2582184363
     -1.4324589443
      7.5826639725
      0.5397435486
     -9.4129704888
      4.6399775356
      1.0888004170
     -2.0939327638
     11.2822671189
      5.0571124470
      2.9201650849
    -13.7944281464
    -20.6637304799
     12.9530654940
      2.8282749092
     -0.1705950411
     -6.9108658374
      6.5443939961
     11.2728102479
      4.3768263856
     11.5261965927
    -13.4411449438
     -7.3732284482
      7.4344327393
     -9.8576743590
      8.8773850008
      7.6273109154
     -0.9979627605
     -0.1359395227
      5.6523217326
      1.7355509582
     -0.1968884193
     12.5185673173
     11.4631266529
     10.1444548709
     -4.0196585524
      2.9588408560
      5.5237317749
      6.4665724263
     -2.9823465174
     11.7331334297
      4.7583890843
     -2.9169228517
     11.5538405059
     -7.7370853685
     -1.1246579494
      2.8414065133
      5.8422704989
    -13.4296589074
      4.1384873413
      3.3036813382
     -9.4916607413
      6.3669808680
    -20.3295925305
     -3.0679769494
     -1.1445140872
     -3.8010802109
     11.9761325263
      3.7243065221
     10.6642143146
     -3.5319538644
     -5.5103323858
    -10.7367272673
     16.7684956005
     -6.3162403535
     -7.0082826282
      0.4251373641
     10.6804256079
     -9.0574940135
      8.6544914705
     -0.5509401510
     13.6255189034
      8.4495869141
     -4.4966695425
    -14.5569889963
      3.8992086097
    -10.4094979020
     14.8046280190
    -10.7225362316
      8.8988257251
     19.1126206385
    -21.1232139911
     -8.5971555902
      0.8643854051
     -0.8888368510
     -1.6661704933
     -7.3816584176
      0.8741782385
     -2.5684958924
     -4.9859821742
      0.8147836713
     -8.7208237137
      0.5462487096
     -6.6761718510
      2.9190784783
      9.0142385417
    -11.0916687357
      9.9519028978
     -6.3631896608
     -3.2734279464
     -2.6219993054
     -0.4201939957
      1.1088236398
      6.3881694678
      1.1894233633
     10.2298008894
      0.9249438255
     -2.8136685006
      3.7351653610
      0.0014746351
     -3.7265250685
      0.2936545512
      1.1361560184
     -8.4364231708
      4.1036697789
      0.1997489027
     -6.3592750706
     -0.5160750033
     -7.4325572474
     -7.5621994614
      1.7650393976
     -3.4835788679
      8.1126034172
    -14.3619061985
      5.6666564147
      4.4189609917
      3.6579148357
      4.9780432868
      7.4761549807
     -3.8351157867
     -3.4269266093
    -10.4926360280
      4.0357185681
    -19.2470065108
    -19.0375736184
      1.9215519961
    -14.4707240357
     -7.3450071607
     -2.8952920401
     -9.7504179647
     -1.7725093517
      5.4623739638
     -6.2174689288
     -2.5834166099
      2.5483201248
      3.2609248262
     -0.7426537858
     -1.7831977315
     -1.1558323042
     -3.4682467642
      8.3813872848
    -18.9923075274
      0.9684054586
      2.2193279820
    -14.6937192262
      0.2187156789
      0.4230053868
     -6.4263663385
      1.8359283641
     -4.0358209635
     -0.3954966807
     -5.0160011164
     -1.0372105065
     -2.0984396030
     -7.1690689038
     -1.6026295389
      1.1104696375
     -3.9553337396
     -7.5689732850
      6.0529910297
      7.5500124331
      5.4613488774
     -0.8591968443
     10.1378786451
     -2.7880125819
      9.5116437023
    -12.8413211445
     12.0818751984
     -5.2651661381
      2.7259441226
     -4.0375337004
     -4.4704017683
     -1.1212084969
     11.5361597824
      1.6329139802
     -8.7875071007
     -5.0763251612
     -3.6291649236
      2.7559357474
    -11.5657883529
      6.8901856889
     21.0601703880
    -13.2179656274
    -15.7034254809
      3.7962596052
      0.7343545736
    -18.9944446345
     -7.2322340510
      1.3992472998
     -9.8455351249
      2.8321215272
     -1.5761238066
      9.1058533904
    -10.5311966792
     -3.4467872400
      0.2146889928
    -13.1715287264
     10.5632163278
     -3.7136224292
    -13.9353574795
     -5.5327750202
      2.6502259637
      5.2722084843
      0.2800817988
     -0.0557644767
      1.2172526740
      0.3928493417
     -0.5736343254
     -0.1075588186
      7.5975558116
     21.0493146067
     -1.8826172230
      5.0139781306
    -13.3437449091
     -5.4545156673
    -12.2849930424
     -0.6446932163
     14.5140102889
      9.0950736132
      3.4152957068
     -3.0423661284
    -14.9906888466
     -2.7551716182
     -5.7271962569
    -11.3845409610
      8.2474598503
     -1.5868086538
      1.3473930119
      8.4027068644
      3.6084307561
      2.2866754695
      2.2693448508
      3.7809656736
     -2.7646315744
      1.1435355261
      0.8932573903
      0.2675394974
     15.6597983137
      9.9745148811
      5.6236067521
      3.2899573510
      0.3551188574
     -0.0554468519
      0.2985297413
     -5.6865213774
    -20.0942340694
     20.2811201203
     -9.2962103258
     -9.0211034108
     12.8561526796
      6.7288682336
     -4.7265136304
     -1.6455350964
    -11.9869490239
    -11.7929034974
      0.0987629908
    -16.2057937557
     -3.3213839000
     -0.9462937475
      7.1141029071
     13.7912070705
      4.4126461088
     -1.7423487425
    -14.2070626217
     -7.1177638801
     -1.4226907711
      4.5301324927
     -2.3955622917
      5.8209622480
     -2.9842129855
     10.4229965377
      0.5054314013
      5.1700748606
      5.4801992522
     -3.3977176942
     -1.8058416614
     -2.8429598887
    -11.7933202478
      2.3609746245
     13.8203177903
     -7.2821404669
     -1.2196614319
      0.5101325865
     -8.4732302164
      3.0238972026
    -11.5926383993
     17.0995242369
    -10.1498036171
      2.8179211207
     -0.9972886166
     -3.7355359785
      7.3565744117
      0.5910329561
     -1.9049891497
      5.9971901911
     -5.2008473519
      5.1544428908
      0.6916505458
     10.9627682944
     -5.0398944895
      1.9079727302
      4.5859733633
      1.7373937390
     -5.2415006148
     -4.8468044734
     -1.6611770620
     -0.8088388250
     -7.9163230717
     -5.0926443753
     -5.9867531443
      6.0272852142
     15.9457483583
     -0.0834984970
     -6.1810172290
     -7.8745525055
    -17.1353638678
    -12.8937952930
     -7.8284762654
      5.9078144154
      4.5399257359
     -3.5154793698
     -8.6619061285
    -25.3941295008
     11.4587029384
      3.6044483299
      2.9574564708
      1.6115302079
     -0.0057610361
     19.6732243932
     -9.4466304701
     17.5370861158
      3.7631985660
     15.1610164562
    -17.4205276286
     -4.1008281719
    -26.4080423859
     16.8607041221
      2.3767282617
     26.1677680122
    -21.3365948045
     14.6559283145
    -12.0289314531
    -12.5223160653
      6.7294613685
     17.1715978704
    -15.1047634581
      2.2973823465
    -25.0289740269
     -7.1262223284
     14.0999274181
    -12.5200796753
     26.2090744747
     15.5363898409
     -3.7986777565
     11.8575072702
     -9.3713994223
      1.3911480290
      8.9984003196
      3.5792806500
      4.0714048291
      8.5245749649
    -15.2875401271
      2.7923090694
      8.0497851863
     -7.1160965389
     13.1104818917
      3.8313408139
      3.4351479490
     -1.2865897802
    -13.0486378112
     -1.3389267344
     -8.1441991375
     -0.9269658983
    -10.3422724718
     11.7842183580
     -0.5951352056
     -2.4965833650
     -5.6865794367
     -8.1907984383
     -2.6054233021
      3.0826463212
      6.4092922853
     -1.4528357693
     -9.3054766532
     -9.4406446424
     -8.2832342215
      4.9185319639
     12.3720668440
      2.6588874837
      1.0498244752
      5.4992192675
     -5.6282536362
      2.3787929249
      2.9379284153
      1.5345062609
     -2.1393793790
      6.6088956817
      7.6140186291
     11.6503843013
     -5.6559998440
     -5.8711957990
    -19.1574414357
      1.7697231104
     -3.3604764535
     -5.8323885728
     17.3811159588
     15.2095365940
     -4.9905480380
    -15.5292200115
      4.5157935576
     -0.9324579177
      9.2707887663
      0.3415643162
     -7.9716101352
     -1.1780582083
      2.5181987767
     -1.3922920064
      0.7321824978
      8.2469680763
    -19.7750907502
     10.4105206327
      8.6632650410
    -23.8549445804
      0.9750254301
     -1.7975636651
     -5.4717289567
      1.5778708820
    -10.0970403148
     12.6197323531
      2.9638197745
      7.7178507982
     -9.0060989023
      4.6372884518
     -6.5849349996
      4.4919154042
     -6.3945445005
     13.6669969476
      6.6410533763
     -3.2531262902
      5.3398766117
    -15.5646124733
      2.0008711019
      8.5512036358
      2.3686260396
      5.8807108112
      4.1036953649
      6.2583087363
      0.0797803300
    -13.6673411775
    -11.7434252991
     -7.8877520328
     -1.2715851756
      3.7576929955
      2.4702232500
     -2.9287880237
     16.5229072501
    -10.7951138407
     12.2645132240
     -7.4388853895
     -8.9662382357
     -6.3460824624
     -6.4784186588
      5.3138470084
     -6.8198033706
      1.4307341361
     -3.8115432557
     19.1478140631
     -7.1979151388
      5.0710815862
     -4.4337657473
      9.1180202858
     -5.3228176176
     22.7784823616
     -4.3295850050
    -11.4028580483
     -7.7823376494
     -0.1731962695
      9.3859746589
      9.5375850471
    -11.4943856337
     10.5271875665
      3.8348256250
      2.4329344127
     -1.2840036744
     12.6608295752
     -1.5207548845
      1.6101027833
      2.9979633663
      6.5577269598
     -3.4591617496
      6.4886501431
      0.3216417979
     10.2474099506
     -5.4663417994
     -0.4208492946
     -3.9477090371
      5.0186021352
      3.5063795397
      5.5606908264
     -4.1725235413
     -1.9196932552
     -9.1605329202
      1.4311910189
    -14.0023222737
      9.2738480905
     -3.4271501250
     -2.8624452581
     -1.3255637776
    -16.6651362238
     -2.1805070673
     -2.8702293496
     -3.9144267469
     -6.0838404531
     -1.5801719502
      8.2773133145
     -3.4972646903
     10.6596684626
     -8.7491385703
     -5.3705282195
     -5.1568899769
      4.3156077197
      1.2671199107
     -3.9376663342
     14.0343256932
      8.4502698303
    -16.3530652372
    -10.2815331093
      3.0680444233
      8.1948766729
    -14.5610206045
      1.5784658480
      0.3067170623
     -6.8137615043
    -11.1158323440
     -3.3278635025
     -1.4114014957
      8.2185821892
    -12.1049109960
     -5.0442736951
    -10.4386367262
     -8.5132043330
      0.5233738231
      5.8073811291
     -3.0912303655
     -1.8180306658
      8.5379033707
    -12.3266173422
     -4.1185387181
      0.1758745264
     -9.4282458398
      3.7713804848
     -1.3433441821
     -0.8239671010
    -12.2910634999
      5.4854437374
      5.8886675048
     -5.8826125774
    -17.9512957966
     -2.0591806934
     14.9898773615
      0.7492133052
     -2.7146275948
      2.6007044620
    -10.8206023100
      1.2214691531
      0.2563747038
     16.6839539142
     12.2928204324
     -0.9378044830
     11.8246192100
      1.1029122667
     -4.1742499222
     -6.8619582008
      6.9599729224
      2.6197704063
     -1.5703756811
     -2.2204330121
     -1.5251406788
    -13.3133097207
      3.2158789581
     -3.0005753955
     18.9132477121
    -10.4960699551
     -1.0674173035
    -12.0709756562
      7.4554334224
      3.8590601034
     -2.3152924783
    -10.7831626560
      2.0014645052
    -11.1616381017
      8.0225550895
     -5.2244582626
    -18.5124899570
     -5.5045549054
     -6.9432866961
    -17.3908589581
     -8.3413423605
     -0.8335091863
     -2.0659215009
     -3.8526647516
      4.5034466159
      8.9497257572
     11.9778070326
     -2.5395983694
      2.4395569030
     -9.2486065398
     -2.4168005472
      5.6754970319
    -11.7535408745
     -2.4186169501
     -2.8946346948
     -2.6402300947
      5.2440484460
    -14.4680641726
      1.0159051518
      3.9392016668
     -4.1097392202
      1.0659571767
      5.5909708185
     -3.7751007561
     -2.9512435070
      2.0671519503
     -7.6204315616
     -1.8783712380
     -2.1721918769
      3.2253864770
     13.9967013759
     -2.3990611604
    -16.5243778009
      6.7812674748
     -0.7215197557
      3.8097043768
      1.1124585984
      5.7162141933
     -0.7079050912
    -11.2396453447
     13.0868175652
    -21.2811735089
     -6.0371210105
     -8.9575857936
     -4.1097185997
      9.7339844740
    -16.6842572518
      5.7193341448
      7.0903927204
     -1.2383683174
     -0.1334679278
    -20.0621738783
     -6.0566957358
      6.5817221058
     -0.0111661568
      4.8068009093
      4.7038723324
      9.7244470072
     -1.5598059768
     -3.2382843272
     -3.9205577305
     -7.1756038346
     16.0894928671
     -7.4127784190
      5.4487180073
      3.2266145596
    -16.4167340411
     -6.6519652405
     10.3221430037
      0.8070683231
     -9.7531521969
      3.6354591336
      8.6435216649
     -3.8834314470
     -0.1988019813
      3.7883872351
     12.5947167926
      5.7964117814
      8.4825689189
      1.7581812034
    -10.7139182193
    -11.4740519635
      7.5827068836
      5.3910457179
      2.6065751502
     -5.0712522322
     -4.2393661718
     10.5057419086
     -7.6946138481
     10.2699568245
     -1.8399075915
     -1.3459377948
     -5.0531789299
     11.9383804797
     -3.1955296783
     -2.1871696612
    -10.4336245582
      1.8519262929
     -8.6287493788
      9.6633483764
     -4.3048187481
    -12.8070885685
     -1.9767569507
     -9.2292617934
      1.5779150036
     12.6593470889
      2.8355457690
    -15.0923898749
      0.0263113650
      6.7207129306
     -7.9422767651
     -5.7581446121
    -11.6946532040
    -13.2446112184
     -6.3851720302
    -15.2024616410
     -8.5567943647
     10.2929615552
     -3.4875272168
      9.5434852276
      2.7571907754
     -2.1080762518
      1.0366194435
     -2.7743508909
     -6.8888012857
     -5.2418347342
     15.6225615279
     -4.6855305831
      8.6261593713
    -11.7145897694
      8.5307219751
     15.0900475760
     10.3407606980
     -5.0545398178
     -1.0190993347
      7.1198260984
      0.6178050257
     -3.1293548543
     10.6588542620
     -6.5869034937
      0.1026837478
    -10.4585123199
     -0.2337026538
      1.3971387007
      1.2718497894
     11.2830124887
    -15.6923435605
     -5.4137207372
     -7.4171241384
      3.3683833964
     -1.6848079148
      3.7796376429
    -12.9224081690
      9.7489121768
     -5.7828300145
     -0.3231628830
     -6.1314931333
     -4.2680820363
     -1.2051583165
     -2.3649504438
     -4.4484968502
     -6.5286570380
      1.0926700163
      3.7980679360
     -6.6245424968
    -11.6819518245
      7.2868416371
     14.3786264593
      4.4844484688
      0.3696868279
     -6.7301652523
      1.2931516988
     -0.6149627527
    -10.7418033109
      3.5651194894
      6.1070545695
      0.8376593523
      6.8567636484
     -3.7950771566
    -19.5825174418
     -3.9588614802
     -6.6099584602
     -3.1986856766
     -0.5165149315
      5.9697969630
      2.7163675049
      8.9049823400
      2.8682577907
      8.2623761730
     -9.9663554331
     -3.1701999899
      0.0510592800
     -0.0214132951
      6.9505265758
     -5.9511541362
     -0.4058894304
     14.1815591049
    -10.9663872331
     10.8924197620
      4.2879469715
     10.6928034450
      2.9893244749
     -3.9689461412
     -7.6309365162
    -23.5661718675
     -6.7400799790
     -7.3955431235
      6.5320853337
     -2.0594388840
     -3.3331950986
     -3.0354970953
     13.4524339193
    -22.5963312878
      1.1438319459
    -17.0742969272
     -8.9534215223
     -1.4798301278
     -3.1291903065
      4.2149322430
     -5.9446533529
     15.1543080841
    -19.2586092238
     -7.3145373122
     -0.5844607455
     -3.9536022072
      3.5441854721
      2.8381927194
     -7.6391535988
      1.7387017137
      0.3358217627
     -4.8376751529
      8.8498206017
      1.0826850761
    -11.1016695320
      5.9944879719
     -7.5926489952
      1.2516632569
     -6.6017593416
      1.5082044727
     -8.8059395020
     -5.7071054954
     -2.9219529522
     22.9690003104
      8.2163506403
     -2.4687029890
     -0.2591996430
     -5.5017878674
      3.4502549766
     -6.3793037604
      7.7449320640
     -1.4155079074
     -4.4955809096
      1.0120683873
     13.9078868281
     18.3398922259
    -11.7704727159
      1.5369052372
     -8.9945748097
     -8.2605475920
      7.9067995866
      5.4008231480
     -3.8481802395
     -1.1916889311
     -9.6244629794
    -18.3061108544
     12.4400370261
      0.6525196081
     13.4118835986
      2.3971689000
      1.1090998685
     -6.0517135601
      7.8510592214
      6.0256895030
     20.5127875096
      9.7768274839
     -1.2837293969
     19.5317447972
     13.2822939760
     -2.5790675318
     -7.4696662055
      1.7012120340
      3.6188771732
     10.2738755619
    -14.0496830965
     -7.6080854682
     11.6043459455
     -7.0826151197
     -1.0090321950
     -4.7081994816
     15.1389378724
      4.9315676046
     -3.6586889536
     13.8563224839
     -7.4141304640
    -26.8406399850
    -12.3036783243
     17.6086815513
     -9.7390209274
     13.5941444989
     -7.9918690342
    -19.5085400987
    -16.3813460441
     12.3349577717
     -7.3170419826
      9.9563101488
    -10.0085289189
     -6.5374412005
    -14.6710485420
     20.8520934304
     13.4780041987
     -0.7045279077
     -0.0118438955
     15.7611725464
      2.0431643939
    -10.0725004141
     -7.2741264725
     10.1892308306
     -3.3887752911
      4.7630957152
      4.3981837462
     -5.3591896740
     -3.0336190427
      7.6030532021
     -6.0737650954
     -2.8972856799
     -6.9447623720
     -5.6910182975
    -24.6343326820
      0.9704333755
      2.8537475616
      0.1136940765
    -17.7754919354
     -5.5706866510
     -5.1177771215
     13.8106750025
      6.7235291408
      5.6138124742
      6.0696658027
     -5.0336253601
    -15.0709498469
     -4.6101902929
      0.6203721253
      5.2944900713
      2.8635201542
     -6.9748508204
     -5.6640253767
     -7.8741783112
      8.5604004693
     -9.5644664596
    -18.9015791320
      1.6528134425
     11.6397797565
     -1.7949898304
      7.0923056099
     14.1721249555
     -6.2534624167
     11.1722501951
      4.2101765283
      3.6921240761
      6.8609353146
     -9.7937457988
     10.7704585014
      7.3086624957
      4.7164677204
     -8.1024791428
      6.2136273888
     -8.0592589166
     -7.6160861932
      3.8474919756
     -2.7873557393
     -3.5523753555
      7.4756098430
      2.2392780336
      2.8045999311
     -2.5274230918
      6.2769545815
      8.5869655001
     -5.5903214608
     -7.7333245493
      8.8774116007
     13.4226943646
      3.7027044019
      6.4543738413
      2.4570465523
    -12.1892838018
     -0.6109785780
     -4.4784334190
     -3.3902908245
     -9.2134325241
    -12.6265565553
     -0.1834562971
      2.5565010195
     -4.5960563068
     -4.1408282473
      4.4693925335
      2.5427346631
     -6.4540855295
     13.2916670579
    -10.1818597096
     -4.6288506576
      2.9290212819
     -1.4723119403
    -10.2700278731
    -19.2925382137
     -2.8476759056
     -3.1833236234
     12.2492294680
      3.4580451849
      3.5872795777
      3.0144029140
     -1.6163840353
     -6.0724619566
     -1.3290409776
      1.9745785435
      3.9359887853
      7.8115863559
      1.7351012755
      8.7339882329
      7.0301837992
      1.4669588578
      2.2886261632
      5.6728287464
      6.3970880332
      8.7828430859
      0.5248223567
      1.7070397729
     -0.6975387996
    -16.4574429576
     -0.1906028461
     -1.5778343238
      1.2554252738
     -3.9577420112
     -0.4007702323
     -7.5993829679
      0.7491356499
     -5.9673339638
     -7.8188137631
     -8.3083502664
      1.4412355116
      2.0614503221
     -0.9214765022
      4.6135070341
     -8.8254620672
     -7.3305428580
      6.8917593248
      2.3875100551
     -1.1795953591
      2.9331382850
      6.3528137568
      2.6030131959
     10.3631807811
     -5.6606658591
      4.9100036676
     -3.0600970515
     -7.8873253053
      9.3432040400
      0.1683508910
     -0.9302941326
     -3.8639495737
     -5.6819632928
    -20.7260847223
     -4.5354010514
      7.8656310279
     10.4525659931
     -8.4095356947
    -16.5450519876
     -1.1733899771
    -16.8708467103
      0.3224211323
     17.6467630055
     14.2348255967
    -20.5921392646
      2.4645196400
    -24.8043657403
      7.7241534823
     -0.5175126554
     35.5912662248
     -2.8866754022
     16.6042925287
    -16.4831076605
     -3.2164743224
      3.3792535848
     13.3534669797
      3.0749792162
     15.8083194332
    -13.8139759222
    -17.0355169104
     16.2244881507
     -9.7222431786
     -9.1958607885
     -6.7200348541
    -20.8800825585
     -4.8821989504
      0.7624026921
     -6.9952452008
    -10.5707710542
      8.1777333925
     14.6906603535
      9.0954436407
    -15.1355392765
      7.3868191034
     -7.7090442630
      6.9224826487
     -7.8647594549
      9.4349631858
     -0.2752969039
      2.3107340421
     -2.1779826295
     -2.7461374306
     11.3324829427
     15.8163421826
     -1.2107815861
      3.3429403575
      6.1520424704
      5.8158471112
      2.8170661514
      5.0893616993
     -6.8825279589
      1.1699593260
    -10.3938016634
      6.6220259221
      0.1791371125
     -8.7431746268
      3.3344370283
      7.2532961702
     -1.7915051383
     -1.2195062985
      0.6048024442
      0.6032534917
      6.3940946548
     -8.2591007075
      5.2659127151
     22.7640365850
      4.3338727068
     -2.5260843557
    -13.1923743010
      2.7342201423
     -4.9543255827
      1.0126519501
      2.1015774414
     -6.4035666021
     -1.2691931382
    -11.0688794115
      3.2054026132
     -3.4362125017
     13.5482105867
     -7.7974034508
     -3.8556466384
     -4.8455700193
    -10.6522089920
      7.2965101728
      3.6325234034
     -5.2140596461
      7.7049852375
     -4.5932533585
    -10.1155192405
     -1.9938200484
     -2.8964908141
     -4.0814767084
      4.4712409677
      0.8809765970
    -17.6586768516
      0.5512285718
     -2.9694220343
      0.2183841674
     -0.7058304690
     -8.4396341004
     -7.9532474078
     -1.2943793774
     -0.2163502274
      2.6600490706
      1.1971124611
      1.7673560843
      8.6558718146
     -4.7243695451
      0.5765129950
      3.7427284155
     -4.0422634516
      3.6788039117
      0.5216857406
     -1.2549376607
     -5.9137865952
      2.9123717270
      3.0278127658
      7.1744430583
      1.8420592367
     -1.9627671779
     -3.6261375741
     11.0403937383
     -6.1118477282
      2.8677730164
     -1.5193563652
     -1.7272292644
     -1.4838263189
     -9.3463494159
     -0.8480054983
      1.2544803945
     -0.5804954177
     -1.0190322779
     -0.6503036708
      1.2543956127
      1.4598279880
     -0.3171956945
     -1.7971637036
      0.2194243818
      0.0393570923
      0.5790878818
      0.2160839949
      0.7958600106
      1.3303518327
     -0.7170238370
     -1.1826324800
      0.1766198436
      1.1037743247
     -0.2631973733
      0.2315380468
     -1.2408854314
     -0.6106312217
      0.7160474817
      0.2410861119
     -0.8622638694
     -0.2588367584
     -1.3475789267
      1.3788343294
     -0.6302759810
      1.0454566396
     -0.6819270392
      0.9270325014
      0.9661567431
      0.1718502065
     -0.5043824474
      0.3219488696
     -4.5090064886
