      1.8393035369
      1.4972719767
      4.2794906385
      0.9096344110
     -3.4312362031
     -1.5829624492
     -2.5842419308
      1.6936272584
     -1.0682574173
      1.2650496885
      0.9671608652
     -0.1531450476
      2.0312163006
     -1.0440661876
     -2.7478643135
      1.3421702977
     -8.1404707459
      5.2463990868
      1.6226042676
     -2.6421516347
      0.9298422606
     -1.4816910284
      1.5222649365
      0.7900742462
      4.4019221162
     -1.8578127262
     -0.0068092450
     -1.3244255052
      2.2821843115
      2.0689030147
     -1.5864454244
     -2.3165443948
     -3.2892817526
      3.6738208881
      2.6608279382
     -1.9214736353
     -0.6275055998
     -3.1650943956
      0.0110442551
     -0.2722282374
     -0.2131489801
      2.6468653229
      1.1834993217
     -2.8087035279
     -0.8136328583
      1.0426132817
     -0.6671612911
      4.1675157488
      1.7728036883
      1.3960727864
     -1.3385527428
      5.3446952805
     -5.6177761046
     -0.6187816928
     -2.2137900868
     -2.5761916538
     -0.7597934798
      1.0151936999
     -0.0727642289
     -4.6778111357
      0.7844722377
      0.5522103703
      4.2746246502
     -0.6561636559
     -0.6337859298
     -0.4749838956
      2.3127235361
      0.1478473686
     -1.2847425574
     -1.8484857766
     -2.3105150173
     -3.9209155576
     -3.8313748908
     -0.4286265553
      1.9370441515
     -0.3536695508
      0.6338087948
     -0.5879521921
     -2.3786000735
     -1.7879486953
      4.2304537060
      4.4111454775
     -1.5219797899
     -1.9366928359
      4.9946467090
     -1.4026909135
      7.9664005880
     -3.1295124795
     -2.3502117944
      8.5292671287
      0.6104803158
     -4.2990908972
      0.6583354724
      1.4216494820
     -1.0322904771
      4.2637630510
     -0.6161329650
     -2.0836658694
     -0.6550870205
     -0.7426985782
      0.7605264060
      0.8363859469
      3.8509127128
     -2.1501274397
     -1.8416755260
     -2.1388736520
      2.5734116008
     -0.1257962678
      0.0946342618
      0.8115185272
      1.6467264796
     -0.2180762576
     -6.1887688093
      6.1977016181
      2.0728861103
     -3.6830174391
     -1.1141975301
     -6.6882100029
     -1.3444310531
     -3.9843215926
      2.2629867510
     -7.6864975571
      4.1604317119
      1.3517653547
      1.7024250279
      2.4045409623
      3.4593769103
     -0.4877102888
     -3.8389850797
      2.3439820374
      2.1641719724
      0.1070851410
     -1.9891723024
     -1.1196890527
     -1.6866828282
      2.3781707782
     -0.7284364335
      1.0680871860
      0.9192707032
      1.3466718279
      2.2310989844
      1.2437784400
      0.6589912300
     -0.7314172227
      0.1347740227
      3.2259623565
      0.1400576493
     -0.4696652417
     -1.4726784327
      0.5017708053
     -7.6441914042
     -2.3937583691
      2.4032163009
     -1.3641040542
     -0.1790380955
     -1.6558456948
     -3.5063802761
      0.2468785341
     -0.5624076544
     -4.7431319017
     -2.3644567765
      4.1525221055
      2.4452162986
     -1.6516618573
      4.2699243524
      3.6596357896
      1.9882440710
      5.1271591313
     -3.0313443338
     -2.7510452254
      1.2472566284
     -0.6178234863
      0.9393253993
      0.7870183568
      1.0588810562
      2.4040571310
     -0.7964904155
      0.6425244923
     -0.2944978339
     -2.5192507859
     -1.0921773058
     -2.5309595620
      4.5403425426
     -4.2440457008
      0.2375813892
      1.8351771226
     -1.8560907705
     -1.1186191646
      3.3393176570
     -0.6973275864
     -0.0185185889
      2.3192297883
      0.1559570649
      4.6494270815
      1.4241550400
     -3.0364485686
     -0.6443012666
     -1.9348536874
      3.4814320541
     -2.8036065087
      1.9168651408
     -0.3451934938
     -0.9700977911
      2.2587345974
      2.3258450271
     -1.6057365901
     -2.1119734342
      4.1734534849
     -1.5298317894
     -1.3094468975
     -0.9744413914
     -0.0832233819
      1.0425906814
      0.6228482419
      0.6116907108
     -0.4478420180
     -1.3099739671
     -0.8530675256
     -0.2086332267
     -0.2521756009
      1.3680266588
      0.1310756901
      0.2674435400
     -0.4621553169
      0.5135708054
      0.2800730879
     -0.8901119835
      0.0868025284
     -0.8266968470
      1.1778265174
      0.6479777511
     -0.6619658135
     -0.4688110128
     -0.8743088597
      0.9537367283
     -0.1924123194
     -0.3296126869
      0.6539745404
      0.4624784041
     -0.2180509616
     -2.2796613797
     -0.0894628972
      0.1117485195
      0.3083741623
      0.0705840180
     -2.3920285798
     -0.4400406852
      0.6750457577
     -0.4270509115
     -2.1028389312
      0.1595784162
      0.5554671501
      1.5391633201
      0.1296044507
     -0.1570076156
     -1.2418159279
      1.6320016352
     -1.3138944906
      0.1613199708
      0.6898126443
     -2.1248484472
     -5.6452078816
      2.3053719189
      1.2355500722
     -1.3389814319
     -0.2686570230
      0.9179322488
     -1.7131566325
     -0.3590139728
     -5.6287013384
      0.7093632343
      1.2737788228
     -1.4429088486
      3.0960682540
     -0.4835158734
     -0.6346431301
     -0.3287476208
     -0.1283983722
      0.8695957027
     -0.6082676641
      3.3398465143
      0.1759844142
      0.2167430237
      0.0861396012
      1.3776119264
     -0.0595829363
      0.1901027458
     -1.2459084833
      0.7114014137
     -0.1576942574
      0.1270134103
     -1.1159730086
     -0.6010648751
     -0.3144902939
      0.1728647519
      0.5638768875
      2.3772820952
     -0.7775387302
     -1.7119254311
      1.0457561543
     -0.0154121083
     -1.0956213276
      0.6006635844
      1.0461211978
      5.1865932826
      0.7771296474
     -0.7525097580
      0.4007684597
     -1.1893628230
      0.2843679441
      0.4880593465
     -0.1640897251
     -0.1839041759
     -0.4650145262
      0.3385525813
      5.3318373192
     -1.8115955709
      1.4583878368
      1.0455610495
     -0.8354721559
      0.4168263555
     -3.8484082182
      3.5521251750
      7.3677717878
     -1.5405690671
      0.2307830083
      0.8320423109
     -3.1425609964
      4.0034458420
      1.2316564749
      0.2203080146
      3.7528793998
     -0.6773138122
      4.3450944053
     -1.4796203507
      0.5383103460
     -0.0880930900
     -3.7492614214
      1.7272631709
     -0.2889544557
     -3.2346899644
     -1.7934260773
     -0.6455338698
     -0.7240882117
     -0.4058094019
      0.5069034944
      0.7773241979
      0.4266692245
      0.1235328116
      0.3179227484
     -6.7489361377
      0.9939480095
     -0.6915588751
     -0.7579342835
      0.6483956942
      0.1444865876
      1.9659730691
     -3.3361322418
     -3.3303133882
      0.4364909739
      0.2645568587
     -0.5028565315
      1.2399184013
     -1.3604305932
     -0.1542219116
      0.2027094405
     -1.1185866145
      1.6964195311
     -2.1817247396
      2.0163997825
      0.5598751647
      1.8455178239
      1.9340054541
     -1.2247163200
      0.4546212629
      2.3883079147
      1.0364774676
     -0.4266087712
      0.1224520170
     -0.0462611466
     -0.6245420693
     -0.7529871859
      0.5926378057
     -0.3459262060
     -0.3550256899
     -0.5722101707
      0.7067564795
     -1.0166382334
      0.4087985900
      0.8747245336
     -0.0601428217
     -1.9514083079
     -0.7980489309
      0.8964376483
      0.7910996824
      1.1829952399
     -2.0484194254
      0.6068572983
     -1.0271280834
     -1.0778126886
      0.4787622026
      0.9749332922
     -0.6178027714
      0.6163136594
     -1.2405967946
      0.9847008167
     -0.3728952093
     -1.2650503999
     -1.1468619101
      2.9755750018
     -2.4181847444
     -0.8114622092
      1.7042790461
     -2.6237774226
     -0.5280008015
      0.2553356732
      0.8154114685
     -0.6908945132
     -0.9720647303
      0.4926192763
     -4.0968485279
      0.9825824361
     -0.3354922823
      0.3673357764
      1.0215657863
     -0.4053615184
      2.0084176856
     -0.0394321245
     -3.2084398878
      0.9661354922
     -1.2760838771
      0.1720518967
      0.2499434228
     -0.4070876558
     -0.9187007385
     -1.4070917869
     -2.5979908806
     -1.9292980483
     -3.9025325931
     -0.7859515098
     -1.3424666444
      0.7659009729
      0.6108932397
      0.5390251295
     -3.5348369945
     -0.3793968521
     -0.3642851502
      0.0227114360
     -0.0730501405
      0.4573512036
      1.1861500290
     -0.3279451729
     -0.6461405367
     -1.4276180591
     -0.7888584353
      0.1388094891
     -1.8896728549
      4.1011851980
      2.5615501973
     -1.0815573380
     -3.5801326082
     -0.1144653428
      0.0159135011
     -1.8645712766
     -0.1421042877
      1.5535207732
     -0.2128524297
      1.3149398308
      3.9206594821
     -1.1492432417
      1.2787993450
      1.8179764212
      1.0819169356
     -2.5721491175
      1.6994834985
      1.2699132418
     -0.0104671425
     -2.8062014571
      3.3616621538
     -4.4897358945
     -4.3739604555
     -1.2438693199
     -3.8273822060
      5.5723331302
      0.9515514717
     -1.2257504896
     -2.2084421533
     -0.3542912295
      0.0500684313
     -3.1970148000
      0.2974606671
     -1.7453751085
     -0.7865287764
     -2.4139009881
     -0.6465671049
      1.9921844704
      2.2119164970
      2.6260752176
      1.8991466284
     -4.0406759933
     -5.1582498211
     -0.1278784805
     -1.1724283929
     -4.2070332426
      3.4215351954
     -2.6628126976
      2.8435881060
     -1.5136632799
     -3.4163020740
      0.8139620532
      0.9884436365
     -0.7287825955
      5.6411459517
     -3.9876887277
     -1.1476714394
      2.7668284123
      0.6740780095
      6.2505902202
     -5.0235986946
     -3.4711490641
      2.8824142531
      0.9964366994
     -0.8292894203
     -2.9007676438
      2.7057007425
     -2.7294827842
      1.0722366548
     -0.1314155944
      2.5773329676
      1.2696741189
     -2.0335534612
      0.5831739694
     -2.4372738265
      0.9699777659
      0.6555715024
      4.7068906092
     -1.1092259293
     -3.4444961069
      1.3172127627
     -1.3795222865
      0.3820936430
     -2.9355128016
      1.7543290995
      2.0449224630
     -1.9651038437
     -1.5670618243
     -1.1502477360
     -0.7138853560
      0.6380610400
      4.6368014281
     -2.3939325925
     -1.1704166258
     -2.7643287594
      1.4337081108
     -1.8305309031
     -1.4952867916
     -0.9546947601
      0.1273958646
     -0.5374161401
     -0.6986467126
      2.2917423473
      1.9992578869
     -0.0053971205
     -1.8243161763
     -1.2981670212
      0.0782976365
      0.7020061637
     -1.5647474861
      3.6225775886
     -2.6621567386
      0.9475362927
     -1.9727391648
     -2.6273709341
      3.2293491691
     -4.5540541304
      2.3756378393
     -2.7149252264
      3.5945017989
      7.7001504619
     -0.6320957971
     -1.5882689711
      2.2465047752
      0.2737867016
     -3.6052114069
      3.0748350776
      1.6117559737
      1.0223139452
      0.3561912868
     -0.3926222080
      0.4553023346
     -1.2504014803
      1.0542318904
      3.0499195566
     -0.5867133464
      1.4321300674
     -0.1807757132
     -1.4042646704
     -4.6686452369
      2.3725685415
      6.1249259764
     -0.8466608253
      0.4621455443
      0.0063223263
      0.3091589535
      2.5648516102
      0.4419776990
      3.3700607249
      9.4808561610
     -5.0784113859
      5.2053336903
     -0.4108977636
      1.2380511292
     -2.1278071788
     -4.6702709295
      1.8478940131
      4.2705809659
     -0.1677566754
     -0.6603055319
      1.8441709827
     -1.5720424382
     -5.2285289026
      1.1558211469
     -2.4772513185
      2.3087625545
      1.1697581772
     -1.8608136115
      2.5516029002
     -5.8196212423
      5.2194038921
      0.8955205537
      1.7533201259
      0.2105391223
      1.8638075492
     -1.5569631905
     -2.0281043163
      1.4380711816
     -1.2776241397
      0.1358811988
     -2.4929694090
      0.0278486341
     -1.5027998873
     -0.1152261181
     -0.0318156396
      2.1414349470
     -0.5733940686
     -0.4490964626
     -1.7339020862
     -1.0101700249
     -0.3474839243
     -0.0150975045
      1.0827507902
      0.1214850742
      0.2967871983
      0.6857500352
     -2.7451015745
      1.8402856871
      0.7619473727
      1.1870130203
     -0.2355815096
      1.7637979905
      0.5697912798
     -1.1485084749
      0.4146631454
      0.3643847164
      0.0426861632
      0.4896160103
      0.7674314960
     -1.2623672358
     -1.3176347331
     -0.7355969079
      0.1446350078
      0.7019686931
      1.0744809999
      1.9444428010
     -0.3903327594
      3.2734665646
      1.1609293873
     -0.9378352521
      1.3687954158
     -0.8713200408
     -0.0763001594
     -0.0770939870
      0.3366298984
      1.7631079230
     -1.2880525561
     -1.3950316895
     -1.4125281811
     -0.6533281992
     -1.1598323277
     -1.3729670712
      0.5876813911
     -0.7718901066
     -0.3683079772
      0.1052698579
      0.3606975480
     -1.0330802479
     -1.5746606996
      1.0349313069
      0.5178305931
      0.7659880377
     -1.0865157623
     -0.4784938530
     -0.3985645524
      0.4321929057
     -1.2209485139
      0.4974716354
     -0.7915966871
      0.0303935800
     -0.5755383580
      2.0426398886
     -0.3675282554
     -0.0416795988
      0.3376444538
      0.9001084981
      1.8546279071
      0.3680477807
      1.6290835507
     -1.8786967307
     -2.1085406106
      0.5450721274
      0.9652263762
     -1.2765483598
     -0.5652226107
      2.1040726224
     -0.4929959055
     -2.7001426852
     -1.4664813802
     -0.1771461037
      0.2015309897
      0.2386212261
      0.9508059622
      1.1917258931
     -1.0883350500
     -0.7784612497
     -1.6092162779
     -2.6604193993
      0.1602253542
      2.1327517224
      0.1819267144
      1.5468693828
      0.4268914896
      0.9474305954
     -1.6142705956
      1.6919348511
      0.6472378910
      1.5759774052
     -0.0518831456
     -1.3500605063
      2.3460984888
     -0.2890539742
     -0.4411427177
     -2.4569270244
      0.4704551877
      2.1678504639
     -1.7868945185
      0.3800210069
      1.4803310849
     -1.2421535660
     -1.2501272195
     -2.6677928757
      1.9177245001
     -0.4283121657
      1.6123280708
      0.6520950076
     -0.3875569691
     -0.3022105635
     -0.5291211360
     -1.0725111947
      0.2451467794
     -0.5497575060
     -0.2061875187
      4.8629431281
     -0.0394061871
     -1.0065840955
     -0.2569866485
     -2.3741457313
      1.3065442617
     -3.1961393975
      1.4632386441
      0.7946740202
      2.5817808563
     -3.5770597991
      1.0551947263
     -0.7535563464
      1.5559377024
      1.5154125540
      2.8478787059
      0.5441753309
      0.3209165687
     -0.7427736819
     -0.6607885203
      0.0864143954
      1.6190823735
     -1.1993055284
      0.2000694196
      1.4169786745
     -2.5683844507
      1.9942368528
      1.2238923031
      3.3493630541
      1.6719911868
     -1.6202843686
     -1.3117630215
      0.5362165461
     -0.3829665634
     -1.1283590155
     -1.4857383055
     -0.3824230331
      0.6152568309
     -1.5640155695
      1.7392852249
     -2.1133041564
     -0.5640340112
      0.2025803464
     -0.4033992133
      0.5354754677
      0.4877446969
     -3.0679179405
      0.8222865957
     -0.3056222118
      0.6314513856
      0.0350801252
      1.2033185919
      0.8908338773
      0.2315642690
     -1.1763119561
     -1.7580825027
     -2.8868650512
     -2.1866621939
      1.9700160485
      1.6828638269
     -1.4688898838
     -1.8811243795
     -0.2784923810
      0.9875954968
     -0.3985301423
     -1.9880514012
     -2.3494230818
      0.5722866337
      0.3799959144
     -3.1914885499
     -1.6733989877
     -0.3147999474
      3.2623854399
      0.1637710960
      3.8161531484
      2.8318711214
      2.3531963654
     -1.0831215659
      0.5927398677
      1.9762638066
     -0.4548430467
     -5.5581537539
      1.3323592767
      1.0906438521
      0.1615911111
     -1.3585650571
     -0.2877548019
     -2.6623690926
     -0.7075015630
      0.5860590500
     -0.2516719377
      0.0981360686
      0.0913125101
      2.0706760827
     -0.6912287845
     -3.5356463477
     -4.7021375048
     -0.5369064033
      2.2793009913
     -3.3747140031
     -0.4013082774
     -1.1735411729
      0.9689372289
     -0.8866572012
      0.0761092884
      0.2063829847
     -0.3285633028
     -1.0499649035
      0.8997945566
      0.0400851746
      0.8734611576
     -2.3355298622
      1.4687990967
      0.3356789589
      0.1055359260
      0.8296607427
     -0.5096605278
     -0.4053176789
      0.1729516010
      0.3868140087
      0.9228300626
      0.0209653394
      0.5899835298
     -0.7178899246
      0.8077615764
     -0.8004418705
      0.0543770727
     -0.8215010245
      0.7172697852
     -1.7433715081
     -1.7273382112
     -0.2825704278
      0.2867011550
     -0.9229576510
     -0.6193937734
     -1.0336841209
      1.4859945518
     -0.9552535471
     -1.0568976610
      3.8711359580
     -1.1546772133
      0.9637302596
     -1.1439766611
      0.6501486041
      0.6255849329
      1.3913073262
      0.9441224734
     -3.4369031998
     -0.3514895944
      0.3885687718
     -0.7846179881
      0.2850159830
      0.3128955634
      0.6444345013
     -1.3386266769
     -0.3931328005
     -0.3960284561
     -1.3805540932
     -1.4583896579
      0.2059018131
      0.4077635713
      0.4758551571
     -0.3394908757
     -0.1653325497
     -0.3172116200
      0.6182958743
     -3.0544424469
     -1.1877867674
      0.2657119989
     -0.2594203359
     -0.7369194023
      0.0492948518
      0.0862214048
     -0.3456486509
      0.5656885476
      0.2325413940
     -0.6704308288
      0.2784298625
      2.4938127781
     -1.4517279201
      2.1564635390
     -0.9533310621
      3.9116536685
      0.8338597481
      2.4384541597
     -0.1074671467
      2.3752456224
      0.2781385909
     -0.4174353121
      0.3739790755
      0.9661283126
     -1.1435714609
      3.0532588386
     -1.1980189160
      0.1556061422
     -0.4248197164
      2.1952411305
     -0.0645689087
      0.0714476385
     -0.0944372498
      0.2686238484
     -1.4113947763
     -1.0440373940
      1.0396214512
     -0.2655878576
      1.1408073606
     -0.0903128221
     -0.5741611418
     -0.2522931220
      0.4053818672
      0.3976908139
      0.2793450415
      1.2916345713
      1.0333406873
      1.0576037767
      0.9882411878
     -1.3850463332
      0.8240836466
     -1.8597681126
     -0.0712655258
      0.5711415618
     -0.4935801982
     -0.3540699792
      0.1267397733
      2.8727762837
     -1.3940838992
      0.2028763399
     -2.6365451102
      1.3303211143
      0.3014113723
     -1.1543575036
     -0.0042694891
      0.8960163591
     -0.8279736290
     -1.4956532953
     -4.4998352077
     -3.4691419532
     -0.5627146254
      1.7546532248
      1.1089153983
     -0.4697313796
     -0.8771514855
      0.2837165499
     -0.1487245303
     -0.5049947634
     -0.5916633065
     -0.1039417197
     -0.0218339297
     -0.2730052045
      0.3862759834
     -2.8090312533
      0.2342357998
      3.2377848453
      0.7397970132
      0.1517717956
     -3.1173798750
      1.6125214238
      0.1141923597
     -0.0245414594
     -0.9350693287
     -4.8905255951
      0.1123057416
      4.5317907093
      0.2214982288
      0.6788718505
     -0.7819003760
     -1.3091941494
      1.3130449750
      1.2158143651
     -1.1381770627
     -0.8022852281
      0.2470880837
      0.2290825595
     -0.0142667844
      1.2627388745
      0.6471207422
      0.2440313512
     -0.6978669688
     -1.3403386722
      3.8898655626
      0.4158295987
     -0.5338282984
      2.4799408858
     -3.9926493365
     -0.5959386964
      5.0764699607
      0.6831515220
     -0.2059352046
      0.1551096301
      3.0561633798
     -1.2914733330
      1.5812058449
     -1.5809437103
      0.9851112952
     -1.5711896083
      0.6744129574
     -0.1496502658
      3.7121752237
      0.6078105461
     -0.3418766585
      2.1540593327
      3.2806307675
      0.0255420983
     -1.1251161900
      3.1949734573
     12.8195770578
      3.6050615995
      0.9247029204
      4.3324891062
      2.7662665211
      1.7501776467
      2.2640123441
     -1.1490558020
      1.9753122102
      0.3555193171
      1.2287423585
     -0.2135088783
     -2.4458702500
      0.6346082146
     -0.4247555596
     -0.3540966787
      0.3700169683
     -0.2006839663
     -1.1304402352
     -0.3240326464
     -1.6862735359
     -1.6868587239
      0.0048551278
     -0.3046226670
      1.1737803083
     -1.3733704108
     -0.7641876947
     -0.7238796608
      0.4390149868
      0.9323203120
     -0.5792433550
     -0.6262609829
      1.0094515779
      0.5449656015
     -1.9348803462
     -1.3205976963
     -2.5720133836
     -0.0904108885
      0.8338309875
     -0.1449972930
      1.6015399777
      0.2220509206
     -0.8419926207
     -0.2720822377
     -1.3512405695
      1.9181854320
     -1.2422179722
     -5.2406263811
     -3.1439158942
     -1.5139717518
      0.4697218033
      0.5795094348
      0.3114792328
     -1.1714525492
     -1.5034647604
     -2.4043740094
      1.2925847296
     -0.2497601167
     -1.2409840753
     -2.3576585953
     -0.6094393256
     -1.6037655626
      3.8352302993
     -1.6639548831
     -0.9060915402
     -1.6770511265
     -3.1459837971
     -0.7545011891
     -0.6213355086
      0.6589331675
      1.4297306622
      5.3313098832
      1.0359709466
     -0.9768769708
      1.6848219825
     -1.6147714302
      0.8300140295
     -0.8975502314
     -1.1973833874
      0.8494764584
     -0.3664934039
     -0.1217251129
      3.1808128877
      1.2401197584
     -0.3408777250
     -0.1114941223
     -0.9681540689
      0.7390412257
     -0.3808865626
     -0.6484066031
      1.1004758862
      2.5361202513
     -0.3513466695
     -0.1064784796
      0.8992036613
     -0.9058128087
     -1.3996961103
     -2.0668868982
     -0.1602453076
      0.3293702600
      0.8647326122
      2.2971209003
     -1.1317913610
     -0.2088827573
     -0.9306850770
     -0.8104908714
     -1.0062817345
     -0.1386530369
     -0.3595802065
     -0.6665305193
     -0.8296459533
     -1.9667317528
     -0.2444325197
      1.2745580112
      0.8260488649
      0.4670803219
     -0.0003073150
      0.3023200446
      3.5081560532
     -0.2304156137
      5.9924484866
      0.0808628228
     -2.8198901321
      0.3148838121
      1.8446834152
      1.3396404962
     -2.0335259933
      0.9239823255
     -0.6674711364
      1.6153477564
      2.0823832370
      0.0590009746
     -1.2736588667
      0.2864771973
      0.3117620064
     -0.9570412917
      2.4700266810
     -0.4845755671
     -1.2857122086
      3.9636572135
      2.2636601201
     -1.2825752169
     -0.2658624909
      0.3461423558
      1.5187124088
      0.9756936269
     -0.3619117525
     -0.6934315296
      0.7417391190
     -2.4807900070
      0.7350946644
      2.9305930069
      0.8673978445
      0.6534542738
     -2.6264134728
     -1.7548014055
     -3.6223712986
      4.6804812886
     -0.5499094482
     -1.1659319184
     -0.8667235700
      2.2967705071
      0.1448908007
      0.0812077435
     -1.8929800436
     -0.0099535415
     -1.7907446110
      1.8804339647
      1.7779772171
      0.4972998884
     -2.0545728074
     -6.2043388311
     -2.5652660088
     -3.6484039874
      0.5213063889
     -0.3652933557
     -1.6841688036
      1.3374961810
      0.9826573458
      3.2399824728
      2.0682603837
     -6.0844953555
      3.3649640640
     -2.1972494630
      1.2309818765
     -0.4763059981
     -0.0218071596
     -0.1106195950
      0.4017514563
      2.9104844448
     -0.5845181512
     -0.1217692355
     -4.4409061196
     -0.3647734557
     -1.4883985800
      0.4792100452
     -0.3437295830
      0.3385779097
     -0.4548355753
      0.5964222745
     -0.2894119938
      0.8213753235
     -2.1446479813
     -0.2540538127
      0.1225851603
     -1.3404152130
     -1.0151907309
     -1.1196898200
     -0.3102002108
      0.1878491765
     -1.3158682478
      2.9011792052
      0.1261944475
      0.1859897028
     -0.0050298733
     -0.9646975177
     -2.0792327117
      0.0875015001
      0.6149804562
      0.8156721315
     -1.1789168952
     -0.1948600658
      3.6613567365
     -0.4535490519
     -0.4218617522
     -1.7306645330
      0.7554954710
      0.3012047046
     -0.4708532580
     -2.0992698817
     -1.3530379149
     -0.3764066110
      0.0206354750
     -1.0727456635
     -0.7993188067
      0.1813805191
      0.7521900503
      4.0478952758
     -0.1067725989
      0.1449275454
      1.1791369891
     -2.1483616872
      0.0049356296
      1.4139421239
     -2.0095382946
      0.3991777258
      0.5318886381
      0.4999344303
     -1.0021372782
     -1.5099170298
      0.5301381651
      0.7210136850
     -0.3611370231
      0.1314677611
     -0.8842038238
     -4.8127309967
     -0.7715821816
     -1.2668278119
      1.1602217344
      0.3785674348
     -1.1558163819
      0.9962352516
      1.3878801135
     -2.4538580522
     -1.4391517132
     -1.7558372352
      2.7400600007
     -1.5655616565
     -0.9319651361
     -2.3921228983
     -3.6405548673
     -0.6684880274
     -2.1494965752
      0.9328769504
      1.1115155028
     -0.3613771851
      0.2059551956
     -0.7397229059
      0.2155125465
     -2.4381604853
      1.7566802723
     -2.3789741996
     -0.1827007105
      3.5871066454
      1.2962677799
     -3.7331740261
     -5.4192985198
     -0.6013300512
     -1.5387531302
     -0.4486436030
     -1.0831166896
      0.1817122635
      0.7391016728
      0.8008761285
     -0.1086030922
      0.3771133070
      1.4062364677
     -0.7339811410
      0.7567028399
      1.8576520038
     -0.0560783368
     -0.1536194327
      0.5418218255
     -0.5367451472
     -0.2707054605
     -0.6069116863
      0.1981011283
     -0.7891398580
     -0.0169187256
     -0.0148560417
      1.0022618654
      1.6754285441
      1.7198122613
      0.8828899783
      0.9865223367
      0.6319431794
     -1.3137177244
      0.0687529632
     -0.4256844709
     -0.3353232985
     -1.2542881850
     -0.2585744582
     -0.1731198983
     -0.7525435881
     -1.4688273214
     -4.3889485370
     -1.1477087247
      1.4427009685
     -0.9344551461
      2.7399860905
      3.0547298516
     -1.9960447060
      6.1828307941
     -0.7483658524
      1.0608938365
     -0.4071498986
     -2.5220200517
     -1.3193098371
     -0.4432480846
      2.7429688988
     -2.1542423203
     -1.9584017431
     -2.8278565387
      2.1396500815
      2.0840373303
      0.0099653503
      3.6685607338
     -0.6538022034
     -0.4360706043
     -1.8853740533
     -1.4291015525
      3.2126983057
      0.0523619412
      1.0437289330
      1.9620004694
      2.4565976114
     -0.7820045769
     -0.1284300708
      1.7288674317
      0.8946885459
      0.4739122844
      0.0598739181
     -0.7810007148
     -4.8526400029
     -3.3754313417
      5.2579039201
     -1.4464263759
     -2.8218652542
     -0.5695234097
     -2.8979872467
     -3.9750173124
      0.3207476107
     -0.0690698009
     -0.0352151491
     -3.6478639488
     -1.2760572882
     -0.1286507472
     -3.0402799341
      1.0794602913
      0.8654757458
     -0.8358255920
     -6.3666248773
      2.7324351607
     -2.5625606988
      0.1825600597
     -1.2159629593
     -2.3303991264
      0.7025219002
     -2.0413701167
      0.0111642825
     -0.4230132298
     -1.1357732108
      0.7034214667
      0.5253080267
     -0.9373770033
     -0.9341886594
     -0.0003908236
     -1.5434560340
      0.8947099111
      1.1060166795
      0.4014976284
      1.9214432249
     -2.6320934889
     -0.5546683040
     -0.2209578585
     -2.0052364051
      0.3207285444
      0.0826696898
      0.0946212916
      1.3589352966
     -2.1604863861
     -0.3756515350
      0.9448366763
      1.1108113777
     -0.2622190692
     -0.7430953977
      0.9429477797
     -0.0102126179
     -0.0073535498
     -1.0126152112
     -2.3284315848
      1.2517883356
     -0.1229312385
     -0.1547151903
      1.2189526446
      1.3948458930
     -0.0265868752
      0.6503319742
     -0.2227519075
      2.3092809418
      2.0887411203
     -0.5598998740
     -1.2585934877
     -0.8645949578
     -1.5537655349
     -0.7165068056
     -0.7667502926
     -1.1046898041
     -0.5505747258
      1.7465232198
     -0.1525628335
     -0.4226711509
     -0.4470519412
      0.2751755955
     -1.3967693999
     -0.2800734033
      0.1701023332
     -1.0120112397
     -0.0875664258
     -0.0728169745
     -1.1334398856
     -3.6443648885
      0.3481980999
      0.0558635915
     -3.0214000150
     -0.2969335686
     -1.4069738423
     -0.2511959910
      2.3668735904
      0.2861227251
     -0.6472191458
      0.4425186143
      0.4211344697
      0.1896294574
      1.6520730644
     -0.4738302662
     -0.7668285387
      0.9882121936
      1.2005800616
      1.9482631257
     -3.5167508191
      1.6435239295
      2.0740394025
      1.6242252458
      4.0243332483
      1.3610146999
     -1.6624824327
      1.7084809329
      0.4832473289
      1.2302483013
     -0.8874909958
     -0.8168446704
      0.1204576074
      0.4028198848
     -0.9785307151
     -0.9601871518
      2.6200680946
     -0.1496293673
     -0.0842146017
      3.4637187810
     -0.6170363558
      1.3721517751
      1.1807667682
      0.8165958753
      0.9965622590
      1.1876613252
      1.1615686809
     -0.6452049960
     -1.1832170813
     -0.9688344396
     -1.7615780796
      0.5402556022
      1.2583740937
     -1.9354221872
     -0.4751808360
     -2.4582181696
      1.3649137418
     -1.3404957698
      0.8984355379
      0.5666528321
      1.3375200685
      1.8564465632
      0.4048622475
      0.5956281382
      2.9005827286
     -1.4706700852
     -0.0940639581
     -0.4559666944
     -0.5989612633
      0.8010978640
      1.7436881086
     -2.5779878212
      0.1939934555
      1.3205733192
      0.1188709075
      2.4671770264
     -0.4443506745
      0.3536684256
      0.2935340984
     -4.3822705930
     -0.7509667754
      1.2695874530
      0.6077174943
     -0.8924126410
     -0.6258060994
      1.0193896594
     -1.3705649615
     -1.2644092307
      0.8610545568
     -3.4968884237
      0.6469127695
     -2.2165131426
     -2.7000455663
     -1.5067498421
      3.3925236635
      0.0846349989
     -0.5096689714
     -2.1102642316
     -1.4091069173
     -0.1140609435
     -0.0752628180
     -3.8527696527
     -1.9425162133
     -1.0729078654
      2.1014972714
     -0.1527617012
     -1.3481180265
     -0.3286770968
      1.2513468031
     -2.6777821701
     -3.9642117788
     -0.4887567631
      2.7527700598
      0.4668167875
     -1.9212201865
      3.6155224024
      1.4904382378
     -0.1670583498
      1.8111052359
      4.2899663559
      0.0947307308
     -0.0537542583
      0.5101961421
     -2.4574574727
     -4.1985502414
     -3.7072904544
     -0.2603661948
      0.0175855045
      1.0549211452
     -2.3582912379
      2.9394416459
     -0.0496650517
      0.0113053655
     -0.5167948050
     -0.5337049473
     -1.0383247480
     -0.3569011088
      0.7532791604
      0.2954375767
      1.8581116025
     -0.7963321326
     -2.3343802725
      0.3799530200
      0.9619045905
      1.3851446131
     -2.3975741884
     -0.8245892140
      0.4193508953
     -1.9296227540
     -2.4527337216
      0.6192040457
      0.7785444490
     -0.8301288600
      0.2738969501
     -1.1370267279
     -0.3189395773
     -0.9529816687
     -1.9322600992
      0.9592434707
      0.1792673561
     -0.4166090583
     -2.4357936997
     -2.1666743543
      0.2406859734
     -0.1982630768
     -0.1329562725
      2.3865110817
     -0.7626244532
     -0.2486742999
      0.3358154544
      1.0037857739
      1.0195254709
      0.9504842816
      0.0719886936
      0.6747941038
      1.7155556856
      1.6674972260
     -2.1547966892
     -2.0424547857
      0.4510099271
      3.5101428617
      1.8813577341
      0.0867161250
      1.3850777622
     -1.9334758467
     -2.4159726696
      0.1816272398
     -1.0129492945
      0.1343765971
     -0.1435497172
      3.0843271117
      0.6530828850
      1.7494588193
      4.5256945298
     -3.2604347118
      1.3266034632
      2.7017323174
      3.7235145615
      1.3173547693
     -0.8767324542
     -1.6116207996
      2.7230752987
     -0.6688934998
     -0.3202878997
     -2.3641611786
      1.3252281317
     -1.3859844444
      2.8542270019
      0.2084055657
      0.8480540729
     -0.5402515848
      7.6869656134
     -0.6253474261
      0.9525334203
     -1.4290044268
     -2.8452421618
     -0.7604216371
      3.6716923188
     -1.6238545702
      0.1709813524
     -4.4810339692
     -1.2799983974
      0.7426752434
      1.6568182555
     -1.1957017964
     -2.9804463789
     -0.4715237873
      4.0796173904
      0.3738006485
     -0.1418897108
      1.7889512298
      0.8051528271
     -0.5023342655
      0.0047042127
      0.1830888169
     -3.0391847038
     -0.5874213916
      0.1705396916
     -0.0848524213
      0.3335224583
      1.0333375290
      0.9279838505
      1.2058109484
     -0.0515001166
     -0.0863712095
     -1.7943454681
      1.6500929514
     -2.3103731164
      0.0484520935
     -0.5090502633
      1.7895063163
     -1.8199179173
      0.2968236653
     -3.2464629217
     -0.9222633914
      2.6832443404
      1.2358840245
     -0.0502572020
      0.4399009236
      0.8959150957
      3.0651389063
     -0.0349669216
     -2.4797728348
      0.5386168572
     -1.5183727758
     -0.7248787609
      1.1917298945
      0.5505067490
      1.1375635345
     -2.3581873986
      1.0334428565
      0.9394887357
     -0.3553205944
     -0.4178331041
     -3.2143014028
      0.3011982243
      0.0629910434
      2.4181751628
     -1.4652162565
      1.1858946113
      0.0250061917
      2.6935355269
      0.4749659894
      0.6400831010
     -0.5176078305
      1.9352315620
     -0.6451101613
      0.1298860624
     -2.0264697416
      0.1681285292
      0.5209422349
      1.9711039946
      0.0680348837
     -0.6872890658
      1.3391571365
     -0.8254502281
      0.0816311918
     -1.0760342653
     -1.9766603456
      0.7818449729
      1.1935179027
      1.4904936255
     -1.9714635105
     -0.3057134960
     -1.4900259833
     -0.5793277677
     -0.8351098368
      1.2282506348
     -0.0673341198
     -1.7519188360
      0.3388769435
     -0.4017786483
      2.1008541651
     -0.6760162701
     -0.1097439839
     -0.3571136471
     -1.4039269384
      0.1795431173
      0.7295805592
     -0.4300435193
      3.0763985616
     -1.6986379768
      0.4940528281
      1.0034923486
      0.4330446711
      0.2708852266
      0.3741904903
     -0.1196146005
      0.2447887962
     -0.4791287068
     -0.7231126638
      0.1737181558
      3.1484236523
      1.5882485056
     -0.5375672535
      1.7967003253
     -0.9069238109
      2.4725045777
      0.3651402256
      2.0389413792
     -0.2154707681
     -0.2134060255
     -0.0468620593
      0.7711371711
      0.3501939249
     -0.8644952937
     -0.3806182674
     -2.0971575190
     -0.0735345276
     -0.0993582621
     -0.5013029017
      2.6966860525
     -0.4839293865
     -1.0836919635
      0.6712327979
      0.4720766899
     -0.6344142956
      0.1974324237
     -0.9342114823
      1.3144243840
     -0.3686173840
      0.4956504606
      0.2501742877
     -0.5375775241
      1.1064980158
     -0.3040850107
      0.1761416314
     -0.1901311333
     -0.2514338735
      1.1359592365
      1.8925703053
     -1.4103112484
      4.1969921877
     -0.9826787117
      0.3859086181
      0.0273481773
     -1.5468139955
     -0.3638645894
     -0.7023143499
      0.0832104994
     -0.9760560386
      0.6214296208
      0.6761404955
     -0.9958524448
      0.2731375434
      1.1542456723
      2.3318045265
     -0.6923200795
      0.6868673704
     -1.9811812618
      1.4172367076
     -0.1458849476
     -0.4163092069
      1.3423010333
     -1.3117207220
     -1.0599226523
     -0.5465542209
     -0.4473657126
     -0.4070327204
      0.0707246247
      0.4142341403
      0.2057475237
     -1.3415191649
     -1.3734289055
      0.6652923834
     -0.0996434025
      0.6375689462
      1.1918139026
     -0.7759898076
     -2.3416800493
     -0.2966609685
     -0.3018241795
      0.2898146620
      0.3248771473
     -3.1804368784
     -1.1579353433
      0.4364439297
     -0.2176457303
     -0.4535658083
     -0.9686832725
      0.2683721321
     -1.1856318259
      0.8450026790
     -0.4545405896
     -0.8358852895
      1.5679647343
      0.3587219060
     -0.3697322807
      3.3774167648
      2.0275545845
     -1.5434157694
     -0.9854760467
      0.3881560623
     -0.3429000709
     -1.5257818359
     -0.0146584496
      0.4866420045
      2.1022692448
     -2.9910627470
      2.0921877979
      0.2940999412
     -0.3126997563
      2.1939563713
     -1.1642092508
     -0.6893126703
      1.1101086666
      1.1659937802
      0.4924308441
     -1.1763701548
     -0.8893577010
     -0.7588480048
     -1.2750800457
      1.7469067529
     -0.3160889057
      0.3402353483
     -0.0604746780
      3.2467695607
     -1.1888807638
     -0.8312521988
     -0.1433528747
     -0.3259164175
     -2.2012876881
     -0.5570862225
     -0.4056845724
      1.1585988644
     -0.9545495172
     -0.6533882500
      0.2560917542
      0.9183904471
     -0.1094620789
      1.6586437909
     -2.4578750995
      2.9978036815
     -1.2131915358
     -0.0509429101
     -1.1334231636
     -7.5706867180
     -4.0047084402
      1.9820118903
      1.1084727159
     -0.3401789156
      5.0888989075
      0.6198437478
     -1.2184161400
      2.2472352372
     -2.2322276389
      0.0956598852
     -7.1402738154
     -2.0041046670
      1.2242240307
      5.8921116848
     -3.6060720410
     -0.5246406246
     -0.5677863115
      4.5735287618
     -3.3539819520
      6.4596940457
      0.7428368681
     -0.2506291476
     -5.5914043052
     -0.2387148523
     -1.8825478212
     -3.9816779240
     -1.5046210259
      0.0532059515
     -0.0238370560
      0.0787291321
      0.5950622604
     -0.0051719752
      0.0096332355
      0.2005170673
     -0.1164609669
      0.0356780142
      0.0819552719
     -0.0043219560
     -0.0049495498
      0.0055836208
     -0.0421214377
     -0.0541223717
      0.0039124661
      0.0079363946
      0.1996441573
      0.0074218432
      0.0709227059
     -0.0899305388
     -0.0126632170
     -0.0082942793
      0.2037341739
      0.0772194058
     -0.0078338077
     -0.3935106366
      0.0738263655
      0.0462038328
      0.0023537637
     -0.0098587403
     -0.2597533946
      0.1050142063
     -0.0744315935
     -0.0240052481
     -0.9500022199
